digraph Tree {
node [shape=box, style="filled, rounded", color="black", fontname=helvetica] ;
edge [fontname=helvetica] ;
0 [label="NumberSymbols- <= 0.5\ngini = 0.69\nsamples = 6279\nvalue = [83, 528, 411, 1246, 90, 5026, 1207, 1409]\nclass = Glaube & Ethik", fillcolor="#5639e56b"] ;
1 [label="PercentageAdjectives <= 0.12\ngini = 0.62\nsamples = 3570\nvalue = [37, 268, 188, 667, 25, 3294, 536, 611]\nclass = Glaube & Ethik", fillcolor="#5639e587"] ;
0 -> 1 [labeldistance=2.5, labelangle=45, headlabel="True"] ;
2 [label="PercentageAdjectives <= 0.09\ngini = 0.58\nsamples = 2906\nvalue = [24, 148, 114, 565, 16, 2820, 367, 496]\nclass = Glaube & Ethik", fillcolor="#5639e590"] ;
1 -> 2 ;
3 [label="GenreRateR <= 1.96\ngini = 0.55\nsamples = 1894\nvalue = [15, 80, 76, 395, 10, 1926, 192, 298]\nclass = Glaube & Ethik", fillcolor="#5639e596"] ;
2 -> 3 ;
4 [label="PercentageNouns <= 0.18\ngini = 0.59\nsamples = 1008\nvalue = [15, 52, 59, 211, 7, 983, 113, 165]\nclass = Glaube & Ethik", fillcolor="#5639e58d"] ;
3 -> 4 ;
5 [label="gini = 0.0\nsamples = 3\nvalue = [0, 0, 0, 0, 0, 0, 0, 4]\nclass = Architektur & Garten", fillcolor="#e53972ff"] ;
4 -> 5 ;
6 [label="WordsPerSentence <= 14.73\ngini = 0.59\nsamples = 1005\nvalue = [15, 52, 59, 211, 7, 983, 113, 161]\nclass = Glaube & Ethik", fillcolor="#5639e58e"] ;
4 -> 6 ;
7 [label="NumberSymbols: <= 0.5\ngini = 0.5\nsamples = 304\nvalue = [2, 6, 15, 71, 0, 337, 22, 38]\nclass = Glaube & Ethik", fillcolor="#5639e5a2"] ;
6 -> 7 ;
8 [label="WordsPerSentence <= 8.62\ngini = 0.46\nsamples = 174\nvalue = [2, 5, 8, 28, 0, 200, 12, 22]\nclass = Glaube & Ethik", fillcolor="#5639e5b0"] ;
7 -> 8 ;
9 [label="PercentageVerbs <= 0.18\ngini = 0.66\nsamples = 7\nvalue = [0, 0, 0, 1, 0, 2, 2, 5]\nclass = Architektur & Garten", fillcolor="#e5397260"] ;
8 -> 9 ;
10 [label="NumberSentences <= 12.0\ngini = 0.53\nsamples = 5\nvalue = [0, 0, 0, 1, 0, 0, 2, 5]\nclass = Architektur & Garten", fillcolor="#e5397280"] ;
9 -> 10 ;
11 [label="PercentageVerbs <= 0.15\ngini = 0.38\nsamples = 3\nvalue = [0, 0, 0, 1, 0, 0, 0, 3]\nclass = Architektur & Garten", fillcolor="#e53972aa"] ;
10 -> 11 ;
12 [label="PercentageNouns <= 0.34\ngini = 0.5\nsamples = 2\nvalue = [0, 0, 0, 1, 0, 0, 0, 1]\nclass = Sachbuch", fillcolor="#39e5ac00"] ;
11 -> 12 ;
13 [label="gini = 0.0\nsamples = 1\nvalue = [0, 0, 0, 1, 0, 0, 0, 0]\nclass = Sachbuch", fillcolor="#39e5acff"] ;
12 -> 13 ;
14 [label="gini = 0.0\nsamples = 1\nvalue = [0, 0, 0, 0, 0, 0, 0, 1]\nclass = Architektur & Garten", fillcolor="#e53972ff"] ;
12 -> 14 ;
15 [label="gini = 0.0\nsamples = 1\nvalue = [0, 0, 0, 0, 0, 0, 0, 2]\nclass = Architektur & Garten", fillcolor="#e53972ff"] ;
11 -> 15 ;
16 [label="NumberCommas <= 9.0\ngini = 0.5\nsamples = 2\nvalue = [0, 0, 0, 0, 0, 0, 2, 2]\nclass = Künste", fillcolor="#d739e500"] ;
10 -> 16 ;
17 [label="gini = 0.0\nsamples = 1\nvalue = [0, 0, 0, 0, 0, 0, 2, 0]\nclass = Künste", fillcolor="#d739e5ff"] ;
16 -> 17 ;
18 [label="gini = 0.0\nsamples = 1\nvalue = [0, 0, 0, 0, 0, 0, 0, 2]\nclass = Architektur & Garten", fillcolor="#e53972ff"] ;
16 -> 18 ;
19 [label="gini = 0.0\nsamples = 2\nvalue = [0, 0, 0, 0, 0, 2, 0, 0]\nclass = Glaube & Ethik", fillcolor="#5639e5ff"] ;
9 -> 19 ;
20 [label="NumberCommas <= 12.5\ngini = 0.43\nsamples = 167\nvalue = [2, 5, 8, 27, 0, 198, 10, 17]\nclass = Glaube & Ethik", fillcolor="#5639e5b6"] ;
8 -> 20 ;
21 [label="NumberSymbols; <= 1.5\ngini = 0.41\nsamples = 159\nvalue = [2, 5, 8, 26, 0, 194, 8, 13]\nclass = Glaube & Ethik", fillcolor="#5639e5ba"] ;
20 -> 21 ;
22 [label="PercentageVerbs <= 0.1\ngini = 0.4\nsamples = 157\nvalue = [2, 5, 8, 26, 0, 194, 7, 11]\nclass = Glaube & Ethik", fillcolor="#5639e5bd"] ;
21 -> 22 ;
23 [label="NumberSymbolsQ <= 1.0\ngini = 0.68\nsamples = 28\nvalue = [2, 0, 2, 5, 0, 21, 5, 6]\nclass = Glaube & Ethik", fillcolor="#5639e56d"] ;
22 -> 23 ;
24 [label="NumberCommas <= 5.5\ngini = 0.64\nsamples = 25\nvalue = [2, 0, 2, 4, 0, 21, 3, 5]\nclass = Glaube & Ethik", fillcolor="#5639e57f"] ;
23 -> 24 ;
25 [label="NumberSentences <= 3.5\ngini = 0.51\nsamples = 17\nvalue = [0, 0, 0, 2, 0, 18, 2, 5]\nclass = Glaube & Ethik", fillcolor="#5639e597"] ;
24 -> 25 ;
26 [label="PercentageAdjectives <= 0.07\ngini = 0.59\nsamples = 4\nvalue = [0, 0, 0, 0, 0, 4, 1, 4]\nclass = Glaube & Ethik", fillcolor="#5639e500"] ;
25 -> 26 ;
27 [label="PercentageVerbs <= 0.06\ngini = 0.32\nsamples = 3\nvalue = [0, 0, 0, 0, 0, 4, 1, 0]\nclass = Glaube & Ethik", fillcolor="#5639e5bf"] ;
26 -> 27 ;
28 [label="gini = 0.0\nsamples = 2\nvalue = [0, 0, 0, 0, 0, 4, 0, 0]\nclass = Glaube & Ethik", fillcolor="#5639e5ff"] ;
27 -> 28 ;
29 [label="gini = 0.0\nsamples = 1\nvalue = [0, 0, 0, 0, 0, 0, 1, 0]\nclass = Künste", fillcolor="#d739e5ff"] ;
27 -> 29 ;
30 [label="gini = 0.0\nsamples = 1\nvalue = [0, 0, 0, 0, 0, 0, 0, 4]\nclass = Architektur & Garten", fillcolor="#e53972ff"] ;
26 -> 30 ;
31 [label="PercentageNouns <= 0.31\ngini = 0.38\nsamples = 13\nvalue = [0, 0, 0, 2, 0, 14, 1, 1]\nclass = Glaube & Ethik", fillcolor="#5639e5bf"] ;
25 -> 31 ;
32 [label="PercentageVerbs <= 0.09\ngini = 0.5\nsamples = 2\nvalue = [0, 0, 0, 1, 0, 1, 0, 0]\nclass = Sachbuch", fillcolor="#39e5ac00"] ;
31 -> 32 ;
33 [label="gini = 0.0\nsamples = 1\nvalue = [0, 0, 0, 0, 0, 1, 0, 0]\nclass = Glaube & Ethik", fillcolor="#5639e5ff"] ;
32 -> 33 ;
34 [label="gini = 0.0\nsamples = 1\nvalue = [0, 0, 0, 1, 0, 0, 0, 0]\nclass = Sachbuch", fillcolor="#39e5acff"] ;
32 -> 34 ;
35 [label="NumberCommas <= 3.5\ngini = 0.33\nsamples = 11\nvalue = [0, 0, 0, 1, 0, 13, 1, 1]\nclass = Glaube & Ethik", fillcolor="#5639e5cc"] ;
31 -> 35 ;
36 [label="WordsPerSentence <= 10.0\ngini = 0.18\nsamples = 6\nvalue = [0, 0, 0, 0, 0, 9, 1, 0]\nclass = Glaube & Ethik", fillcolor="#5639e5e3"] ;
35 -> 36 ;
37 [label="gini = 0.0\nsamples = 1\nvalue = [0, 0, 0, 0, 0, 0, 1, 0]\nclass = Künste", fillcolor="#d739e5ff"] ;
36 -> 37 ;
38 [label="gini = 0.0\nsamples = 5\nvalue = [0, 0, 0, 0, 0, 9, 0, 0]\nclass = Glaube & Ethik", fillcolor="#5639e5ff"] ;
36 -> 38 ;
39 [label="WordsPerSentence <= 13.3\ngini = 0.5\nsamples = 5\nvalue = [0, 0, 0, 1, 0, 4, 0, 1]\nclass = Glaube & Ethik", fillcolor="#5639e599"] ;
35 -> 39 ;
40 [label="gini = 0.0\nsamples = 2\nvalue = [0, 0, 0, 0, 0, 3, 0, 0]\nclass = Glaube & Ethik", fillcolor="#5639e5ff"] ;
39 -> 40 ;
41 [label="NumberSentences <= 5.5\ngini = 0.67\nsamples = 3\nvalue = [0, 0, 0, 1, 0, 1, 0, 1]\nclass = Sachbuch", fillcolor="#39e5ac00"] ;
39 -> 41 ;
42 [label="gini = 0.0\nsamples = 1\nvalue = [0, 0, 0, 0, 0, 0, 0, 1]\nclass = Architektur & Garten", fillcolor="#e53972ff"] ;
41 -> 42 ;
43 [label="PercentageNouns <= 0.4\ngini = 0.5\nsamples = 2\nvalue = [0, 0, 0, 1, 0, 1, 0, 0]\nclass = Sachbuch", fillcolor="#39e5ac00"] ;
41 -> 43 ;
44 [label="gini = 0.0\nsamples = 1\nvalue = [0, 0, 0, 1, 0, 0, 0, 0]\nclass = Sachbuch", fillcolor="#39e5acff"] ;
43 -> 44 ;
45 [label="gini = 0.0\nsamples = 1\nvalue = [0, 0, 0, 0, 0, 1, 0, 0]\nclass = Glaube & Ethik", fillcolor="#5639e5ff"] ;
43 -> 45 ;
46 [label="GenreRateR <= 0.5\ngini = 0.78\nsamples = 8\nvalue = [2, 0, 2, 2, 0, 3, 1, 0]\nclass = Glaube & Ethik", fillcolor="#5639e520"] ;
24 -> 46 ;
47 [label="gini = 0.0\nsamples = 2\nvalue = [0, 0, 0, 0, 0, 2, 0, 0]\nclass = Glaube & Ethik", fillcolor="#5639e5ff"] ;
46 -> 47 ;
48 [label="PercentageVerbs <= 0.08\ngini = 0.78\nsamples = 6\nvalue = [2, 0, 2, 2, 0, 1, 1, 0]\nclass = Literatur & Unterhaltung", fillcolor="#e5813900"] ;
46 -> 48 ;
49 [label="PercentageVerbs <= 0.07\ngini = 0.44\nsamples = 2\nvalue = [0, 0, 2, 1, 0, 0, 0, 0]\nclass = Kinderbuch & Jugendbuch", fillcolor="#47e5397f"] ;
48 -> 49 ;
50 [label="gini = 0.0\nsamples = 1\nvalue = [0, 0, 0, 1, 0, 0, 0, 0]\nclass = Sachbuch", fillcolor="#39e5acff"] ;
49 -> 50 ;
51 [label="gini = 0.0\nsamples = 1\nvalue = [0, 0, 2, 0, 0, 0, 0, 0]\nclass = Kinderbuch & Jugendbuch", fillcolor="#47e539ff"] ;
49 -> 51 ;
52 [label="GenreRateR <= 1.12\ngini = 0.72\nsamples = 4\nvalue = [2, 0, 0, 1, 0, 1, 1, 0]\nclass = Literatur & Unterhaltung", fillcolor="#e5813940"] ;
48 -> 52 ;
53 [label="gini = 0.44\nsamples = 2\nvalue = [2, 0, 0, 0, 0, 0, 1, 0]\nclass = Literatur & Unterhaltung", fillcolor="#e581397f"] ;
52 -> 53 ;
54 [label="PercentageNouns <= 0.36\ngini = 0.5\nsamples = 2\nvalue = [0, 0, 0, 1, 0, 1, 0, 0]\nclass = Sachbuch", fillcolor="#39e5ac00"] ;
52 -> 54 ;
55 [label="gini = 0.0\nsamples = 1\nvalue = [0, 0, 0, 1, 0, 0, 0, 0]\nclass = Sachbuch", fillcolor="#39e5acff"] ;
54 -> 55 ;
56 [label="gini = 0.0\nsamples = 1\nvalue = [0, 0, 0, 0, 0, 1, 0, 0]\nclass = Glaube & Ethik", fillcolor="#5639e5ff"] ;
54 -> 56 ;
57 [label="GenreRateR <= 1.17\ngini = 0.62\nsamples = 3\nvalue = [0, 0, 0, 1, 0, 0, 2, 1]\nclass = Künste", fillcolor="#d739e555"] ;
23 -> 57 ;
58 [label="PercentageAdjectives <= 0.08\ngini = 0.5\nsamples = 2\nvalue = [0, 0, 0, 1, 0, 0, 0, 1]\nclass = Sachbuch", fillcolor="#39e5ac00"] ;
57 -> 58 ;
59 [label="gini = 0.0\nsamples = 1\nvalue = [0, 0, 0, 1, 0, 0, 0, 0]\nclass = Sachbuch", fillcolor="#39e5acff"] ;
58 -> 59 ;
60 [label="gini = 0.0\nsamples = 1\nvalue = [0, 0, 0, 0, 0, 0, 0, 1]\nclass = Architektur & Garten", fillcolor="#e53972ff"] ;
58 -> 60 ;
61 [label="gini = 0.0\nsamples = 1\nvalue = [0, 0, 0, 0, 0, 0, 2, 0]\nclass = Künste", fillcolor="#d739e5ff"] ;
57 -> 61 ;
62 [label="PercentageAdjectives <= 0.05\ngini = 0.32\nsamples = 129\nvalue = [0, 5, 6, 21, 0, 173, 2, 5]\nclass = Glaube & Ethik", fillcolor="#5639e5cb"] ;
22 -> 62 ;
63 [label="PercentageNouns <= 0.37\ngini = 0.57\nsamples = 28\nvalue = [0, 0, 3, 8, 0, 25, 0, 5]\nclass = Glaube & Ethik", fillcolor="#5639e583"] ;
62 -> 63 ;
64 [label="PercentageNouns <= 0.3\ngini = 0.66\nsamples = 22\nvalue = [0, 0, 3, 8, 0, 15, 0, 5]\nclass = Glaube & Ethik", fillcolor="#5639e54e"] ;
63 -> 64 ;
65 [label="PercentageVerbs <= 0.14\ngini = 0.15\nsamples = 9\nvalue = [0, 0, 0, 1, 0, 11, 0, 0]\nclass = Glaube & Ethik", fillcolor="#5639e5e8"] ;
64 -> 65 ;
66 [label="PercentageAdjectives <= 0.03\ngini = 0.5\nsamples = 2\nvalue = [0, 0, 0, 1, 0, 1, 0, 0]\nclass = Sachbuch", fillcolor="#39e5ac00"] ;
65 -> 66 ;
67 [label="gini = 0.0\nsamples = 1\nvalue = [0, 0, 0, 1, 0, 0, 0, 0]\nclass = Sachbuch", fillcolor="#39e5acff"] ;
66 -> 67 ;
68 [label="gini = 0.0\nsamples = 1\nvalue = [0, 0, 0, 0, 0, 1, 0, 0]\nclass = Glaube & Ethik", fillcolor="#5639e5ff"] ;
66 -> 68 ;
69 [label="gini = 0.0\nsamples = 7\nvalue = [0, 0, 0, 0, 0, 10, 0, 0]\nclass = Glaube & Ethik", fillcolor="#5639e5ff"] ;
65 -> 69 ;
70 [label="PercentageVerbs <= 0.11\ngini = 0.73\nsamples = 13\nvalue = [0, 0, 3, 7, 0, 4, 0, 5]\nclass = Sachbuch", fillcolor="#39e5ac24"] ;
64 -> 70 ;
71 [label="gini = 0.0\nsamples = 1\nvalue = [0, 0, 0, 0, 0, 0, 0, 2]\nclass = Architektur & Garten", fillcolor="#e53972ff"] ;
70 -> 71 ;
72 [label="NumberCommas <= 2.5\ngini = 0.71\nsamples = 12\nvalue = [0, 0, 3, 7, 0, 4, 0, 3]\nclass = Sachbuch", fillcolor="#39e5ac3b"] ;
70 -> 72 ;
73 [label="gini = 0.0\nsamples = 3\nvalue = [0, 0, 0, 5, 0, 0, 0, 0]\nclass = Sachbuch", fillcolor="#39e5acff"] ;
72 -> 73 ;
74 [label="WordsPerSentence <= 13.25\ngini = 0.74\nsamples = 9\nvalue = [0, 0, 3, 2, 0, 4, 0, 3]\nclass = Glaube & Ethik", fillcolor="#5639e51c"] ;
72 -> 74 ;
75 [label="PercentageAdjectives <= 0.02\ngini = 0.66\nsamples = 5\nvalue = [0, 0, 3, 2, 0, 0, 0, 3]\nclass = Kinderbuch & Jugendbuch", fillcolor="#47e53900"] ;
74 -> 75 ;
76 [label="gini = 0.0\nsamples = 1\nvalue = [0, 0, 0, 2, 0, 0, 0, 0]\nclass = Sachbuch", fillcolor="#39e5acff"] ;
75 -> 76 ;
77 [label="WordsPerSentence <= 12.05\ngini = 0.5\nsamples = 4\nvalue = [0, 0, 3, 0, 0, 0, 0, 3]\nclass = Kinderbuch & Jugendbuch", fillcolor="#47e53900"] ;
75 -> 77 ;
78 [label="gini = 0.0\nsamples = 3\nvalue = [0, 0, 0, 0, 0, 0, 0, 3]\nclass = Architektur & Garten", fillcolor="#e53972ff"] ;
77 -> 78 ;
79 [label="gini = 0.0\nsamples = 1\nvalue = [0, 0, 3, 0, 0, 0, 0, 0]\nclass = Kinderbuch & Jugendbuch", fillcolor="#47e539ff"] ;
77 -> 79 ;
80 [label="gini = 0.0\nsamples = 4\nvalue = [0, 0, 0, 0, 0, 4, 0, 0]\nclass = Glaube & Ethik", fillcolor="#5639e5ff"] ;
74 -> 80 ;
81 [label="gini = 0.0\nsamples = 6\nvalue = [0, 0, 0, 0, 0, 10, 0, 0]\nclass = Glaube & Ethik", fillcolor="#5639e5ff"] ;
63 -> 81 ;
82 [label="NumberSymbolsQ <= 3.0\ngini = 0.24\nsamples = 101\nvalue = [0, 5, 3, 13, 0, 148, 2, 0]\nclass = Glaube & Ethik", fillcolor="#5639e5da"] ;
62 -> 82 ;
83 [label="PercentageNouns <= 0.32\ngini = 0.23\nsamples = 99\nvalue = [0, 5, 3, 11, 0, 146, 2, 0]\nclass = Glaube & Ethik", fillcolor="#5639e5dd"] ;
82 -> 83 ;
84 [label="NumberCommas <= 9.5\ngini = 0.33\nsamples = 58\nvalue = [0, 5, 3, 10, 0, 80, 1, 0]\nclass = Glaube & Ethik", fillcolor="#5639e5c9"] ;
83 -> 84 ;
85 [label="PercentageAdjectives <= 0.08\ngini = 0.31\nsamples = 53\nvalue = [0, 4, 3, 8, 0, 76, 1, 0]\nclass = Glaube & Ethik", fillcolor="#5639e5ce"] ;
84 -> 85 ;
86 [label="PercentageAdjectives <= 0.06\ngini = 0.07\nsamples = 30\nvalue = [0, 0, 0, 2, 0, 50, 0, 0]\nclass = Glaube & Ethik", fillcolor="#5639e5f5"] ;
85 -> 86 ;
87 [label="WordsPerSentence <= 14.08\ngini = 0.19\nsamples = 12\nvalue = [0, 0, 0, 2, 0, 17, 0, 0]\nclass = Glaube & Ethik", fillcolor="#5639e5e1"] ;
86 -> 87 ;
88 [label="PercentageAdjectives <= 0.06\ngini = 0.12\nsamples = 10\nvalue = [0, 0, 0, 1, 0, 15, 0, 0]\nclass = Glaube & Ethik", fillcolor="#5639e5ee"] ;
87 -> 88 ;
89 [label="gini = 0.0\nsamples = 9\nvalue = [0, 0, 0, 0, 0, 15, 0, 0]\nclass = Glaube & Ethik", fillcolor="#5639e5ff"] ;
88 -> 89 ;
90 [label="gini = 0.0\nsamples = 1\nvalue = [0, 0, 0, 1, 0, 0, 0, 0]\nclass = Sachbuch", fillcolor="#39e5acff"] ;
88 -> 90 ;
91 [label="GenreRateR <= 0.75\ngini = 0.44\nsamples = 2\nvalue = [0, 0, 0, 1, 0, 2, 0, 0]\nclass = Glaube & Ethik", fillcolor="#5639e57f"] ;
87 -> 91 ;
92 [label="gini = 0.0\nsamples = 1\nvalue = [0, 0, 0, 1, 0, 0, 0, 0]\nclass = Sachbuch", fillcolor="#39e5acff"] ;
91 -> 92 ;
93 [label="gini = 0.0\nsamples = 1\nvalue = [0, 0, 0, 0, 0, 2, 0, 0]\nclass = Glaube & Ethik", fillcolor="#5639e5ff"] ;
91 -> 93 ;
94 [label="gini = 0.0\nsamples = 18\nvalue = [0, 0, 0, 0, 0, 33, 0, 0]\nclass = Glaube & Ethik", fillcolor="#5639e5ff"] ;
86 -> 94 ;
95 [label="PercentageNouns <= 0.27\ngini = 0.54\nsamples = 23\nvalue = [0, 4, 3, 6, 0, 26, 1, 0]\nclass = Glaube & Ethik", fillcolor="#5639e596"] ;
85 -> 95 ;
96 [label="NumberSentences <= 6.5\ngini = 0.18\nsamples = 10\nvalue = [0, 2, 0, 0, 0, 18, 0, 0]\nclass = Glaube & Ethik", fillcolor="#5639e5e3"] ;
95 -> 96 ;
97 [label="NumberCommas <= 5.5\ngini = 0.28\nsamples = 5\nvalue = [0, 2, 0, 0, 0, 10, 0, 0]\nclass = Glaube & Ethik", fillcolor="#5639e5cc"] ;
96 -> 97 ;
98 [label="gini = 0.0\nsamples = 4\nvalue = [0, 0, 0, 0, 0, 10, 0, 0]\nclass = Glaube & Ethik", fillcolor="#5639e5ff"] ;
97 -> 98 ;
99 [label="gini = 0.0\nsamples = 1\nvalue = [0, 2, 0, 0, 0, 0, 0, 0]\nclass = Ratgeber", fillcolor="#c8e539ff"] ;
97 -> 99 ;
100 [label="gini = 0.0\nsamples = 5\nvalue = [0, 0, 0, 0, 0, 8, 0, 0]\nclass = Glaube & Ethik", fillcolor="#5639e5ff"] ;
96 -> 100 ;
101 [label="WordsPerSentence <= 12.06\ngini = 0.72\nsamples = 13\nvalue = [0, 2, 3, 6, 0, 8, 1, 0]\nclass = Glaube & Ethik", fillcolor="#5639e524"] ;
95 -> 101 ;
102 [label="WordsPerSentence <= 11.29\ngini = 0.72\nsamples = 4\nvalue = [0, 1, 2, 1, 0, 0, 1, 0]\nclass = Kinderbuch & Jugendbuch", fillcolor="#47e53940"] ;
101 -> 102 ;
103 [label="PercentageVerbs <= 0.17\ngini = 0.5\nsamples = 2\nvalue = [0, 0, 0, 1, 0, 0, 1, 0]\nclass = Sachbuch", fillcolor="#39e5ac00"] ;
102 -> 103 ;
104 [label="gini = 0.0\nsamples = 1\nvalue = [0, 0, 0, 1, 0, 0, 0, 0]\nclass = Sachbuch", fillcolor="#39e5acff"] ;
103 -> 104 ;
105 [label="gini = 0.0\nsamples = 1\nvalue = [0, 0, 0, 0, 0, 0, 1, 0]\nclass = Künste", fillcolor="#d739e5ff"] ;
103 -> 105 ;
106 [label="gini = 0.44\nsamples = 2\nvalue = [0, 1, 2, 0, 0, 0, 0, 0]\nclass = Kinderbuch & Jugendbuch", fillcolor="#47e5397f"] ;
102 -> 106 ;
107 [label="GenreRateR <= 0.5\ngini = 0.6\nsamples = 9\nvalue = [0, 1, 1, 5, 0, 8, 0, 0]\nclass = Glaube & Ethik", fillcolor="#5639e54c"] ;
101 -> 107 ;
108 [label="gini = 0.0\nsamples = 3\nvalue = [0, 0, 0, 0, 0, 4, 0, 0]\nclass = Glaube & Ethik", fillcolor="#5639e5ff"] ;
107 -> 108 ;
109 [label="PercentageNouns <= 0.3\ngini = 0.64\nsamples = 6\nvalue = [0, 1, 1, 5, 0, 4, 0, 0]\nclass = Sachbuch", fillcolor="#39e5ac24"] ;
107 -> 109 ;
110 [label="PercentageVerbs <= 0.12\ngini = 0.62\nsamples = 5\nvalue = [0, 1, 1, 5, 0, 2, 0, 0]\nclass = Sachbuch", fillcolor="#39e5ac6d"] ;
109 -> 110 ;
111 [label="PercentageAdjectives <= 0.09\ngini = 0.62\nsamples = 3\nvalue = [0, 1, 1, 0, 0, 2, 0, 0]\nclass = Glaube & Ethik", fillcolor="#5639e555"] ;
110 -> 111 ;
112 [label="GenreRateR <= 1.38\ngini = 0.5\nsamples = 2\nvalue = [0, 1, 1, 0, 0, 0, 0, 0]\nclass = Ratgeber", fillcolor="#c8e53900"] ;
111 -> 112 ;
113 [label="gini = 0.0\nsamples = 1\nvalue = [0, 0, 1, 0, 0, 0, 0, 0]\nclass = Kinderbuch & Jugendbuch", fillcolor="#47e539ff"] ;
112 -> 113 ;
114 [label="gini = 0.0\nsamples = 1\nvalue = [0, 1, 0, 0, 0, 0, 0, 0]\nclass = Ratgeber", fillcolor="#c8e539ff"] ;
112 -> 114 ;
115 [label="gini = 0.0\nsamples = 1\nvalue = [0, 0, 0, 0, 0, 2, 0, 0]\nclass = Glaube & Ethik", fillcolor="#5639e5ff"] ;
111 -> 115 ;
116 [label="gini = 0.0\nsamples = 2\nvalue = [0, 0, 0, 5, 0, 0, 0, 0]\nclass = Sachbuch", fillcolor="#39e5acff"] ;
110 -> 116 ;
117 [label="gini = 0.0\nsamples = 1\nvalue = [0, 0, 0, 0, 0, 2, 0, 0]\nclass = Glaube & Ethik", fillcolor="#5639e5ff"] ;
109 -> 117 ;
118 [label="NumberCommas <= 10.5\ngini = 0.57\nsamples = 5\nvalue = [0, 1, 0, 2, 0, 4, 0, 0]\nclass = Glaube & Ethik", fillcolor="#5639e566"] ;
84 -> 118 ;
119 [label="gini = 0.0\nsamples = 1\nvalue = [0, 0, 0, 2, 0, 0, 0, 0]\nclass = Sachbuch", fillcolor="#39e5acff"] ;
118 -> 119 ;
120 [label="PercentageAdjectives <= 0.08\ngini = 0.32\nsamples = 4\nvalue = [0, 1, 0, 0, 0, 4, 0, 0]\nclass = Glaube & Ethik", fillcolor="#5639e5bf"] ;
118 -> 120 ;
121 [label="gini = 0.0\nsamples = 3\nvalue = [0, 0, 0, 0, 0, 4, 0, 0]\nclass = Glaube & Ethik", fillcolor="#5639e5ff"] ;
120 -> 121 ;
122 [label="gini = 0.0\nsamples = 1\nvalue = [0, 1, 0, 0, 0, 0, 0, 0]\nclass = Ratgeber", fillcolor="#c8e539ff"] ;
120 -> 122 ;
123 [label="WordsPerSentence <= 8.93\ngini = 0.06\nsamples = 41\nvalue = [0, 0, 0, 1, 0, 66, 1, 0]\nclass = Glaube & Ethik", fillcolor="#5639e5f7"] ;
83 -> 123 ;
124 [label="PercentageNouns <= 0.34\ngini = 0.5\nsamples = 2\nvalue = [0, 0, 0, 0, 0, 1, 1, 0]\nclass = Glaube & Ethik", fillcolor="#5639e500"] ;
123 -> 124 ;
125 [label="gini = 0.0\nsamples = 1\nvalue = [0, 0, 0, 0, 0, 0, 1, 0]\nclass = Künste", fillcolor="#d739e5ff"] ;
124 -> 125 ;
126 [label="gini = 0.0\nsamples = 1\nvalue = [0, 0, 0, 0, 0, 1, 0, 0]\nclass = Glaube & Ethik", fillcolor="#5639e5ff"] ;
124 -> 126 ;
127 [label="NumberCommas <= 8.5\ngini = 0.03\nsamples = 39\nvalue = [0, 0, 0, 1, 0, 65, 0, 0]\nclass = Glaube & Ethik", fillcolor="#5639e5fb"] ;
123 -> 127 ;
128 [label="gini = 0.0\nsamples = 36\nvalue = [0, 0, 0, 0, 0, 63, 0, 0]\nclass = Glaube & Ethik", fillcolor="#5639e5ff"] ;
127 -> 128 ;
129 [label="PercentageAdjectives <= 0.05\ngini = 0.44\nsamples = 3\nvalue = [0, 0, 0, 1, 0, 2, 0, 0]\nclass = Glaube & Ethik", fillcolor="#5639e57f"] ;
127 -> 129 ;
130 [label="gini = 0.0\nsamples = 1\nvalue = [0, 0, 0, 1, 0, 0, 0, 0]\nclass = Sachbuch", fillcolor="#39e5acff"] ;
129 -> 130 ;
131 [label="gini = 0.0\nsamples = 2\nvalue = [0, 0, 0, 0, 0, 2, 0, 0]\nclass = Glaube & Ethik", fillcolor="#5639e5ff"] ;
129 -> 131 ;
132 [label="NumberCommas <= 3.0\ngini = 0.5\nsamples = 2\nvalue = [0, 0, 0, 2, 0, 2, 0, 0]\nclass = Sachbuch", fillcolor="#39e5ac00"] ;
82 -> 132 ;
133 [label="gini = 0.0\nsamples = 1\nvalue = [0, 0, 0, 0, 0, 2, 0, 0]\nclass = Glaube & Ethik", fillcolor="#5639e5ff"] ;
132 -> 133 ;
134 [label="gini = 0.0\nsamples = 1\nvalue = [0, 0, 0, 2, 0, 0, 0, 0]\nclass = Sachbuch", fillcolor="#39e5acff"] ;
132 -> 134 ;
135 [label="gini = 0.44\nsamples = 2\nvalue = [0, 0, 0, 0, 0, 0, 1, 2]\nclass = Architektur & Garten", fillcolor="#e539727f"] ;
21 -> 135 ;
136 [label="PercentageNouns <= 0.34\ngini = 0.69\nsamples = 8\nvalue = [0, 0, 0, 1, 0, 4, 2, 4]\nclass = Glaube & Ethik", fillcolor="#5639e500"] ;
20 -> 136 ;
137 [label="PercentageVerbs <= 0.13\ngini = 0.61\nsamples = 4\nvalue = [0, 0, 0, 1, 0, 3, 2, 0]\nclass = Glaube & Ethik", fillcolor="#5639e540"] ;
136 -> 137 ;
138 [label="gini = 0.0\nsamples = 1\nvalue = [0, 0, 0, 0, 0, 0, 2, 0]\nclass = Künste", fillcolor="#d739e5ff"] ;
137 -> 138 ;
139 [label="WordsPerSentence <= 10.13\ngini = 0.38\nsamples = 3\nvalue = [0, 0, 0, 1, 0, 3, 0, 0]\nclass = Glaube & Ethik", fillcolor="#5639e5aa"] ;
137 -> 139 ;
140 [label="gini = 0.0\nsamples = 1\nvalue = [0, 0, 0, 0, 0, 2, 0, 0]\nclass = Glaube & Ethik", fillcolor="#5639e5ff"] ;
139 -> 140 ;
141 [label="WordsPerSentence <= 12.27\ngini = 0.5\nsamples = 2\nvalue = [0, 0, 0, 1, 0, 1, 0, 0]\nclass = Sachbuch", fillcolor="#39e5ac00"] ;
139 -> 141 ;
142 [label="gini = 0.0\nsamples = 1\nvalue = [0, 0, 0, 1, 0, 0, 0, 0]\nclass = Sachbuch", fillcolor="#39e5acff"] ;
141 -> 142 ;
143 [label="gini = 0.0\nsamples = 1\nvalue = [0, 0, 0, 0, 0, 1, 0, 0]\nclass = Glaube & Ethik", fillcolor="#5639e5ff"] ;
141 -> 143 ;
144 [label="GenreRateR <= 0.64\ngini = 0.32\nsamples = 4\nvalue = [0, 0, 0, 0, 0, 1, 0, 4]\nclass = Architektur & Garten", fillcolor="#e53972bf"] ;
136 -> 144 ;
145 [label="gini = 0.0\nsamples = 1\nvalue = [0, 0, 0, 0, 0, 1, 0, 0]\nclass = Glaube & Ethik", fillcolor="#5639e5ff"] ;
144 -> 145 ;
146 [label="gini = 0.0\nsamples = 3\nvalue = [0, 0, 0, 0, 0, 0, 0, 4]\nclass = Architektur & Garten", fillcolor="#e53972ff"] ;
144 -> 146 ;
147 [label="PercentageAdjectives <= 0.01\ngini = 0.54\nsamples = 130\nvalue = [0, 1, 7, 43, 0, 137, 10, 16]\nclass = Glaube & Ethik", fillcolor="#5639e58c"] ;
7 -> 147 ;
148 [label="PercentageVerbs <= 0.23\ngini = 0.44\nsamples = 2\nvalue = [0, 0, 0, 2, 0, 0, 1, 0]\nclass = Sachbuch", fillcolor="#39e5ac7f"] ;
147 -> 148 ;
149 [label="gini = 0.0\nsamples = 1\nvalue = [0, 0, 0, 2, 0, 0, 0, 0]\nclass = Sachbuch", fillcolor="#39e5acff"] ;
148 -> 149 ;
150 [label="gini = 0.0\nsamples = 1\nvalue = [0, 0, 0, 0, 0, 0, 1, 0]\nclass = Künste", fillcolor="#d739e5ff"] ;
148 -> 150 ;
151 [label="PercentageVerbs <= 0.13\ngini = 0.53\nsamples = 128\nvalue = [0, 1, 7, 41, 0, 137, 9, 16]\nclass = Glaube & Ethik", fillcolor="#5639e590"] ;
147 -> 151 ;
152 [label="NumberSentences <= 3.5\ngini = 0.35\nsamples = 66\nvalue = [0, 1, 1, 12, 0, 76, 1, 5]\nclass = Glaube & Ethik", fillcolor="#5639e5c2"] ;
151 -> 152 ;
153 [label="gini = 0.0\nsamples = 2\nvalue = [0, 0, 0, 4, 0, 0, 0, 0]\nclass = Sachbuch", fillcolor="#39e5acff"] ;
152 -> 153 ;
154 [label="WordsPerSentence <= 13.54\ngini = 0.31\nsamples = 64\nvalue = [0, 1, 1, 8, 0, 76, 1, 5]\nclass = Glaube & Ethik", fillcolor="#5639e5ce"] ;
152 -> 154 ;
155 [label="NumberSymbolsQ <= 3.0\ngini = 0.39\nsamples = 43\nvalue = [0, 0, 1, 8, 0, 45, 1, 4]\nclass = Glaube & Ethik", fillcolor="#5639e5b9"] ;
154 -> 155 ;
156 [label="NumberSentences <= 5.5\ngini = 0.38\nsamples = 42\nvalue = [0, 0, 1, 8, 0, 45, 1, 3]\nclass = Glaube & Ethik", fillcolor="#5639e5bd"] ;
155 -> 156 ;
157 [label="WordsPerSentence <= 12.9\ngini = 0.61\nsamples = 7\nvalue = [0, 0, 1, 3, 0, 6, 0, 1]\nclass = Glaube & Ethik", fillcolor="#5639e560"] ;
156 -> 157 ;
158 [label="GenreRateR <= 1.25\ngini = 0.69\nsamples = 5\nvalue = [0, 0, 1, 3, 0, 2, 0, 1]\nclass = Sachbuch", fillcolor="#39e5ac33"] ;
157 -> 158 ;
159 [label="WordsPerSentence <= 10.7\ngini = 0.48\nsamples = 3\nvalue = [0, 0, 0, 3, 0, 2, 0, 0]\nclass = Sachbuch", fillcolor="#39e5ac55"] ;
158 -> 159 ;
160 [label="gini = 0.0\nsamples = 1\nvalue = [0, 0, 0, 0, 0, 2, 0, 0]\nclass = Glaube & Ethik", fillcolor="#5639e5ff"] ;
159 -> 160 ;
161 [label="gini = 0.0\nsamples = 2\nvalue = [0, 0, 0, 3, 0, 0, 0, 0]\nclass = Sachbuch", fillcolor="#39e5acff"] ;
159 -> 161 ;
162 [label="NumberSentences <= 4.5\ngini = 0.5\nsamples = 2\nvalue = [0, 0, 1, 0, 0, 0, 0, 1]\nclass = Kinderbuch & Jugendbuch", fillcolor="#47e53900"] ;
158 -> 162 ;
163 [label="gini = 0.0\nsamples = 1\nvalue = [0, 0, 1, 0, 0, 0, 0, 0]\nclass = Kinderbuch & Jugendbuch", fillcolor="#47e539ff"] ;
162 -> 163 ;
164 [label="gini = 0.0\nsamples = 1\nvalue = [0, 0, 0, 0, 0, 0, 0, 1]\nclass = Architektur & Garten", fillcolor="#e53972ff"] ;
162 -> 164 ;
165 [label="gini = 0.0\nsamples = 2\nvalue = [0, 0, 0, 0, 0, 4, 0, 0]\nclass = Glaube & Ethik", fillcolor="#5639e5ff"] ;
157 -> 165 ;
166 [label="NumberSymbols* <= 0.5\ngini = 0.3\nsamples = 35\nvalue = [0, 0, 0, 5, 0, 39, 1, 2]\nclass = Glaube & Ethik", fillcolor="#5639e5ce"] ;
156 -> 166 ;
167 [label="NumberCommas <= 8.5\ngini = 0.27\nsamples = 34\nvalue = [0, 0, 0, 5, 0, 39, 1, 1]\nclass = Glaube & Ethik", fillcolor="#5639e5d3"] ;
166 -> 167 ;
168 [label="WordsPerSentence <= 13.06\ngini = 0.16\nsamples = 29\nvalue = [0, 0, 0, 1, 0, 33, 1, 1]\nclass = Glaube & Ethik", fillcolor="#5639e5e9"] ;
167 -> 168 ;
169 [label="PercentageVerbs <= 0.08\ngini = 0.06\nsamples = 24\nvalue = [0, 0, 0, 0, 0, 30, 0, 1]\nclass = Glaube & Ethik", fillcolor="#5639e5f6"] ;
168 -> 169 ;
170 [label="NumberCommas <= 2.0\ngini = 0.5\nsamples = 2\nvalue = [0, 0, 0, 0, 0, 1, 0, 1]\nclass = Glaube & Ethik", fillcolor="#5639e500"] ;
169 -> 170 ;
171 [label="gini = 0.0\nsamples = 1\nvalue = [0, 0, 0, 0, 0, 1, 0, 0]\nclass = Glaube & Ethik", fillcolor="#5639e5ff"] ;
170 -> 171 ;
172 [label="gini = 0.0\nsamples = 1\nvalue = [0, 0, 0, 0, 0, 0, 0, 1]\nclass = Architektur & Garten", fillcolor="#e53972ff"] ;
170 -> 172 ;
173 [label="gini = 0.0\nsamples = 22\nvalue = [0, 0, 0, 0, 0, 29, 0, 0]\nclass = Glaube & Ethik", fillcolor="#5639e5ff"] ;
169 -> 173 ;
174 [label="GenreRateR <= 1.17\ngini = 0.56\nsamples = 5\nvalue = [0, 0, 0, 1, 0, 3, 1, 0]\nclass = Glaube & Ethik", fillcolor="#5639e57f"] ;
168 -> 174 ;
175 [label="gini = 0.0\nsamples = 2\nvalue = [0, 0, 0, 0, 0, 2, 0, 0]\nclass = Glaube & Ethik", fillcolor="#5639e5ff"] ;
174 -> 175 ;
176 [label="NumberSymbols: <= 1.5\ngini = 0.67\nsamples = 3\nvalue = [0, 0, 0, 1, 0, 1, 1, 0]\nclass = Sachbuch", fillcolor="#39e5ac00"] ;
174 -> 176 ;
177 [label="gini = 0.0\nsamples = 1\nvalue = [0, 0, 0, 0, 0, 0, 1, 0]\nclass = Künste", fillcolor="#d739e5ff"] ;
176 -> 177 ;
178 [label="PercentageNouns <= 0.33\ngini = 0.5\nsamples = 2\nvalue = [0, 0, 0, 1, 0, 1, 0, 0]\nclass = Sachbuch", fillcolor="#39e5ac00"] ;
176 -> 178 ;
179 [label="gini = 0.0\nsamples = 1\nvalue = [0, 0, 0, 0, 0, 1, 0, 0]\nclass = Glaube & Ethik", fillcolor="#5639e5ff"] ;
178 -> 179 ;
180 [label="gini = 0.0\nsamples = 1\nvalue = [0, 0, 0, 1, 0, 0, 0, 0]\nclass = Sachbuch", fillcolor="#39e5acff"] ;
178 -> 180 ;
181 [label="NumberSentences <= 11.0\ngini = 0.48\nsamples = 5\nvalue = [0, 0, 0, 4, 0, 6, 0, 0]\nclass = Glaube & Ethik", fillcolor="#5639e555"] ;
167 -> 181 ;
182 [label="PercentageVerbs <= 0.12\ngini = 0.32\nsamples = 3\nvalue = [0, 0, 0, 4, 0, 1, 0, 0]\nclass = Sachbuch", fillcolor="#39e5acbf"] ;
181 -> 182 ;
183 [label="gini = 0.0\nsamples = 1\nvalue = [0, 0, 0, 2, 0, 0, 0, 0]\nclass = Sachbuch", fillcolor="#39e5acff"] ;
182 -> 183 ;
184 [label="gini = 0.44\nsamples = 2\nvalue = [0, 0, 0, 2, 0, 1, 0, 0]\nclass = Sachbuch", fillcolor="#39e5ac7f"] ;
182 -> 184 ;
185 [label="gini = 0.0\nsamples = 2\nvalue = [0, 0, 0, 0, 0, 5, 0, 0]\nclass = Glaube & Ethik", fillcolor="#5639e5ff"] ;
181 -> 185 ;
186 [label="gini = 0.0\nsamples = 1\nvalue = [0, 0, 0, 0, 0, 0, 0, 1]\nclass = Architektur & Garten", fillcolor="#e53972ff"] ;
166 -> 186 ;
187 [label="gini = 0.0\nsamples = 1\nvalue = [0, 0, 0, 0, 0, 0, 0, 1]\nclass = Architektur & Garten", fillcolor="#e53972ff"] ;
155 -> 187 ;
188 [label="PercentageVerbs <= 0.08\ngini = 0.12\nsamples = 21\nvalue = [0, 1, 0, 0, 0, 31, 0, 1]\nclass = Glaube & Ethik", fillcolor="#5639e5ef"] ;
154 -> 188 ;
189 [label="gini = 0.0\nsamples = 1\nvalue = [0, 1, 0, 0, 0, 0, 0, 0]\nclass = Ratgeber", fillcolor="#c8e539ff"] ;
188 -> 189 ;
190 [label="PercentageNouns <= 0.28\ngini = 0.06\nsamples = 20\nvalue = [0, 0, 0, 0, 0, 31, 0, 1]\nclass = Glaube & Ethik", fillcolor="#5639e5f7"] ;
188 -> 190 ;
191 [label="PercentageVerbs <= 0.11\ngini = 0.38\nsamples = 4\nvalue = [0, 0, 0, 0, 0, 3, 0, 1]\nclass = Glaube & Ethik", fillcolor="#5639e5aa"] ;
190 -> 191 ;
192 [label="NumberCommas <= 4.5\ngini = 0.5\nsamples = 2\nvalue = [0, 0, 0, 0, 0, 1, 0, 1]\nclass = Glaube & Ethik", fillcolor="#5639e500"] ;
191 -> 192 ;
193 [label="gini = 0.0\nsamples = 1\nvalue = [0, 0, 0, 0, 0, 0, 0, 1]\nclass = Architektur & Garten", fillcolor="#e53972ff"] ;
192 -> 193 ;
194 [label="gini = 0.0\nsamples = 1\nvalue = [0, 0, 0, 0, 0, 1, 0, 0]\nclass = Glaube & Ethik", fillcolor="#5639e5ff"] ;
192 -> 194 ;
195 [label="gini = 0.0\nsamples = 2\nvalue = [0, 0, 0, 0, 0, 2, 0, 0]\nclass = Glaube & Ethik", fillcolor="#5639e5ff"] ;
191 -> 195 ;
196 [label="gini = 0.0\nsamples = 16\nvalue = [0, 0, 0, 0, 0, 28, 0, 0]\nclass = Glaube & Ethik", fillcolor="#5639e5ff"] ;
190 -> 196 ;
197 [label="NumberCommas <= 11.5\ngini = 0.64\nsamples = 62\nvalue = [0, 0, 6, 29, 0, 61, 8, 11]\nclass = Glaube & Ethik", fillcolor="#5639e55f"] ;
151 -> 197 ;
198 [label="NumberSymbols: <= 1.5\ngini = 0.62\nsamples = 58\nvalue = [0, 0, 6, 22, 0, 61, 8, 10]\nclass = Glaube & Ethik", fillcolor="#5639e575"] ;
197 -> 198 ;
199 [label="PercentageNouns <= 0.41\ngini = 0.56\nsamples = 46\nvalue = [0, 0, 3, 19, 0, 53, 7, 4]\nclass = Glaube & Ethik", fillcolor="#5639e581"] ;
198 -> 199 ;
200 [label="WordsPerSentence <= 8.35\ngini = 0.5\nsamples = 43\nvalue = [0, 0, 3, 19, 0, 53, 1, 4]\nclass = Glaube & Ethik", fillcolor="#5639e58e"] ;
199 -> 200 ;
201 [label="NumberSentences <= 6.5\ngini = 0.5\nsamples = 2\nvalue = [0, 0, 1, 1, 0, 0, 0, 0]\nclass = Kinderbuch & Jugendbuch", fillcolor="#47e53900"] ;
200 -> 201 ;
202 [label="gini = 0.0\nsamples = 1\nvalue = [0, 0, 0, 1, 0, 0, 0, 0]\nclass = Sachbuch", fillcolor="#39e5acff"] ;
201 -> 202 ;
203 [label="gini = 0.0\nsamples = 1\nvalue = [0, 0, 1, 0, 0, 0, 0, 0]\nclass = Kinderbuch & Jugendbuch", fillcolor="#47e539ff"] ;
201 -> 203 ;
204 [label="GenreRateR <= 1.71\ngini = 0.48\nsamples = 41\nvalue = [0, 0, 2, 18, 0, 53, 1, 4]\nclass = Glaube & Ethik", fillcolor="#5639e595"] ;
200 -> 204 ;
205 [label="PercentageNouns <= 0.36\ngini = 0.47\nsamples = 37\nvalue = [0, 0, 2, 15, 0, 51, 1, 4]\nclass = Glaube & Ethik", fillcolor="#5639e59e"] ;
204 -> 205 ;
206 [label="GenreRateR <= 1.65\ngini = 0.51\nsamples = 31\nvalue = [0, 0, 2, 15, 0, 41, 1, 4]\nclass = Glaube & Ethik", fillcolor="#5639e58a"] ;
205 -> 206 ;
207 [label="NumberCommas <= 8.5\ngini = 0.56\nsamples = 27\nvalue = [0, 0, 2, 15, 0, 32, 1, 4]\nclass = Glaube & Ethik", fillcolor="#5639e56f"] ;
206 -> 207 ;
208 [label="PercentageNouns <= 0.34\ngini = 0.48\nsamples = 22\nvalue = [0, 0, 0, 15, 0, 28, 1, 0]\nclass = Glaube & Ethik", fillcolor="#5639e572"] ;
207 -> 208 ;
209 [label="PercentageVerbs <= 0.14\ngini = 0.42\nsamples = 19\nvalue = [0, 0, 0, 12, 0, 28, 0, 0]\nclass = Glaube & Ethik", fillcolor="#5639e592"] ;
208 -> 209 ;
210 [label="NumberSentences <= 6.5\ngini = 0.48\nsamples = 7\nvalue = [0, 0, 0, 9, 0, 6, 0, 0]\nclass = Sachbuch", fillcolor="#39e5ac55"] ;
209 -> 210 ;
211 [label="PercentageAdjectives <= 0.07\ngini = 0.32\nsamples = 4\nvalue = [0, 0, 0, 8, 0, 2, 0, 0]\nclass = Sachbuch", fillcolor="#39e5acbf"] ;
210 -> 211 ;
212 [label="gini = 0.44\nsamples = 2\nvalue = [0, 0, 0, 4, 0, 2, 0, 0]\nclass = Sachbuch", fillcolor="#39e5ac7f"] ;
211 -> 212 ;
213 [label="gini = 0.0\nsamples = 2\nvalue = [0, 0, 0, 4, 0, 0, 0, 0]\nclass = Sachbuch", fillcolor="#39e5acff"] ;
211 -> 213 ;
214 [label="GenreRateR <= 0.67\ngini = 0.32\nsamples = 3\nvalue = [0, 0, 0, 1, 0, 4, 0, 0]\nclass = Glaube & Ethik", fillcolor="#5639e5bf"] ;
210 -> 214 ;
215 [label="PercentageAdjectives <= 0.06\ngini = 0.5\nsamples = 2\nvalue = [0, 0, 0, 1, 0, 1, 0, 0]\nclass = Sachbuch", fillcolor="#39e5ac00"] ;
214 -> 215 ;
216 [label="gini = 0.0\nsamples = 1\nvalue = [0, 0, 0, 1, 0, 0, 0, 0]\nclass = Sachbuch", fillcolor="#39e5acff"] ;
215 -> 216 ;
217 [label="gini = 0.0\nsamples = 1\nvalue = [0, 0, 0, 0, 0, 1, 0, 0]\nclass = Glaube & Ethik", fillcolor="#5639e5ff"] ;
215 -> 217 ;
218 [label="gini = 0.0\nsamples = 1\nvalue = [0, 0, 0, 0, 0, 3, 0, 0]\nclass = Glaube & Ethik", fillcolor="#5639e5ff"] ;
214 -> 218 ;
219 [label="PercentageVerbs <= 0.15\ngini = 0.21\nsamples = 12\nvalue = [0, 0, 0, 3, 0, 22, 0, 0]\nclass = Glaube & Ethik", fillcolor="#5639e5dc"] ;
209 -> 219 ;
220 [label="gini = 0.0\nsamples = 3\nvalue = [0, 0, 0, 0, 0, 9, 0, 0]\nclass = Glaube & Ethik", fillcolor="#5639e5ff"] ;
219 -> 220 ;
221 [label="WordsPerSentence <= 12.1\ngini = 0.3\nsamples = 9\nvalue = [0, 0, 0, 3, 0, 13, 0, 0]\nclass = Glaube & Ethik", fillcolor="#5639e5c4"] ;
219 -> 221 ;
222 [label="PercentageAdjectives <= 0.03\ngini = 0.48\nsamples = 4\nvalue = [0, 0, 0, 3, 0, 2, 0, 0]\nclass = Sachbuch", fillcolor="#39e5ac55"] ;
221 -> 222 ;
223 [label="gini = 0.0\nsamples = 1\nvalue = [0, 0, 0, 0, 0, 2, 0, 0]\nclass = Glaube & Ethik", fillcolor="#5639e5ff"] ;
222 -> 223 ;
224 [label="gini = 0.0\nsamples = 3\nvalue = [0, 0, 0, 3, 0, 0, 0, 0]\nclass = Sachbuch", fillcolor="#39e5acff"] ;
222 -> 224 ;
225 [label="gini = 0.0\nsamples = 5\nvalue = [0, 0, 0, 0, 0, 11, 0, 0]\nclass = Glaube & Ethik", fillcolor="#5639e5ff"] ;
221 -> 225 ;
226 [label="PercentageAdjectives <= 0.07\ngini = 0.38\nsamples = 3\nvalue = [0, 0, 0, 3, 0, 0, 1, 0]\nclass = Sachbuch", fillcolor="#39e5acaa"] ;
208 -> 226 ;
227 [label="gini = 0.0\nsamples = 2\nvalue = [0, 0, 0, 3, 0, 0, 0, 0]\nclass = Sachbuch", fillcolor="#39e5acff"] ;
226 -> 227 ;
228 [label="gini = 0.0\nsamples = 1\nvalue = [0, 0, 0, 0, 0, 0, 1, 0]\nclass = Künste", fillcolor="#d739e5ff"] ;
226 -> 228 ;
229 [label="NumberSentences <= 8.5\ngini = 0.64\nsamples = 5\nvalue = [0, 0, 2, 0, 0, 4, 0, 4]\nclass = Glaube & Ethik", fillcolor="#5639e500"] ;
207 -> 229 ;
230 [label="WordsPerSentence <= 13.87\ngini = 0.5\nsamples = 4\nvalue = [0, 0, 0, 0, 0, 4, 0, 4]\nclass = Glaube & Ethik", fillcolor="#5639e500"] ;
229 -> 230 ;
231 [label="NumberCommas <= 10.5\ngini = 0.38\nsamples = 2\nvalue = [0, 0, 0, 0, 0, 3, 0, 1]\nclass = Glaube & Ethik", fillcolor="#5639e5aa"] ;
230 -> 231 ;
232 [label="gini = 0.0\nsamples = 1\nvalue = [0, 0, 0, 0, 0, 0, 0, 1]\nclass = Architektur & Garten", fillcolor="#e53972ff"] ;
231 -> 232 ;
233 [label="gini = 0.0\nsamples = 1\nvalue = [0, 0, 0, 0, 0, 3, 0, 0]\nclass = Glaube & Ethik", fillcolor="#5639e5ff"] ;
231 -> 233 ;
234 [label="GenreRateR <= 1.31\ngini = 0.38\nsamples = 2\nvalue = [0, 0, 0, 0, 0, 1, 0, 3]\nclass = Architektur & Garten", fillcolor="#e53972aa"] ;
230 -> 234 ;
235 [label="gini = 0.0\nsamples = 1\nvalue = [0, 0, 0, 0, 0, 1, 0, 0]\nclass = Glaube & Ethik", fillcolor="#5639e5ff"] ;
234 -> 235 ;
236 [label="gini = 0.0\nsamples = 1\nvalue = [0, 0, 0, 0, 0, 0, 0, 3]\nclass = Architektur & Garten", fillcolor="#e53972ff"] ;
234 -> 236 ;
237 [label="gini = 0.0\nsamples = 1\nvalue = [0, 0, 2, 0, 0, 0, 0, 0]\nclass = Kinderbuch & Jugendbuch", fillcolor="#47e539ff"] ;
229 -> 237 ;
238 [label="gini = 0.0\nsamples = 4\nvalue = [0, 0, 0, 0, 0, 9, 0, 0]\nclass = Glaube & Ethik", fillcolor="#5639e5ff"] ;
206 -> 238 ;
239 [label="gini = 0.0\nsamples = 6\nvalue = [0, 0, 0, 0, 0, 10, 0, 0]\nclass = Glaube & Ethik", fillcolor="#5639e5ff"] ;
205 -> 239 ;
240 [label="PercentageAdjectives <= 0.05\ngini = 0.48\nsamples = 4\nvalue = [0, 0, 0, 3, 0, 2, 0, 0]\nclass = Sachbuch", fillcolor="#39e5ac55"] ;
204 -> 240 ;
241 [label="gini = 0.0\nsamples = 1\nvalue = [0, 0, 0, 0, 0, 1, 0, 0]\nclass = Glaube & Ethik", fillcolor="#5639e5ff"] ;
240 -> 241 ;
242 [label="PercentageVerbs <= 0.16\ngini = 0.38\nsamples = 3\nvalue = [0, 0, 0, 3, 0, 1, 0, 0]\nclass = Sachbuch", fillcolor="#39e5acaa"] ;
240 -> 242 ;
243 [label="gini = 0.0\nsamples = 2\nvalue = [0, 0, 0, 3, 0, 0, 0, 0]\nclass = Sachbuch", fillcolor="#39e5acff"] ;
242 -> 243 ;
244 [label="gini = 0.0\nsamples = 1\nvalue = [0, 0, 0, 0, 0, 1, 0, 0]\nclass = Glaube & Ethik", fillcolor="#5639e5ff"] ;
242 -> 244 ;
245 [label="gini = 0.0\nsamples = 3\nvalue = [0, 0, 0, 0, 0, 0, 6, 0]\nclass = Künste", fillcolor="#d739e5ff"] ;
199 -> 245 ;
246 [label="PercentageNouns <= 0.27\ngini = 0.73\nsamples = 12\nvalue = [0, 0, 3, 3, 0, 8, 1, 6]\nclass = Glaube & Ethik", fillcolor="#5639e522"] ;
198 -> 246 ;
247 [label="NumberCommas <= 2.5\ngini = 0.47\nsamples = 4\nvalue = [0, 0, 3, 0, 0, 5, 0, 0]\nclass = Glaube & Ethik", fillcolor="#5639e566"] ;
246 -> 247 ;
248 [label="gini = 0.0\nsamples = 1\nvalue = [0, 0, 3, 0, 0, 0, 0, 0]\nclass = Kinderbuch & Jugendbuch", fillcolor="#47e539ff"] ;
247 -> 248 ;
249 [label="gini = 0.0\nsamples = 3\nvalue = [0, 0, 0, 0, 0, 5, 0, 0]\nclass = Glaube & Ethik", fillcolor="#5639e5ff"] ;
247 -> 249 ;
250 [label="PercentageNouns <= 0.34\ngini = 0.67\nsamples = 8\nvalue = [0, 0, 0, 3, 0, 3, 1, 6]\nclass = Architektur & Garten", fillcolor="#e539724d"] ;
246 -> 250 ;
251 [label="GenreRateR <= 0.5\ngini = 0.44\nsamples = 5\nvalue = [0, 0, 0, 3, 0, 0, 0, 6]\nclass = Architektur & Garten", fillcolor="#e539727f"] ;
250 -> 251 ;
252 [label="gini = 0.0\nsamples = 1\nvalue = [0, 0, 0, 1, 0, 0, 0, 0]\nclass = Sachbuch", fillcolor="#39e5acff"] ;
251 -> 252 ;
253 [label="PercentageAdjectives <= 0.06\ngini = 0.38\nsamples = 4\nvalue = [0, 0, 0, 2, 0, 0, 0, 6]\nclass = Architektur & Garten", fillcolor="#e53972aa"] ;
251 -> 253 ;
254 [label="gini = 0.0\nsamples = 1\nvalue = [0, 0, 0, 2, 0, 0, 0, 0]\nclass = Sachbuch", fillcolor="#39e5acff"] ;
253 -> 254 ;
255 [label="gini = 0.0\nsamples = 3\nvalue = [0, 0, 0, 0, 0, 0, 0, 6]\nclass = Architektur & Garten", fillcolor="#e53972ff"] ;
253 -> 255 ;
256 [label="GenreRateR <= 1.25\ngini = 0.38\nsamples = 3\nvalue = [0, 0, 0, 0, 0, 3, 1, 0]\nclass = Glaube & Ethik", fillcolor="#5639e5aa"] ;
250 -> 256 ;
257 [label="gini = 0.0\nsamples = 2\nvalue = [0, 0, 0, 0, 0, 3, 0, 0]\nclass = Glaube & Ethik", fillcolor="#5639e5ff"] ;
256 -> 257 ;
258 [label="gini = 0.0\nsamples = 1\nvalue = [0, 0, 0, 0, 0, 0, 1, 0]\nclass = Künste", fillcolor="#d739e5ff"] ;
256 -> 258 ;
259 [label="GenreRateR <= 1.27\ngini = 0.22\nsamples = 4\nvalue = [0, 0, 0, 7, 0, 0, 0, 1]\nclass = Sachbuch", fillcolor="#39e5acdb"] ;
197 -> 259 ;
260 [label="gini = 0.0\nsamples = 2\nvalue = [0, 0, 0, 6, 0, 0, 0, 0]\nclass = Sachbuch", fillcolor="#39e5acff"] ;
259 -> 260 ;
261 [label="PercentageNouns <= 0.33\ngini = 0.5\nsamples = 2\nvalue = [0, 0, 0, 1, 0, 0, 0, 1]\nclass = Sachbuch", fillcolor="#39e5ac00"] ;
259 -> 261 ;
262 [label="gini = 0.0\nsamples = 1\nvalue = [0, 0, 0, 0, 0, 0, 0, 1]\nclass = Architektur & Garten", fillcolor="#e53972ff"] ;
261 -> 262 ;
263 [label="gini = 0.0\nsamples = 1\nvalue = [0, 0, 0, 1, 0, 0, 0, 0]\nclass = Sachbuch", fillcolor="#39e5acff"] ;
261 -> 263 ;
264 [label="NumberSymbols: <= 2.5\ngini = 0.62\nsamples = 701\nvalue = [13, 46, 44, 140, 7, 646, 91, 123]\nclass = Glaube & Ethik", fillcolor="#5639e585"] ;
6 -> 264 ;
265 [label="GenreRateR <= 1.9\ngini = 0.62\nsamples = 686\nvalue = [13, 44, 42, 138, 7, 640, 89, 115]\nclass = Glaube & Ethik", fillcolor="#5639e587"] ;
264 -> 265 ;
266 [label="PercentageAdjectives <= 0.06\ngini = 0.61\nsamples = 684\nvalue = [13, 42, 42, 138, 7, 640, 87, 115]\nclass = Glaube & Ethik", fillcolor="#5639e587"] ;
265 -> 266 ;
267 [label="PercentageAdjectives <= 0.06\ngini = 0.59\nsamples = 210\nvalue = [0, 6, 11, 66, 2, 204, 30, 21]\nclass = Glaube & Ethik", fillcolor="#5639e580"] ;
266 -> 267 ;
268 [label="NumberSentences <= 1.5\ngini = 0.58\nsamples = 204\nvalue = [0, 6, 11, 60, 2, 202, 30, 20]\nclass = Glaube & Ethik", fillcolor="#5639e586"] ;
267 -> 268 ;
269 [label="PercentageAdjectives <= 0.04\ngini = 0.67\nsamples = 4\nvalue = [0, 0, 1, 3, 0, 1, 0, 1]\nclass = Sachbuch", fillcolor="#39e5ac66"] ;
268 -> 269 ;
270 [label="PercentageNouns <= 0.47\ngini = 0.67\nsamples = 3\nvalue = [0, 0, 1, 0, 0, 1, 0, 1]\nclass = Kinderbuch & Jugendbuch", fillcolor="#47e53900"] ;
269 -> 270 ;
271 [label="gini = 0.0\nsamples = 1\nvalue = [0, 0, 1, 0, 0, 0, 0, 0]\nclass = Kinderbuch & Jugendbuch", fillcolor="#47e539ff"] ;
270 -> 271 ;
272 [label="WordsPerSentence <= 29.5\ngini = 0.5\nsamples = 2\nvalue = [0, 0, 0, 0, 0, 1, 0, 1]\nclass = Glaube & Ethik", fillcolor="#5639e500"] ;
270 -> 272 ;
273 [label="gini = 0.0\nsamples = 1\nvalue = [0, 0, 0, 0, 0, 0, 0, 1]\nclass = Architektur & Garten", fillcolor="#e53972ff"] ;
272 -> 273 ;
274 [label="gini = 0.0\nsamples = 1\nvalue = [0, 0, 0, 0, 0, 1, 0, 0]\nclass = Glaube & Ethik", fillcolor="#5639e5ff"] ;
272 -> 274 ;
275 [label="gini = 0.0\nsamples = 1\nvalue = [0, 0, 0, 3, 0, 0, 0, 0]\nclass = Sachbuch", fillcolor="#39e5acff"] ;
269 -> 275 ;
276 [label="NumberSentences <= 2.5\ngini = 0.57\nsamples = 200\nvalue = [0, 6, 10, 57, 2, 201, 30, 19]\nclass = Glaube & Ethik", fillcolor="#5639e589"] ;
268 -> 276 ;
277 [label="PercentageNouns <= 0.44\ngini = 0.6\nsamples = 23\nvalue = [0, 2, 3, 1, 0, 17, 3, 2]\nclass = Glaube & Ethik", fillcolor="#5639e58f"] ;
276 -> 277 ;
278 [label="PercentageAdjectives <= 0.01\ngini = 0.54\nsamples = 22\nvalue = [0, 2, 3, 1, 0, 17, 1, 2]\nclass = Glaube & Ethik", fillcolor="#5639e59b"] ;
277 -> 278 ;
279 [label="gini = 0.0\nsamples = 1\nvalue = [0, 0, 0, 0, 0, 0, 0, 1]\nclass = Architektur & Garten", fillcolor="#e53972ff"] ;
278 -> 279 ;
280 [label="GenreRateR <= 1.42\ngini = 0.51\nsamples = 21\nvalue = [0, 2, 3, 1, 0, 17, 1, 1]\nclass = Glaube & Ethik", fillcolor="#5639e5a2"] ;
278 -> 280 ;
281 [label="PercentageAdjectives <= 0.03\ngini = 0.36\nsamples = 12\nvalue = [0, 2, 1, 0, 0, 11, 0, 0]\nclass = Glaube & Ethik", fillcolor="#5639e5bf"] ;
280 -> 281 ;
282 [label="NumberCommas <= 2.5\ngini = 0.57\nsamples = 6\nvalue = [0, 2, 1, 0, 0, 4, 0, 0]\nclass = Glaube & Ethik", fillcolor="#5639e566"] ;
281 -> 282 ;
283 [label="PercentageVerbs <= 0.15\ngini = 0.5\nsamples = 2\nvalue = [0, 1, 0, 0, 0, 1, 0, 0]\nclass = Ratgeber", fillcolor="#c8e53900"] ;
282 -> 283 ;
284 [label="gini = 0.0\nsamples = 1\nvalue = [0, 0, 0, 0, 0, 1, 0, 0]\nclass = Glaube & Ethik", fillcolor="#5639e5ff"] ;
283 -> 284 ;
285 [label="gini = 0.0\nsamples = 1\nvalue = [0, 1, 0, 0, 0, 0, 0, 0]\nclass = Ratgeber", fillcolor="#c8e539ff"] ;
283 -> 285 ;
286 [label="GenreRateR <= 0.5\ngini = 0.56\nsamples = 4\nvalue = [0, 1, 1, 0, 0, 3, 0, 0]\nclass = Glaube & Ethik", fillcolor="#5639e57f"] ;
282 -> 286 ;
287 [label="PercentageNouns <= 0.38\ngini = 0.44\nsamples = 2\nvalue = [0, 0, 1, 0, 0, 2, 0, 0]\nclass = Glaube & Ethik", fillcolor="#5639e57f"] ;
286 -> 287 ;
288 [label="gini = 0.0\nsamples = 1\nvalue = [0, 0, 1, 0, 0, 0, 0, 0]\nclass = Kinderbuch & Jugendbuch", fillcolor="#47e539ff"] ;
287 -> 288 ;
289 [label="gini = 0.0\nsamples = 1\nvalue = [0, 0, 0, 0, 0, 2, 0, 0]\nclass = Glaube & Ethik", fillcolor="#5639e5ff"] ;
287 -> 289 ;
290 [label="PercentageNouns <= 0.37\ngini = 0.5\nsamples = 2\nvalue = [0, 1, 0, 0, 0, 1, 0, 0]\nclass = Ratgeber", fillcolor="#c8e53900"] ;
286 -> 290 ;
291 [label="gini = 0.0\nsamples = 1\nvalue = [0, 0, 0, 0, 0, 1, 0, 0]\nclass = Glaube & Ethik", fillcolor="#5639e5ff"] ;
290 -> 291 ;
292 [label="gini = 0.0\nsamples = 1\nvalue = [0, 1, 0, 0, 0, 0, 0, 0]\nclass = Ratgeber", fillcolor="#c8e539ff"] ;
290 -> 292 ;
293 [label="gini = 0.0\nsamples = 6\nvalue = [0, 0, 0, 0, 0, 7, 0, 0]\nclass = Glaube & Ethik", fillcolor="#5639e5ff"] ;
281 -> 293 ;
294 [label="PercentageVerbs <= 0.1\ngini = 0.64\nsamples = 9\nvalue = [0, 0, 2, 1, 0, 6, 1, 1]\nclass = Glaube & Ethik", fillcolor="#5639e571"] ;
280 -> 294 ;
295 [label="gini = 0.0\nsamples = 3\nvalue = [0, 0, 0, 0, 0, 5, 0, 0]\nclass = Glaube & Ethik", fillcolor="#5639e5ff"] ;
294 -> 295 ;
296 [label="NumberSymbols: <= 1.5\ngini = 0.78\nsamples = 6\nvalue = [0, 0, 2, 1, 0, 1, 1, 1]\nclass = Kinderbuch & Jugendbuch", fillcolor="#47e53933"] ;
294 -> 296 ;
297 [label="PercentageVerbs <= 0.12\ngini = 0.72\nsamples = 5\nvalue = [0, 0, 2, 1, 0, 1, 0, 1]\nclass = Kinderbuch & Jugendbuch", fillcolor="#47e53940"] ;
296 -> 297 ;
298 [label="GenreRateR <= 1.63\ngini = 0.62\nsamples = 4\nvalue = [0, 0, 2, 0, 0, 1, 0, 1]\nclass = Kinderbuch & Jugendbuch", fillcolor="#47e53955"] ;
297 -> 298 ;
299 [label="gini = 0.0\nsamples = 1\nvalue = [0, 0, 1, 0, 0, 0, 0, 0]\nclass = Kinderbuch & Jugendbuch", fillcolor="#47e539ff"] ;
298 -> 299 ;
300 [label="gini = 0.67\nsamples = 3\nvalue = [0, 0, 1, 0, 0, 1, 0, 1]\nclass = Kinderbuch & Jugendbuch", fillcolor="#47e53900"] ;
298 -> 300 ;
301 [label="gini = 0.0\nsamples = 1\nvalue = [0, 0, 0, 1, 0, 0, 0, 0]\nclass = Sachbuch", fillcolor="#39e5acff"] ;
297 -> 301 ;
302 [label="gini = 0.0\nsamples = 1\nvalue = [0, 0, 0, 0, 0, 0, 1, 0]\nclass = Künste", fillcolor="#d739e5ff"] ;
296 -> 302 ;
303 [label="gini = 0.0\nsamples = 1\nvalue = [0, 0, 0, 0, 0, 0, 2, 0]\nclass = Künste", fillcolor="#d739e5ff"] ;
277 -> 303 ;
304 [label="NumberSymbols: <= 0.5\ngini = 0.57\nsamples = 177\nvalue = [0, 4, 7, 56, 2, 184, 27, 17]\nclass = Glaube & Ethik", fillcolor="#5639e587"] ;
276 -> 304 ;
305 [label="PercentageAdjectives <= 0.04\ngini = 0.65\nsamples = 78\nvalue = [0, 3, 2, 38, 2, 69, 11, 11]\nclass = Glaube & Ethik", fillcolor="#5639e551"] ;
304 -> 305 ;
306 [label="GenreRateR <= 1.69\ngini = 0.74\nsamples = 12\nvalue = [0, 0, 0, 7, 1, 3, 3, 4]\nclass = Sachbuch", fillcolor="#39e5ac37"] ;
305 -> 306 ;
307 [label="WordsPerSentence <= 20.46\ngini = 0.67\nsamples = 9\nvalue = [0, 0, 0, 7, 1, 3, 2, 1]\nclass = Sachbuch", fillcolor="#39e5ac5d"] ;
306 -> 307 ;
308 [label="GenreRateR <= 1.37\ngini = 0.72\nsamples = 5\nvalue = [0, 0, 0, 2, 0, 3, 2, 1]\nclass = Glaube & Ethik", fillcolor="#5639e52a"] ;
307 -> 308 ;
309 [label="GenreRateR <= 1.07\ngini = 0.61\nsamples = 4\nvalue = [0, 0, 0, 2, 0, 3, 0, 1]\nclass = Glaube & Ethik", fillcolor="#5639e540"] ;
308 -> 309 ;
310 [label="WordsPerSentence <= 16.54\ngini = 0.48\nsamples = 3\nvalue = [0, 0, 0, 2, 0, 3, 0, 0]\nclass = Glaube & Ethik", fillcolor="#5639e555"] ;
309 -> 310 ;
311 [label="gini = 0.0\nsamples = 1\nvalue = [0, 0, 0, 2, 0, 0, 0, 0]\nclass = Sachbuch", fillcolor="#39e5acff"] ;
310 -> 311 ;
312 [label="gini = 0.0\nsamples = 2\nvalue = [0, 0, 0, 0, 0, 3, 0, 0]\nclass = Glaube & Ethik", fillcolor="#5639e5ff"] ;
310 -> 312 ;
313 [label="gini = 0.0\nsamples = 1\nvalue = [0, 0, 0, 0, 0, 0, 0, 1]\nclass = Architektur & Garten", fillcolor="#e53972ff"] ;
309 -> 313 ;
314 [label="gini = 0.0\nsamples = 1\nvalue = [0, 0, 0, 0, 0, 0, 2, 0]\nclass = Künste", fillcolor="#d739e5ff"] ;
308 -> 314 ;
315 [label="NumberSymbols; <= 0.5\ngini = 0.28\nsamples = 4\nvalue = [0, 0, 0, 5, 1, 0, 0, 0]\nclass = Sachbuch", fillcolor="#39e5accc"] ;
307 -> 315 ;
316 [label="gini = 0.0\nsamples = 3\nvalue = [0, 0, 0, 5, 0, 0, 0, 0]\nclass = Sachbuch", fillcolor="#39e5acff"] ;
315 -> 316 ;
317 [label="gini = 0.0\nsamples = 1\nvalue = [0, 0, 0, 0, 1, 0, 0, 0]\nclass = Ganzheitliches Bewusstsein", fillcolor="#399de5ff"] ;
315 -> 317 ;
318 [label="PercentageVerbs <= 0.08\ngini = 0.38\nsamples = 3\nvalue = [0, 0, 0, 0, 0, 0, 1, 3]\nclass = Architektur & Garten", fillcolor="#e53972aa"] ;
306 -> 318 ;
319 [label="gini = 0.0\nsamples = 1\nvalue = [0, 0, 0, 0, 0, 0, 0, 2]\nclass = Architektur & Garten", fillcolor="#e53972ff"] ;
318 -> 319 ;
320 [label="gini = 0.5\nsamples = 2\nvalue = [0, 0, 0, 0, 0, 0, 1, 1]\nclass = Künste", fillcolor="#d739e500"] ;
318 -> 320 ;
321 [label="WordsPerSentence <= 26.83\ngini = 0.61\nsamples = 66\nvalue = [0, 3, 2, 31, 1, 66, 8, 7]\nclass = Glaube & Ethik", fillcolor="#5639e567"] ;
305 -> 321 ;
322 [label="NumberSymbols; <= 0.5\ngini = 0.6\nsamples = 65\nvalue = [0, 3, 2, 27, 1, 66, 8, 7]\nclass = Glaube & Ethik", fillcolor="#5639e572"] ;
321 -> 322 ;
323 [label="PercentageVerbs <= 0.1\ngini = 0.59\nsamples = 64\nvalue = [0, 3, 2, 27, 1, 66, 8, 6]\nclass = Glaube & Ethik", fillcolor="#5639e574"] ;
322 -> 323 ;
324 [label="PercentageAdjectives <= 0.05\ngini = 0.39\nsamples = 17\nvalue = [0, 0, 2, 1, 1, 24, 1, 2]\nclass = Glaube & Ethik", fillcolor="#5639e5c1"] ;
323 -> 324 ;
325 [label="gini = 0.0\nsamples = 8\nvalue = [0, 0, 0, 0, 0, 16, 0, 0]\nclass = Glaube & Ethik", fillcolor="#5639e5ff"] ;
324 -> 325 ;
326 [label="NumberSentences <= 4.0\ngini = 0.67\nsamples = 9\nvalue = [0, 0, 2, 1, 1, 8, 1, 2]\nclass = Glaube & Ethik", fillcolor="#5639e576"] ;
324 -> 326 ;
327 [label="gini = 0.0\nsamples = 1\nvalue = [0, 0, 0, 0, 0, 0, 0, 1]\nclass = Architektur & Garten", fillcolor="#e53972ff"] ;
326 -> 327 ;
328 [label="NumberCommas <= 5.5\ngini = 0.63\nsamples = 8\nvalue = [0, 0, 2, 1, 1, 8, 1, 1]\nclass = Glaube & Ethik", fillcolor="#5639e57f"] ;
326 -> 328 ;
329 [label="PercentageAdjectives <= 0.05\ngini = 0.69\nsamples = 4\nvalue = [0, 0, 2, 1, 1, 3, 0, 0]\nclass = Glaube & Ethik", fillcolor="#5639e533"] ;
328 -> 329 ;
330 [label="NumberSentences <= 5.5\ngini = 0.44\nsamples = 2\nvalue = [0, 0, 2, 0, 1, 0, 0, 0]\nclass = Kinderbuch & Jugendbuch", fillcolor="#47e5397f"] ;
329 -> 330 ;
331 [label="gini = 0.0\nsamples = 1\nvalue = [0, 0, 0, 0, 1, 0, 0, 0]\nclass = Ganzheitliches Bewusstsein", fillcolor="#399de5ff"] ;
330 -> 331 ;
332 [label="gini = 0.0\nsamples = 1\nvalue = [0, 0, 2, 0, 0, 0, 0, 0]\nclass = Kinderbuch & Jugendbuch", fillcolor="#47e539ff"] ;
330 -> 332 ;
333 [label="gini = 0.38\nsamples = 2\nvalue = [0, 0, 0, 1, 0, 3, 0, 0]\nclass = Glaube & Ethik", fillcolor="#5639e5aa"] ;
329 -> 333 ;
334 [label="NumberSentences <= 5.5\ngini = 0.45\nsamples = 4\nvalue = [0, 0, 0, 0, 0, 5, 1, 1]\nclass = Glaube & Ethik", fillcolor="#5639e5aa"] ;
328 -> 334 ;
335 [label="gini = 0.0\nsamples = 1\nvalue = [0, 0, 0, 0, 0, 3, 0, 0]\nclass = Glaube & Ethik", fillcolor="#5639e5ff"] ;
334 -> 335 ;
336 [label="NumberSymbolsQ <= 2.0\ngini = 0.62\nsamples = 3\nvalue = [0, 0, 0, 0, 0, 2, 1, 1]\nclass = Glaube & Ethik", fillcolor="#5639e555"] ;
334 -> 336 ;
337 [label="gini = 0.44\nsamples = 2\nvalue = [0, 0, 0, 0, 0, 2, 0, 1]\nclass = Glaube & Ethik", fillcolor="#5639e57f"] ;
336 -> 337 ;
338 [label="gini = 0.0\nsamples = 1\nvalue = [0, 0, 0, 0, 0, 0, 1, 0]\nclass = Künste", fillcolor="#d739e5ff"] ;
336 -> 338 ;
339 [label="PercentageAdjectives <= 0.06\ngini = 0.63\nsamples = 47\nvalue = [0, 3, 0, 26, 0, 42, 7, 4]\nclass = Glaube & Ethik", fillcolor="#5639e549"] ;
323 -> 339 ;
340 [label="NumberSentences <= 5.5\ngini = 0.61\nsamples = 44\nvalue = [0, 3, 0, 21, 0, 42, 6, 4]\nclass = Glaube & Ethik", fillcolor="#5639e561"] ;
339 -> 340 ;
341 [label="GenreRateR <= 1.08\ngini = 0.62\nsamples = 33\nvalue = [0, 3, 0, 13, 0, 33, 6, 4]\nclass = Glaube & Ethik", fillcolor="#5639e56f"] ;
340 -> 341 ;
342 [label="NumberSentences <= 4.5\ngini = 0.5\nsamples = 16\nvalue = [0, 0, 0, 6, 0, 18, 1, 2]\nclass = Glaube & Ethik", fillcolor="#5639e592"] ;
341 -> 342 ;
343 [label="GenreRateR <= 0.5\ngini = 0.22\nsamples = 9\nvalue = [0, 0, 0, 2, 0, 14, 0, 0]\nclass = Glaube & Ethik", fillcolor="#5639e5db"] ;
342 -> 343 ;
344 [label="PercentageVerbs <= 0.16\ngini = 0.44\nsamples = 2\nvalue = [0, 0, 0, 1, 0, 2, 0, 0]\nclass = Glaube & Ethik", fillcolor="#5639e57f"] ;
343 -> 344 ;
345 [label="gini = 0.0\nsamples = 1\nvalue = [0, 0, 0, 0, 0, 2, 0, 0]\nclass = Glaube & Ethik", fillcolor="#5639e5ff"] ;
344 -> 345 ;
346 [label="gini = 0.0\nsamples = 1\nvalue = [0, 0, 0, 1, 0, 0, 0, 0]\nclass = Sachbuch", fillcolor="#39e5acff"] ;
344 -> 346 ;
347 [label="PercentageNouns <= 0.27\ngini = 0.14\nsamples = 7\nvalue = [0, 0, 0, 1, 0, 12, 0, 0]\nclass = Glaube & Ethik", fillcolor="#5639e5ea"] ;
343 -> 347 ;
348 [label="gini = 0.0\nsamples = 1\nvalue = [0, 0, 0, 1, 0, 0, 0, 0]\nclass = Sachbuch", fillcolor="#39e5acff"] ;
347 -> 348 ;
349 [label="gini = 0.0\nsamples = 6\nvalue = [0, 0, 0, 0, 0, 12, 0, 0]\nclass = Glaube & Ethik", fillcolor="#5639e5ff"] ;
347 -> 349 ;
350 [label="GenreRateR <= 0.5\ngini = 0.69\nsamples = 7\nvalue = [0, 0, 0, 4, 0, 4, 1, 2]\nclass = Sachbuch", fillcolor="#39e5ac00"] ;
342 -> 350 ;
351 [label="gini = 0.0\nsamples = 2\nvalue = [0, 0, 0, 0, 0, 3, 0, 0]\nclass = Glaube & Ethik", fillcolor="#5639e5ff"] ;
350 -> 351 ;
352 [label="NumberCommas <= 5.0\ngini = 0.66\nsamples = 5\nvalue = [0, 0, 0, 4, 0, 1, 1, 2]\nclass = Sachbuch", fillcolor="#39e5ac55"] ;
350 -> 352 ;
353 [label="PercentageNouns <= 0.32\ngini = 0.56\nsamples = 3\nvalue = [0, 0, 0, 3, 0, 1, 1, 0]\nclass = Sachbuch", fillcolor="#39e5ac7f"] ;
352 -> 353 ;
354 [label="gini = 0.38\nsamples = 2\nvalue = [0, 0, 0, 3, 0, 1, 0, 0]\nclass = Sachbuch", fillcolor="#39e5acaa"] ;
353 -> 354 ;
355 [label="gini = 0.0\nsamples = 1\nvalue = [0, 0, 0, 0, 0, 0, 1, 0]\nclass = Künste", fillcolor="#d739e5ff"] ;
353 -> 355 ;
356 [label="PercentageAdjectives <= 0.04\ngini = 0.44\nsamples = 2\nvalue = [0, 0, 0, 1, 0, 0, 0, 2]\nclass = Architektur & Garten", fillcolor="#e539727f"] ;
352 -> 356 ;
357 [label="gini = 0.0\nsamples = 1\nvalue = [0, 0, 0, 0, 0, 0, 0, 2]\nclass = Architektur & Garten", fillcolor="#e53972ff"] ;
356 -> 357 ;
358 [label="gini = 0.0\nsamples = 1\nvalue = [0, 0, 0, 1, 0, 0, 0, 0]\nclass = Sachbuch", fillcolor="#39e5acff"] ;
356 -> 358 ;
359 [label="PercentageAdjectives <= 0.05\ngini = 0.7\nsamples = 17\nvalue = [0, 3, 0, 7, 0, 15, 5, 2]\nclass = Glaube & Ethik", fillcolor="#5639e552"] ;
341 -> 359 ;
360 [label="PercentageVerbs <= 0.12\ngini = 0.54\nsamples = 10\nvalue = [0, 1, 0, 7, 0, 10, 0, 0]\nclass = Glaube & Ethik", fillcolor="#5639e546"] ;
359 -> 360 ;
361 [label="gini = 0.0\nsamples = 3\nvalue = [0, 0, 0, 4, 0, 0, 0, 0]\nclass = Sachbuch", fillcolor="#39e5acff"] ;
360 -> 361 ;
362 [label="PercentageVerbs <= 0.16\ngini = 0.44\nsamples = 7\nvalue = [0, 1, 0, 3, 0, 10, 0, 0]\nclass = Glaube & Ethik", fillcolor="#5639e5a2"] ;
360 -> 362 ;
363 [label="PercentageNouns <= 0.32\ngini = 0.29\nsamples = 6\nvalue = [0, 1, 0, 1, 0, 10, 0, 0]\nclass = Glaube & Ethik", fillcolor="#5639e5d1"] ;
362 -> 363 ;
364 [label="gini = 0.0\nsamples = 3\nvalue = [0, 0, 0, 0, 0, 8, 0, 0]\nclass = Glaube & Ethik", fillcolor="#5639e5ff"] ;
363 -> 364 ;
365 [label="NumberSentences <= 4.5\ngini = 0.62\nsamples = 3\nvalue = [0, 1, 0, 1, 0, 2, 0, 0]\nclass = Glaube & Ethik", fillcolor="#5639e555"] ;
363 -> 365 ;
366 [label="gini = 0.0\nsamples = 1\nvalue = [0, 1, 0, 0, 0, 0, 0, 0]\nclass = Ratgeber", fillcolor="#c8e539ff"] ;
365 -> 366 ;
367 [label="PercentageNouns <= 0.33\ngini = 0.44\nsamples = 2\nvalue = [0, 0, 0, 1, 0, 2, 0, 0]\nclass = Glaube & Ethik", fillcolor="#5639e57f"] ;
365 -> 367 ;
368 [label="gini = 0.0\nsamples = 1\nvalue = [0, 0, 0, 1, 0, 0, 0, 0]\nclass = Sachbuch", fillcolor="#39e5acff"] ;
367 -> 368 ;
369 [label="gini = 0.0\nsamples = 1\nvalue = [0, 0, 0, 0, 0, 2, 0, 0]\nclass = Glaube & Ethik", fillcolor="#5639e5ff"] ;
367 -> 369 ;
370 [label="gini = 0.0\nsamples = 1\nvalue = [0, 0, 0, 2, 0, 0, 0, 0]\nclass = Sachbuch", fillcolor="#39e5acff"] ;
362 -> 370 ;
371 [label="GenreRateR <= 1.42\ngini = 0.7\nsamples = 7\nvalue = [0, 2, 0, 0, 0, 5, 5, 2]\nclass = Glaube & Ethik", fillcolor="#5639e500"] ;
359 -> 371 ;
372 [label="NumberCommas <= 6.5\ngini = 0.64\nsamples = 4\nvalue = [0, 0, 0, 0, 0, 4, 3, 2]\nclass = Glaube & Ethik", fillcolor="#5639e52a"] ;
371 -> 372 ;
373 [label="WordsPerSentence <= 15.5\ngini = 0.65\nsamples = 3\nvalue = [0, 0, 0, 0, 0, 2, 3, 2]\nclass = Künste", fillcolor="#d739e533"] ;
372 -> 373 ;
374 [label="gini = 0.0\nsamples = 1\nvalue = [0, 0, 0, 0, 0, 2, 0, 0]\nclass = Glaube & Ethik", fillcolor="#5639e5ff"] ;
373 -> 374 ;
375 [label="gini = 0.48\nsamples = 2\nvalue = [0, 0, 0, 0, 0, 0, 3, 2]\nclass = Künste", fillcolor="#d739e555"] ;
373 -> 375 ;
376 [label="gini = 0.0\nsamples = 1\nvalue = [0, 0, 0, 0, 0, 2, 0, 0]\nclass = Glaube & Ethik", fillcolor="#5639e5ff"] ;
372 -> 376 ;
377 [label="NumberSentences <= 4.5\ngini = 0.64\nsamples = 3\nvalue = [0, 2, 0, 0, 0, 1, 2, 0]\nclass = Ratgeber", fillcolor="#c8e53900"] ;
371 -> 377 ;
378 [label="gini = 0.5\nsamples = 2\nvalue = [0, 2, 0, 0, 0, 0, 2, 0]\nclass = Ratgeber", fillcolor="#c8e53900"] ;
377 -> 378 ;
379 [label="gini = 0.0\nsamples = 1\nvalue = [0, 0, 0, 0, 0, 1, 0, 0]\nclass = Glaube & Ethik", fillcolor="#5639e5ff"] ;
377 -> 379 ;
380 [label="NumberSymbolsQ <= 1.0\ngini = 0.5\nsamples = 11\nvalue = [0, 0, 0, 8, 0, 9, 0, 0]\nclass = Glaube & Ethik", fillcolor="#5639e51c"] ;
340 -> 380 ;
381 [label="PercentageAdjectives <= 0.05\ngini = 0.49\nsamples = 9\nvalue = [0, 0, 0, 8, 0, 6, 0, 0]\nclass = Sachbuch", fillcolor="#39e5ac40"] ;
380 -> 381 ;
382 [label="GenreRateR <= 0.5\ngini = 0.48\nsamples = 7\nvalue = [0, 0, 0, 4, 0, 6, 0, 0]\nclass = Glaube & Ethik", fillcolor="#5639e555"] ;
381 -> 382 ;
383 [label="PercentageNouns <= 0.32\ngini = 0.48\nsamples = 2\nvalue = [0, 0, 0, 3, 0, 2, 0, 0]\nclass = Sachbuch", fillcolor="#39e5ac55"] ;
382 -> 383 ;
384 [label="gini = 0.0\nsamples = 1\nvalue = [0, 0, 0, 3, 0, 0, 0, 0]\nclass = Sachbuch", fillcolor="#39e5acff"] ;
383 -> 384 ;
385 [label="gini = 0.0\nsamples = 1\nvalue = [0, 0, 0, 0, 0, 2, 0, 0]\nclass = Glaube & Ethik", fillcolor="#5639e5ff"] ;
383 -> 385 ;
386 [label="NumberSentences <= 7.0\ngini = 0.32\nsamples = 5\nvalue = [0, 0, 0, 1, 0, 4, 0, 0]\nclass = Glaube & Ethik", fillcolor="#5639e5bf"] ;
382 -> 386 ;
387 [label="gini = 0.0\nsamples = 4\nvalue = [0, 0, 0, 0, 0, 4, 0, 0]\nclass = Glaube & Ethik", fillcolor="#5639e5ff"] ;
386 -> 387 ;
388 [label="gini = 0.0\nsamples = 1\nvalue = [0, 0, 0, 1, 0, 0, 0, 0]\nclass = Sachbuch", fillcolor="#39e5acff"] ;
386 -> 388 ;
389 [label="gini = 0.0\nsamples = 2\nvalue = [0, 0, 0, 4, 0, 0, 0, 0]\nclass = Sachbuch", fillcolor="#39e5acff"] ;
381 -> 389 ;
390 [label="gini = 0.0\nsamples = 2\nvalue = [0, 0, 0, 0, 0, 3, 0, 0]\nclass = Glaube & Ethik", fillcolor="#5639e5ff"] ;
380 -> 390 ;
391 [label="PercentageAdjectives <= 0.06\ngini = 0.28\nsamples = 3\nvalue = [0, 0, 0, 5, 0, 0, 1, 0]\nclass = Sachbuch", fillcolor="#39e5accc"] ;
339 -> 391 ;
392 [label="gini = 0.0\nsamples = 2\nvalue = [0, 0, 0, 5, 0, 0, 0, 0]\nclass = Sachbuch", fillcolor="#39e5acff"] ;
391 -> 392 ;
393 [label="gini = 0.0\nsamples = 1\nvalue = [0, 0, 0, 0, 0, 0, 1, 0]\nclass = Künste", fillcolor="#d739e5ff"] ;
391 -> 393 ;
394 [label="gini = 0.0\nsamples = 1\nvalue = [0, 0, 0, 0, 0, 0, 0, 1]\nclass = Architektur & Garten", fillcolor="#e53972ff"] ;
322 -> 394 ;
395 [label="gini = 0.0\nsamples = 1\nvalue = [0, 0, 0, 4, 0, 0, 0, 0]\nclass = Sachbuch", fillcolor="#39e5acff"] ;
321 -> 395 ;
396 [label="PercentageVerbs <= 0.18\ngini = 0.47\nsamples = 99\nvalue = [0, 1, 5, 18, 0, 115, 16, 6]\nclass = Glaube & Ethik", fillcolor="#5639e5ad"] ;
304 -> 396 ;
397 [label="WordsPerSentence <= 15.27\ngini = 0.42\nsamples = 92\nvalue = [0, 1, 5, 12, 0, 112, 13, 6]\nclass = Glaube & Ethik", fillcolor="#5639e5ba"] ;
396 -> 397 ;
398 [label="NumberSentences <= 4.5\ngini = 0.7\nsamples = 13\nvalue = [0, 0, 2, 4, 0, 10, 6, 1]\nclass = Glaube & Ethik", fillcolor="#5639e53c"] ;
397 -> 398 ;
399 [label="NumberCommas <= 5.0\ngini = 0.24\nsamples = 2\nvalue = [0, 0, 0, 1, 0, 0, 6, 0]\nclass = Künste", fillcolor="#d739e5d4"] ;
398 -> 399 ;
400 [label="gini = 0.0\nsamples = 1\nvalue = [0, 0, 0, 1, 0, 0, 0, 0]\nclass = Sachbuch", fillcolor="#39e5acff"] ;
399 -> 400 ;
401 [label="gini = 0.0\nsamples = 1\nvalue = [0, 0, 0, 0, 0, 0, 6, 0]\nclass = Künste", fillcolor="#d739e5ff"] ;
399 -> 401 ;
402 [label="GenreRateR <= 0.5\ngini = 0.55\nsamples = 11\nvalue = [0, 0, 2, 3, 0, 10, 0, 1]\nclass = Glaube & Ethik", fillcolor="#5639e589"] ;
398 -> 402 ;
403 [label="gini = 0.44\nsamples = 2\nvalue = [0, 0, 0, 2, 0, 0, 0, 1]\nclass = Sachbuch", fillcolor="#39e5ac7f"] ;
402 -> 403 ;
404 [label="WordsPerSentence <= 15.18\ngini = 0.38\nsamples = 9\nvalue = [0, 0, 2, 1, 0, 10, 0, 0]\nclass = Glaube & Ethik", fillcolor="#5639e5b9"] ;
402 -> 404 ;
405 [label="NumberSentences <= 6.5\ngini = 0.17\nsamples = 8\nvalue = [0, 0, 0, 1, 0, 10, 0, 0]\nclass = Glaube & Ethik", fillcolor="#5639e5e6"] ;
404 -> 405 ;
406 [label="gini = 0.0\nsamples = 6\nvalue = [0, 0, 0, 0, 0, 9, 0, 0]\nclass = Glaube & Ethik", fillcolor="#5639e5ff"] ;
405 -> 406 ;
407 [label="PercentageAdjectives <= 0.04\ngini = 0.5\nsamples = 2\nvalue = [0, 0, 0, 1, 0, 1, 0, 0]\nclass = Sachbuch", fillcolor="#39e5ac00"] ;
405 -> 407 ;
408 [label="gini = 0.0\nsamples = 1\nvalue = [0, 0, 0, 1, 0, 0, 0, 0]\nclass = Sachbuch", fillcolor="#39e5acff"] ;
407 -> 408 ;
409 [label="gini = 0.0\nsamples = 1\nvalue = [0, 0, 0, 0, 0, 1, 0, 0]\nclass = Glaube & Ethik", fillcolor="#5639e5ff"] ;
407 -> 409 ;
410 [label="gini = 0.0\nsamples = 1\nvalue = [0, 0, 2, 0, 0, 0, 0, 0]\nclass = Kinderbuch & Jugendbuch", fillcolor="#47e539ff"] ;
404 -> 410 ;
411 [label="NumberSymbolsQ <= 1.0\ngini = 0.34\nsamples = 79\nvalue = [0, 1, 3, 8, 0, 102, 7, 5]\nclass = Glaube & Ethik", fillcolor="#5639e5cb"] ;
397 -> 411 ;
412 [label="NumberSymbols& <= 1.0\ngini = 0.32\nsamples = 77\nvalue = [0, 1, 3, 8, 0, 100, 7, 3]\nclass = Glaube & Ethik", fillcolor="#5639e5ce"] ;
411 -> 412 ;
413 [label="GenreRateR <= 0.5\ngini = 0.31\nsamples = 76\nvalue = [0, 1, 3, 7, 0, 100, 7, 3]\nclass = Glaube & Ethik", fillcolor="#5639e5d0"] ;
412 -> 413 ;
414 [label="NumberSymbols: <= 1.5\ngini = 0.49\nsamples = 6\nvalue = [0, 0, 0, 5, 0, 7, 0, 0]\nclass = Glaube & Ethik", fillcolor="#5639e549"] ;
413 -> 414 ;
415 [label="NumberSentences <= 6.0\ngini = 0.49\nsamples = 4\nvalue = [0, 0, 0, 5, 0, 4, 0, 0]\nclass = Sachbuch", fillcolor="#39e5ac33"] ;
414 -> 415 ;
416 [label="PercentageNouns <= 0.32\ngini = 0.28\nsamples = 3\nvalue = [0, 0, 0, 5, 0, 1, 0, 0]\nclass = Sachbuch", fillcolor="#39e5accc"] ;
415 -> 416 ;
417 [label="gini = 0.0\nsamples = 1\nvalue = [0, 0, 0, 0, 0, 1, 0, 0]\nclass = Glaube & Ethik", fillcolor="#5639e5ff"] ;
416 -> 417 ;
418 [label="gini = 0.0\nsamples = 2\nvalue = [0, 0, 0, 5, 0, 0, 0, 0]\nclass = Sachbuch", fillcolor="#39e5acff"] ;
416 -> 418 ;
419 [label="gini = 0.0\nsamples = 1\nvalue = [0, 0, 0, 0, 0, 3, 0, 0]\nclass = Glaube & Ethik", fillcolor="#5639e5ff"] ;
415 -> 419 ;
420 [label="gini = 0.0\nsamples = 2\nvalue = [0, 0, 0, 0, 0, 3, 0, 0]\nclass = Glaube & Ethik", fillcolor="#5639e5ff"] ;
414 -> 420 ;
421 [label="NumberCommas <= 4.5\ngini = 0.27\nsamples = 70\nvalue = [0, 1, 3, 2, 0, 93, 7, 3]\nclass = Glaube & Ethik", fillcolor="#5639e5d7"] ;
413 -> 421 ;
422 [label="WordsPerSentence <= 18.62\ngini = 0.51\nsamples = 13\nvalue = [0, 1, 1, 1, 0, 14, 4, 0]\nclass = Glaube & Ethik", fillcolor="#5639e596"] ;
421 -> 422 ;
423 [label="PercentageNouns <= 0.3\ngini = 0.58\nsamples = 7\nvalue = [0, 0, 0, 1, 0, 5, 4, 0]\nclass = Glaube & Ethik", fillcolor="#5639e52a"] ;
422 -> 423 ;
424 [label="PercentageVerbs <= 0.15\ngini = 0.44\nsamples = 2\nvalue = [0, 0, 0, 1, 0, 0, 2, 0]\nclass = Künste", fillcolor="#d739e57f"] ;
423 -> 424 ;
425 [label="gini = 0.0\nsamples = 1\nvalue = [0, 0, 0, 1, 0, 0, 0, 0]\nclass = Sachbuch", fillcolor="#39e5acff"] ;
424 -> 425 ;
426 [label="gini = 0.0\nsamples = 1\nvalue = [0, 0, 0, 0, 0, 0, 2, 0]\nclass = Künste", fillcolor="#d739e5ff"] ;
424 -> 426 ;
427 [label="PercentageAdjectives <= 0.05\ngini = 0.41\nsamples = 5\nvalue = [0, 0, 0, 0, 0, 5, 2, 0]\nclass = Glaube & Ethik", fillcolor="#5639e599"] ;
423 -> 427 ;
428 [label="gini = 0.0\nsamples = 4\nvalue = [0, 0, 0, 0, 0, 5, 0, 0]\nclass = Glaube & Ethik", fillcolor="#5639e5ff"] ;
427 -> 428 ;
429 [label="gini = 0.0\nsamples = 1\nvalue = [0, 0, 0, 0, 0, 0, 2, 0]\nclass = Künste", fillcolor="#d739e5ff"] ;
427 -> 429 ;
430 [label="NumberSymbols: <= 1.5\ngini = 0.31\nsamples = 6\nvalue = [0, 1, 1, 0, 0, 9, 0, 0]\nclass = Glaube & Ethik", fillcolor="#5639e5cc"] ;
422 -> 430 ;
431 [label="PercentageNouns <= 0.33\ngini = 0.18\nsamples = 5\nvalue = [0, 0, 1, 0, 0, 9, 0, 0]\nclass = Glaube & Ethik", fillcolor="#5639e5e3"] ;
430 -> 431 ;
432 [label="PercentageVerbs <= 0.13\ngini = 0.5\nsamples = 2\nvalue = [0, 0, 1, 0, 0, 1, 0, 0]\nclass = Kinderbuch & Jugendbuch", fillcolor="#47e53900"] ;
431 -> 432 ;
433 [label="gini = 0.0\nsamples = 1\nvalue = [0, 0, 0, 0, 0, 1, 0, 0]\nclass = Glaube & Ethik", fillcolor="#5639e5ff"] ;
432 -> 433 ;
434 [label="gini = 0.0\nsamples = 1\nvalue = [0, 0, 1, 0, 0, 0, 0, 0]\nclass = Kinderbuch & Jugendbuch", fillcolor="#47e539ff"] ;
432 -> 434 ;
435 [label="gini = 0.0\nsamples = 3\nvalue = [0, 0, 0, 0, 0, 8, 0, 0]\nclass = Glaube & Ethik", fillcolor="#5639e5ff"] ;
431 -> 435 ;
436 [label="gini = 0.0\nsamples = 1\nvalue = [0, 1, 0, 0, 0, 0, 0, 0]\nclass = Ratgeber", fillcolor="#c8e539ff"] ;
430 -> 436 ;
437 [label="GenreRateR <= 1.42\ngini = 0.19\nsamples = 57\nvalue = [0, 0, 2, 1, 0, 79, 3, 3]\nclass = Glaube & Ethik", fillcolor="#5639e5e4"] ;
421 -> 437 ;
438 [label="PercentageAdjectives <= 0.05\ngini = 0.1\nsamples = 23\nvalue = [0, 0, 0, 0, 0, 35, 1, 1]\nclass = Glaube & Ethik", fillcolor="#5639e5f1"] ;
437 -> 438 ;
439 [label="PercentageAdjectives <= 0.04\ngini = 0.23\nsamples = 10\nvalue = [0, 0, 0, 0, 0, 14, 1, 1]\nclass = Glaube & Ethik", fillcolor="#5639e5dd"] ;
438 -> 439 ;
440 [label="PercentageAdjectives <= 0.04\ngini = 0.12\nsamples = 9\nvalue = [0, 0, 0, 0, 0, 14, 1, 0]\nclass = Glaube & Ethik", fillcolor="#5639e5ed"] ;
439 -> 440 ;
441 [label="gini = 0.0\nsamples = 5\nvalue = [0, 0, 0, 0, 0, 9, 0, 0]\nclass = Glaube & Ethik", fillcolor="#5639e5ff"] ;
440 -> 441 ;
442 [label="PercentageAdjectives <= 0.04\ngini = 0.28\nsamples = 4\nvalue = [0, 0, 0, 0, 0, 5, 1, 0]\nclass = Glaube & Ethik", fillcolor="#5639e5cc"] ;
440 -> 442 ;
443 [label="gini = 0.0\nsamples = 1\nvalue = [0, 0, 0, 0, 0, 0, 1, 0]\nclass = Künste", fillcolor="#d739e5ff"] ;
442 -> 443 ;
444 [label="gini = 0.0\nsamples = 3\nvalue = [0, 0, 0, 0, 0, 5, 0, 0]\nclass = Glaube & Ethik", fillcolor="#5639e5ff"] ;
442 -> 444 ;
445 [label="gini = 0.0\nsamples = 1\nvalue = [0, 0, 0, 0, 0, 0, 0, 1]\nclass = Architektur & Garten", fillcolor="#e53972ff"] ;
439 -> 445 ;
446 [label="gini = 0.0\nsamples = 13\nvalue = [0, 0, 0, 0, 0, 21, 0, 0]\nclass = Glaube & Ethik", fillcolor="#5639e5ff"] ;
438 -> 446 ;
447 [label="NumberCommas <= 21.5\ngini = 0.25\nsamples = 34\nvalue = [0, 0, 2, 1, 0, 44, 2, 2]\nclass = Glaube & Ethik", fillcolor="#5639e5db"] ;
437 -> 447 ;
448 [label="WordsPerSentence <= 29.5\ngini = 0.23\nsamples = 32\nvalue = [0, 0, 2, 1, 0, 43, 2, 1]\nclass = Glaube & Ethik", fillcolor="#5639e5de"] ;
447 -> 448 ;
449 [label="PercentageNouns <= 0.29\ngini = 0.12\nsamples = 29\nvalue = [0, 0, 2, 1, 0, 43, 0, 0]\nclass = Glaube & Ethik", fillcolor="#5639e5ee"] ;
448 -> 449 ;
450 [label="PercentageVerbs <= 0.14\ngini = 0.35\nsamples = 4\nvalue = [0, 0, 2, 0, 0, 7, 0, 0]\nclass = Glaube & Ethik", fillcolor="#5639e5b6"] ;
449 -> 450 ;
451 [label="gini = 0.0\nsamples = 1\nvalue = [0, 0, 2, 0, 0, 0, 0, 0]\nclass = Kinderbuch & Jugendbuch", fillcolor="#47e539ff"] ;
450 -> 451 ;
452 [label="gini = 0.0\nsamples = 3\nvalue = [0, 0, 0, 0, 0, 7, 0, 0]\nclass = Glaube & Ethik", fillcolor="#5639e5ff"] ;
450 -> 452 ;
453 [label="NumberSentences <= 4.5\ngini = 0.05\nsamples = 25\nvalue = [0, 0, 0, 1, 0, 36, 0, 0]\nclass = Glaube & Ethik", fillcolor="#5639e5f8"] ;
449 -> 453 ;
454 [label="PercentageNouns <= 0.32\ngini = 0.09\nsamples = 16\nvalue = [0, 0, 0, 1, 0, 20, 0, 0]\nclass = Glaube & Ethik", fillcolor="#5639e5f2"] ;
453 -> 454 ;
455 [label="PercentageNouns <= 0.32\ngini = 0.38\nsamples = 4\nvalue = [0, 0, 0, 1, 0, 3, 0, 0]\nclass = Glaube & Ethik", fillcolor="#5639e5aa"] ;
454 -> 455 ;
456 [label="gini = 0.0\nsamples = 2\nvalue = [0, 0, 0, 0, 0, 2, 0, 0]\nclass = Glaube & Ethik", fillcolor="#5639e5ff"] ;
455 -> 456 ;
457 [label="gini = 0.5\nsamples = 2\nvalue = [0, 0, 0, 1, 0, 1, 0, 0]\nclass = Sachbuch", fillcolor="#39e5ac00"] ;
455 -> 457 ;
458 [label="gini = 0.0\nsamples = 12\nvalue = [0, 0, 0, 0, 0, 17, 0, 0]\nclass = Glaube & Ethik", fillcolor="#5639e5ff"] ;
454 -> 458 ;
459 [label="gini = 0.0\nsamples = 9\nvalue = [0, 0, 0, 0, 0, 16, 0, 0]\nclass = Glaube & Ethik", fillcolor="#5639e5ff"] ;
453 -> 459 ;
460 [label="PercentageNouns <= 0.35\ngini = 0.44\nsamples = 3\nvalue = [0, 0, 0, 0, 0, 0, 2, 1]\nclass = Künste", fillcolor="#d739e57f"] ;
448 -> 460 ;
461 [label="gini = 0.0\nsamples = 1\nvalue = [0, 0, 0, 0, 0, 0, 1, 0]\nclass = Künste", fillcolor="#d739e5ff"] ;
460 -> 461 ;
462 [label="gini = 0.5\nsamples = 2\nvalue = [0, 0, 0, 0, 0, 0, 1, 1]\nclass = Künste", fillcolor="#d739e500"] ;
460 -> 462 ;
463 [label="PercentageAdjectives <= 0.05\ngini = 0.5\nsamples = 2\nvalue = [0, 0, 0, 0, 0, 1, 0, 1]\nclass = Glaube & Ethik", fillcolor="#5639e500"] ;
447 -> 463 ;
464 [label="gini = 0.0\nsamples = 1\nvalue = [0, 0, 0, 0, 0, 0, 0, 1]\nclass = Architektur & Garten", fillcolor="#e53972ff"] ;
463 -> 464 ;
465 [label="gini = 0.0\nsamples = 1\nvalue = [0, 0, 0, 0, 0, 1, 0, 0]\nclass = Glaube & Ethik", fillcolor="#5639e5ff"] ;
463 -> 465 ;
466 [label="gini = 0.0\nsamples = 1\nvalue = [0, 0, 0, 1, 0, 0, 0, 0]\nclass = Sachbuch", fillcolor="#39e5acff"] ;
412 -> 466 ;
467 [label="GenreRateR <= 1.25\ngini = 0.5\nsamples = 2\nvalue = [0, 0, 0, 0, 0, 2, 0, 2]\nclass = Glaube & Ethik", fillcolor="#5639e500"] ;
411 -> 467 ;
468 [label="gini = 0.0\nsamples = 1\nvalue = [0, 0, 0, 0, 0, 2, 0, 0]\nclass = Glaube & Ethik", fillcolor="#5639e5ff"] ;
467 -> 468 ;
469 [label="gini = 0.0\nsamples = 1\nvalue = [0, 0, 0, 0, 0, 0, 0, 2]\nclass = Architektur & Garten", fillcolor="#e53972ff"] ;
467 -> 469 ;
470 [label="NumberCommas <= 5.5\ngini = 0.62\nsamples = 7\nvalue = [0, 0, 0, 6, 0, 3, 3, 0]\nclass = Sachbuch", fillcolor="#39e5ac55"] ;
396 -> 470 ;
471 [label="WordsPerSentence <= 21.17\ngini = 0.67\nsamples = 5\nvalue = [0, 0, 0, 3, 0, 3, 3, 0]\nclass = Sachbuch", fillcolor="#39e5ac00"] ;
470 -> 471 ;
472 [label="PercentageAdjectives <= 0.05\ngini = 0.5\nsamples = 4\nvalue = [0, 0, 0, 0, 0, 3, 3, 0]\nclass = Glaube & Ethik", fillcolor="#5639e500"] ;
471 -> 472 ;
473 [label="WordsPerSentence <= 15.75\ngini = 0.38\nsamples = 3\nvalue = [0, 0, 0, 0, 0, 3, 1, 0]\nclass = Glaube & Ethik", fillcolor="#5639e5aa"] ;
472 -> 473 ;
474 [label="gini = 0.0\nsamples = 1\nvalue = [0, 0, 0, 0, 0, 2, 0, 0]\nclass = Glaube & Ethik", fillcolor="#5639e5ff"] ;
473 -> 474 ;
475 [label="NumberSymbols: <= 1.5\ngini = 0.5\nsamples = 2\nvalue = [0, 0, 0, 0, 0, 1, 1, 0]\nclass = Glaube & Ethik", fillcolor="#5639e500"] ;
473 -> 475 ;
476 [label="gini = 0.0\nsamples = 1\nvalue = [0, 0, 0, 0, 0, 0, 1, 0]\nclass = Künste", fillcolor="#d739e5ff"] ;
475 -> 476 ;
477 [label="gini = 0.0\nsamples = 1\nvalue = [0, 0, 0, 0, 0, 1, 0, 0]\nclass = Glaube & Ethik", fillcolor="#5639e5ff"] ;
475 -> 477 ;
478 [label="gini = 0.0\nsamples = 1\nvalue = [0, 0, 0, 0, 0, 0, 2, 0]\nclass = Künste", fillcolor="#d739e5ff"] ;
472 -> 478 ;
479 [label="gini = 0.0\nsamples = 1\nvalue = [0, 0, 0, 3, 0, 0, 0, 0]\nclass = Sachbuch", fillcolor="#39e5acff"] ;
471 -> 479 ;
480 [label="gini = 0.0\nsamples = 2\nvalue = [0, 0, 0, 3, 0, 0, 0, 0]\nclass = Sachbuch", fillcolor="#39e5acff"] ;
470 -> 480 ;
481 [label="PercentageVerbs <= 0.05\ngini = 0.49\nsamples = 6\nvalue = [0, 0, 0, 6, 0, 2, 0, 1]\nclass = Sachbuch", fillcolor="#39e5ac92"] ;
267 -> 481 ;
482 [label="gini = 0.0\nsamples = 1\nvalue = [0, 0, 0, 0, 0, 0, 0, 1]\nclass = Architektur & Garten", fillcolor="#e53972ff"] ;
481 -> 482 ;
483 [label="PercentageVerbs <= 0.17\ngini = 0.38\nsamples = 5\nvalue = [0, 0, 0, 6, 0, 2, 0, 0]\nclass = Sachbuch", fillcolor="#39e5acaa"] ;
481 -> 483 ;
484 [label="PercentageVerbs <= 0.11\ngini = 0.24\nsamples = 4\nvalue = [0, 0, 0, 6, 0, 1, 0, 0]\nclass = Sachbuch", fillcolor="#39e5acd4"] ;
483 -> 484 ;
485 [label="WordsPerSentence <= 20.57\ngini = 0.5\nsamples = 2\nvalue = [0, 0, 0, 1, 0, 1, 0, 0]\nclass = Sachbuch", fillcolor="#39e5ac00"] ;
484 -> 485 ;
486 [label="gini = 0.0\nsamples = 1\nvalue = [0, 0, 0, 1, 0, 0, 0, 0]\nclass = Sachbuch", fillcolor="#39e5acff"] ;
485 -> 486 ;
487 [label="gini = 0.0\nsamples = 1\nvalue = [0, 0, 0, 0, 0, 1, 0, 0]\nclass = Glaube & Ethik", fillcolor="#5639e5ff"] ;
485 -> 487 ;
488 [label="gini = 0.0\nsamples = 2\nvalue = [0, 0, 0, 5, 0, 0, 0, 0]\nclass = Sachbuch", fillcolor="#39e5acff"] ;
484 -> 488 ;
489 [label="gini = 0.0\nsamples = 1\nvalue = [0, 0, 0, 0, 0, 1, 0, 0]\nclass = Glaube & Ethik", fillcolor="#5639e5ff"] ;
483 -> 489 ;
490 [label="PercentageNouns <= 0.45\ngini = 0.62\nsamples = 474\nvalue = [13, 36, 31, 72, 5, 436, 57, 94]\nclass = Glaube & Ethik", fillcolor="#5639e586"] ;
266 -> 490 ;
491 [label="GenreRateR <= 1.69\ngini = 0.61\nsamples = 453\nvalue = [11, 35, 21, 65, 5, 423, 56, 92]\nclass = Glaube & Ethik", fillcolor="#5639e589"] ;
490 -> 491 ;
492 [label="WordsPerSentence <= 20.63\ngini = 0.59\nsamples = 399\nvalue = [11, 32, 18, 54, 5, 384, 52, 72]\nclass = Glaube & Ethik", fillcolor="#5639e58f"] ;
491 -> 492 ;
493 [label="NumberSymbols& <= 0.5\ngini = 0.53\nsamples = 263\nvalue = [1, 21, 6, 40, 0, 276, 27, 45]\nclass = Glaube & Ethik", fillcolor="#5639e59f"] ;
492 -> 493 ;
494 [label="NumberCommas <= 12.5\ngini = 0.53\nsamples = 262\nvalue = [1, 21, 6, 38, 0, 276, 27, 45]\nclass = Glaube & Ethik", fillcolor="#5639e5a0"] ;
493 -> 494 ;
495 [label="PercentageNouns <= 0.41\ngini = 0.51\nsamples = 251\nvalue = [1, 17, 6, 38, 0, 271, 26, 38]\nclass = Glaube & Ethik", fillcolor="#5639e5a6"] ;
494 -> 495 ;
496 [label="PercentageAdjectives <= 0.09\ngini = 0.49\nsamples = 240\nvalue = [1, 16, 5, 38, 0, 261, 20, 33]\nclass = Glaube & Ethik", fillcolor="#5639e5a9"] ;
495 -> 496 ;
497 [label="NumberSentences <= 7.5\ngini = 0.48\nsamples = 235\nvalue = [1, 16, 5, 38, 0, 259, 17, 31]\nclass = Glaube & Ethik", fillcolor="#5639e5ab"] ;
496 -> 497 ;
498 [label="NumberSymbols: <= 0.5\ngini = 0.44\nsamples = 214\nvalue = [1, 16, 4, 32, 0, 250, 17, 20]\nclass = Glaube & Ethik", fillcolor="#5639e5b4"] ;
497 -> 498 ;
499 [label="NumberCommas <= 10.5\ngini = 0.37\nsamples = 117\nvalue = [0, 10, 2, 11, 0, 149, 9, 9]\nclass = Glaube & Ethik", fillcolor="#5639e5c5"] ;
498 -> 499 ;
500 [label="WordsPerSentence <= 16.45\ngini = 0.36\nsamples = 112\nvalue = [0, 10, 2, 10, 0, 145, 9, 6]\nclass = Glaube & Ethik", fillcolor="#5639e5c8"] ;
499 -> 500 ;
501 [label="NumberSymbols; <= 0.5\ngini = 0.41\nsamples = 43\nvalue = [0, 1, 1, 5, 0, 55, 8, 3]\nclass = Glaube & Ethik", fillcolor="#5639e5b8"] ;
500 -> 501 ;
502 [label="GenreRateR <= 0.5\ngini = 0.44\nsamples = 41\nvalue = [0, 1, 1, 5, 0, 50, 8, 3]\nclass = Glaube & Ethik", fillcolor="#5639e5b2"] ;
501 -> 502 ;
503 [label="gini = 0.0\nsamples = 8\nvalue = [0, 0, 0, 0, 0, 13, 0, 0]\nclass = Glaube & Ethik", fillcolor="#5639e5ff"] ;
502 -> 503 ;
504 [label="NumberSymbolsQ <= 1.0\ngini = 0.51\nsamples = 33\nvalue = [0, 1, 1, 5, 0, 37, 8, 3]\nclass = Glaube & Ethik", fillcolor="#5639e59d"] ;
502 -> 504 ;
505 [label="NumberCommas <= 1.5\ngini = 0.46\nsamples = 29\nvalue = [0, 0, 1, 4, 0, 36, 6, 3]\nclass = Glaube & Ethik", fillcolor="#5639e5ae"] ;
504 -> 505 ;
506 [label="gini = 0.0\nsamples = 1\nvalue = [0, 0, 0, 0, 0, 0, 0, 1]\nclass = Architektur & Garten", fillcolor="#e53972ff"] ;
505 -> 506 ;
507 [label="PercentageVerbs <= 0.16\ngini = 0.44\nsamples = 28\nvalue = [0, 0, 1, 4, 0, 36, 6, 2]\nclass = Glaube & Ethik", fillcolor="#5639e5b2"] ;
505 -> 507 ;
508 [label="PercentageNouns <= 0.38\ngini = 0.31\nsamples = 20\nvalue = [0, 0, 0, 4, 0, 28, 1, 1]\nclass = Glaube & Ethik", fillcolor="#5639e5cc"] ;
507 -> 508 ;
509 [label="NumberCommas <= 6.5\ngini = 0.28\nsamples = 18\nvalue = [0, 0, 0, 4, 0, 26, 0, 1]\nclass = Glaube & Ethik", fillcolor="#5639e5d0"] ;
508 -> 509 ;
510 [label="PercentageNouns <= 0.33\ngini = 0.09\nsamples = 12\nvalue = [0, 0, 0, 1, 0, 21, 0, 0]\nclass = Glaube & Ethik", fillcolor="#5639e5f3"] ;
509 -> 510 ;
511 [label="gini = 0.0\nsamples = 8\nvalue = [0, 0, 0, 0, 0, 14, 0, 0]\nclass = Glaube & Ethik", fillcolor="#5639e5ff"] ;
510 -> 511 ;
512 [label="PercentageAdjectives <= 0.07\ngini = 0.22\nsamples = 4\nvalue = [0, 0, 0, 1, 0, 7, 0, 0]\nclass = Glaube & Ethik", fillcolor="#5639e5db"] ;
510 -> 512 ;
513 [label="WordsPerSentence <= 15.6\ngini = 0.44\nsamples = 2\nvalue = [0, 0, 0, 1, 0, 2, 0, 0]\nclass = Glaube & Ethik", fillcolor="#5639e57f"] ;
512 -> 513 ;
514 [label="gini = 0.0\nsamples = 1\nvalue = [0, 0, 0, 1, 0, 0, 0, 0]\nclass = Sachbuch", fillcolor="#39e5acff"] ;
513 -> 514 ;
515 [label="gini = 0.0\nsamples = 1\nvalue = [0, 0, 0, 0, 0, 2, 0, 0]\nclass = Glaube & Ethik", fillcolor="#5639e5ff"] ;
513 -> 515 ;
516 [label="gini = 0.0\nsamples = 2\nvalue = [0, 0, 0, 0, 0, 5, 0, 0]\nclass = Glaube & Ethik", fillcolor="#5639e5ff"] ;
512 -> 516 ;
517 [label="WordsPerSentence <= 15.12\ngini = 0.57\nsamples = 6\nvalue = [0, 0, 0, 3, 0, 5, 0, 1]\nclass = Glaube & Ethik", fillcolor="#5639e555"] ;
509 -> 517 ;
518 [label="gini = 0.0\nsamples = 1\nvalue = [0, 0, 0, 0, 0, 0, 0, 1]\nclass = Architektur & Garten", fillcolor="#e53972ff"] ;
517 -> 518 ;
519 [label="PercentageVerbs <= 0.14\ngini = 0.47\nsamples = 5\nvalue = [0, 0, 0, 3, 0, 5, 0, 0]\nclass = Glaube & Ethik", fillcolor="#5639e566"] ;
517 -> 519 ;
520 [label="PercentageAdjectives <= 0.07\ngini = 0.38\nsamples = 3\nvalue = [0, 0, 0, 3, 0, 1, 0, 0]\nclass = Sachbuch", fillcolor="#39e5acaa"] ;
519 -> 520 ;
521 [label="gini = 0.0\nsamples = 1\nvalue = [0, 0, 0, 0, 0, 1, 0, 0]\nclass = Glaube & Ethik", fillcolor="#5639e5ff"] ;
520 -> 521 ;
522 [label="gini = 0.0\nsamples = 2\nvalue = [0, 0, 0, 3, 0, 0, 0, 0]\nclass = Sachbuch", fillcolor="#39e5acff"] ;
520 -> 522 ;
523 [label="gini = 0.0\nsamples = 2\nvalue = [0, 0, 0, 0, 0, 4, 0, 0]\nclass = Glaube & Ethik", fillcolor="#5639e5ff"] ;
519 -> 523 ;
524 [label="GenreRateR <= 1.33\ngini = 0.44\nsamples = 2\nvalue = [0, 0, 0, 0, 0, 2, 1, 0]\nclass = Glaube & Ethik", fillcolor="#5639e57f"] ;
508 -> 524 ;
525 [label="gini = 0.0\nsamples = 1\nvalue = [0, 0, 0, 0, 0, 0, 1, 0]\nclass = Künste", fillcolor="#d739e5ff"] ;
524 -> 525 ;
526 [label="gini = 0.0\nsamples = 1\nvalue = [0, 0, 0, 0, 0, 2, 0, 0]\nclass = Glaube & Ethik", fillcolor="#5639e5ff"] ;
524 -> 526 ;
527 [label="PercentageVerbs <= 0.17\ngini = 0.6\nsamples = 8\nvalue = [0, 0, 1, 0, 0, 8, 5, 1]\nclass = Glaube & Ethik", fillcolor="#5639e54c"] ;
507 -> 527 ;
528 [label="gini = 0.0\nsamples = 2\nvalue = [0, 0, 0, 0, 0, 0, 4, 0]\nclass = Künste", fillcolor="#d739e5ff"] ;
527 -> 528 ;
529 [label="NumberCommas <= 2.5\ngini = 0.45\nsamples = 6\nvalue = [0, 0, 1, 0, 0, 8, 1, 1]\nclass = Glaube & Ethik", fillcolor="#5639e5b3"] ;
527 -> 529 ;
530 [label="gini = 0.0\nsamples = 1\nvalue = [0, 0, 1, 0, 0, 0, 0, 0]\nclass = Kinderbuch & Jugendbuch", fillcolor="#47e539ff"] ;
529 -> 530 ;
531 [label="PercentageAdjectives <= 0.07\ngini = 0.34\nsamples = 5\nvalue = [0, 0, 0, 0, 0, 8, 1, 1]\nclass = Glaube & Ethik", fillcolor="#5639e5c6"] ;
529 -> 531 ;
532 [label="WordsPerSentence <= 14.9\ngini = 0.41\nsamples = 4\nvalue = [0, 0, 0, 0, 0, 6, 1, 1]\nclass = Glaube & Ethik", fillcolor="#5639e5b6"] ;
531 -> 532 ;
533 [label="gini = 0.0\nsamples = 1\nvalue = [0, 0, 0, 0, 0, 4, 0, 0]\nclass = Glaube & Ethik", fillcolor="#5639e5ff"] ;
532 -> 533 ;
534 [label="NumberCommas <= 4.0\ngini = 0.62\nsamples = 3\nvalue = [0, 0, 0, 0, 0, 2, 1, 1]\nclass = Glaube & Ethik", fillcolor="#5639e555"] ;
532 -> 534 ;
535 [label="gini = 0.0\nsamples = 1\nvalue = [0, 0, 0, 0, 0, 2, 0, 0]\nclass = Glaube & Ethik", fillcolor="#5639e5ff"] ;
534 -> 535 ;
536 [label="gini = 0.5\nsamples = 2\nvalue = [0, 0, 0, 0, 0, 0, 1, 1]\nclass = Künste", fillcolor="#d739e500"] ;
534 -> 536 ;
537 [label="gini = 0.0\nsamples = 1\nvalue = [0, 0, 0, 0, 0, 2, 0, 0]\nclass = Glaube & Ethik", fillcolor="#5639e5ff"] ;
531 -> 537 ;
538 [label="PercentageVerbs <= 0.11\ngini = 0.72\nsamples = 4\nvalue = [0, 1, 0, 1, 0, 1, 2, 0]\nclass = Künste", fillcolor="#d739e540"] ;
504 -> 538 ;
539 [label="gini = 0.0\nsamples = 1\nvalue = [0, 0, 0, 0, 0, 1, 0, 0]\nclass = Glaube & Ethik", fillcolor="#5639e5ff"] ;
538 -> 539 ;
540 [label="NumberSentences <= 6.0\ngini = 0.62\nsamples = 3\nvalue = [0, 1, 0, 1, 0, 0, 2, 0]\nclass = Künste", fillcolor="#d739e555"] ;
538 -> 540 ;
541 [label="gini = 0.0\nsamples = 1\nvalue = [0, 0, 0, 1, 0, 0, 0, 0]\nclass = Sachbuch", fillcolor="#39e5acff"] ;
540 -> 541 ;
542 [label="gini = 0.44\nsamples = 2\nvalue = [0, 1, 0, 0, 0, 0, 2, 0]\nclass = Künste", fillcolor="#d739e57f"] ;
540 -> 542 ;
543 [label="gini = 0.0\nsamples = 2\nvalue = [0, 0, 0, 0, 0, 5, 0, 0]\nclass = Glaube & Ethik", fillcolor="#5639e5ff"] ;
501 -> 543 ;
544 [label="NumberSymbols; <= 0.5\ngini = 0.31\nsamples = 69\nvalue = [0, 9, 1, 5, 0, 90, 1, 3]\nclass = Glaube & Ethik", fillcolor="#5639e5cf"] ;
500 -> 544 ;
545 [label="GenreRateR <= 1.37\ngini = 0.31\nsamples = 68\nvalue = [0, 9, 1, 5, 0, 89, 1, 3]\nclass = Glaube & Ethik", fillcolor="#5639e5ce"] ;
544 -> 545 ;
546 [label="NumberCommas <= 2.5\ngini = 0.41\nsamples = 45\nvalue = [0, 6, 1, 5, 0, 49, 1, 3]\nclass = Glaube & Ethik", fillcolor="#5639e5ba"] ;
545 -> 546 ;
547 [label="gini = 0.0\nsamples = 4\nvalue = [0, 0, 0, 0, 0, 7, 0, 0]\nclass = Glaube & Ethik", fillcolor="#5639e5ff"] ;
546 -> 547 ;
548 [label="NumberCommas <= 3.5\ngini = 0.45\nsamples = 41\nvalue = [0, 6, 1, 5, 0, 42, 1, 3]\nclass = Glaube & Ethik", fillcolor="#5639e5b1"] ;
546 -> 548 ;
549 [label="PercentageAdjectives <= 0.08\ngini = 0.61\nsamples = 4\nvalue = [0, 2, 0, 1, 0, 3, 0, 0]\nclass = Glaube & Ethik", fillcolor="#5639e540"] ;
548 -> 549 ;
550 [label="GenreRateR <= 0.5\ngini = 0.38\nsamples = 3\nvalue = [0, 0, 0, 1, 0, 3, 0, 0]\nclass = Glaube & Ethik", fillcolor="#5639e5aa"] ;
549 -> 550 ;
551 [label="gini = 0.0\nsamples = 1\nvalue = [0, 0, 0, 0, 0, 2, 0, 0]\nclass = Glaube & Ethik", fillcolor="#5639e5ff"] ;
550 -> 551 ;
552 [label="WordsPerSentence <= 19.15\ngini = 0.5\nsamples = 2\nvalue = [0, 0, 0, 1, 0, 1, 0, 0]\nclass = Sachbuch", fillcolor="#39e5ac00"] ;
550 -> 552 ;
553 [label="gini = 0.0\nsamples = 1\nvalue = [0, 0, 0, 1, 0, 0, 0, 0]\nclass = Sachbuch", fillcolor="#39e5acff"] ;
552 -> 553 ;
554 [label="gini = 0.0\nsamples = 1\nvalue = [0, 0, 0, 0, 0, 1, 0, 0]\nclass = Glaube & Ethik", fillcolor="#5639e5ff"] ;
552 -> 554 ;
555 [label="gini = 0.0\nsamples = 1\nvalue = [0, 2, 0, 0, 0, 0, 0, 0]\nclass = Ratgeber", fillcolor="#c8e539ff"] ;
549 -> 555 ;
556 [label="WordsPerSentence <= 19.29\ngini = 0.42\nsamples = 37\nvalue = [0, 4, 1, 4, 0, 39, 1, 3]\nclass = Glaube & Ethik", fillcolor="#5639e5ba"] ;
548 -> 556 ;
557 [label="PercentageVerbs <= 0.1\ngini = 0.38\nsamples = 27\nvalue = [0, 4, 0, 1, 0, 28, 1, 2]\nclass = Glaube & Ethik", fillcolor="#5639e5bf"] ;
556 -> 557 ;
558 [label="PercentageNouns <= 0.36\ngini = 0.49\nsamples = 5\nvalue = [0, 3, 0, 0, 0, 4, 0, 0]\nclass = Glaube & Ethik", fillcolor="#5639e540"] ;
557 -> 558 ;
559 [label="gini = 0.0\nsamples = 2\nvalue = [0, 0, 0, 0, 0, 3, 0, 0]\nclass = Glaube & Ethik", fillcolor="#5639e5ff"] ;
558 -> 559 ;
560 [label="PercentageNouns <= 0.4\ngini = 0.38\nsamples = 3\nvalue = [0, 3, 0, 0, 0, 1, 0, 0]\nclass = Ratgeber", fillcolor="#c8e539aa"] ;
558 -> 560 ;
561 [label="gini = 0.0\nsamples = 2\nvalue = [0, 3, 0, 0, 0, 0, 0, 0]\nclass = Ratgeber", fillcolor="#c8e539ff"] ;
560 -> 561 ;
562 [label="gini = 0.0\nsamples = 1\nvalue = [0, 0, 0, 0, 0, 1, 0, 0]\nclass = Glaube & Ethik", fillcolor="#5639e5ff"] ;
560 -> 562 ;
563 [label="NumberCommas <= 8.5\ngini = 0.31\nsamples = 22\nvalue = [0, 1, 0, 1, 0, 24, 1, 2]\nclass = Glaube & Ethik", fillcolor="#5639e5d0"] ;
557 -> 563 ;
564 [label="PercentageAdjectives <= 0.08\ngini = 0.17\nsamples = 15\nvalue = [0, 0, 0, 0, 0, 19, 0, 2]\nclass = Glaube & Ethik", fillcolor="#5639e5e4"] ;
563 -> 564 ;
565 [label="gini = 0.0\nsamples = 10\nvalue = [0, 0, 0, 0, 0, 15, 0, 0]\nclass = Glaube & Ethik", fillcolor="#5639e5ff"] ;
564 -> 565 ;
566 [label="GenreRateR <= 1.28\ngini = 0.44\nsamples = 5\nvalue = [0, 0, 0, 0, 0, 4, 0, 2]\nclass = Glaube & Ethik", fillcolor="#5639e57f"] ;
564 -> 566 ;
567 [label="PercentageVerbs <= 0.11\ngini = 0.5\nsamples = 4\nvalue = [0, 0, 0, 0, 0, 2, 0, 2]\nclass = Glaube & Ethik", fillcolor="#5639e500"] ;
566 -> 567 ;
568 [label="gini = 0.0\nsamples = 1\nvalue = [0, 0, 0, 0, 0, 1, 0, 0]\nclass = Glaube & Ethik", fillcolor="#5639e5ff"] ;
567 -> 568 ;
569 [label="PercentageVerbs <= 0.14\ngini = 0.44\nsamples = 3\nvalue = [0, 0, 0, 0, 0, 1, 0, 2]\nclass = Architektur & Garten", fillcolor="#e539727f"] ;
567 -> 569 ;
570 [label="gini = 0.0\nsamples = 2\nvalue = [0, 0, 0, 0, 0, 0, 0, 2]\nclass = Architektur & Garten", fillcolor="#e53972ff"] ;
569 -> 570 ;
571 [label="gini = 0.0\nsamples = 1\nvalue = [0, 0, 0, 0, 0, 1, 0, 0]\nclass = Glaube & Ethik", fillcolor="#5639e5ff"] ;
569 -> 571 ;
572 [label="gini = 0.0\nsamples = 1\nvalue = [0, 0, 0, 0, 0, 2, 0, 0]\nclass = Glaube & Ethik", fillcolor="#5639e5ff"] ;
566 -> 572 ;
573 [label="NumberSentences <= 4.5\ngini = 0.56\nsamples = 7\nvalue = [0, 1, 0, 1, 0, 5, 1, 0]\nclass = Glaube & Ethik", fillcolor="#5639e592"] ;
563 -> 573 ;
574 [label="gini = 0.0\nsamples = 1\nvalue = [0, 0, 0, 0, 0, 2, 0, 0]\nclass = Glaube & Ethik", fillcolor="#5639e5ff"] ;
573 -> 574 ;
575 [label="PercentageNouns <= 0.26\ngini = 0.67\nsamples = 6\nvalue = [0, 1, 0, 1, 0, 3, 1, 0]\nclass = Glaube & Ethik", fillcolor="#5639e566"] ;
573 -> 575 ;
576 [label="gini = 0.0\nsamples = 1\nvalue = [0, 0, 0, 0, 0, 0, 1, 0]\nclass = Künste", fillcolor="#d739e5ff"] ;
575 -> 576 ;
577 [label="NumberSentences <= 5.5\ngini = 0.56\nsamples = 5\nvalue = [0, 1, 0, 1, 0, 3, 0, 0]\nclass = Glaube & Ethik", fillcolor="#5639e57f"] ;
575 -> 577 ;
578 [label="GenreRateR <= 1.12\ngini = 0.5\nsamples = 2\nvalue = [0, 0, 0, 1, 0, 1, 0, 0]\nclass = Sachbuch", fillcolor="#39e5ac00"] ;
577 -> 578 ;
579 [label="gini = 0.0\nsamples = 1\nvalue = [0, 0, 0, 0, 0, 1, 0, 0]\nclass = Glaube & Ethik", fillcolor="#5639e5ff"] ;
578 -> 579 ;
580 [label="gini = 0.0\nsamples = 1\nvalue = [0, 0, 0, 1, 0, 0, 0, 0]\nclass = Sachbuch", fillcolor="#39e5acff"] ;
578 -> 580 ;
581 [label="NumberCommas <= 9.5\ngini = 0.44\nsamples = 3\nvalue = [0, 1, 0, 0, 0, 2, 0, 0]\nclass = Glaube & Ethik", fillcolor="#5639e57f"] ;
577 -> 581 ;
582 [label="PercentageNouns <= 0.32\ngini = 0.5\nsamples = 2\nvalue = [0, 1, 0, 0, 0, 1, 0, 0]\nclass = Ratgeber", fillcolor="#c8e53900"] ;
581 -> 582 ;
583 [label="gini = 0.0\nsamples = 1\nvalue = [0, 0, 0, 0, 0, 1, 0, 0]\nclass = Glaube & Ethik", fillcolor="#5639e5ff"] ;
582 -> 583 ;
584 [label="gini = 0.0\nsamples = 1\nvalue = [0, 1, 0, 0, 0, 0, 0, 0]\nclass = Ratgeber", fillcolor="#c8e539ff"] ;
582 -> 584 ;
585 [label="gini = 0.0\nsamples = 1\nvalue = [0, 0, 0, 0, 0, 1, 0, 0]\nclass = Glaube & Ethik", fillcolor="#5639e5ff"] ;
581 -> 585 ;
586 [label="GenreRateR <= 0.5\ngini = 0.48\nsamples = 10\nvalue = [0, 0, 1, 3, 0, 11, 0, 1]\nclass = Glaube & Ethik", fillcolor="#5639e59d"] ;
556 -> 586 ;
587 [label="PercentageVerbs <= 0.11\ngini = 0.44\nsamples = 5\nvalue = [0, 0, 0, 3, 0, 6, 0, 0]\nclass = Glaube & Ethik", fillcolor="#5639e57f"] ;
586 -> 587 ;
588 [label="gini = 0.0\nsamples = 4\nvalue = [0, 0, 0, 0, 0, 6, 0, 0]\nclass = Glaube & Ethik", fillcolor="#5639e5ff"] ;
587 -> 588 ;
589 [label="gini = 0.0\nsamples = 1\nvalue = [0, 0, 0, 3, 0, 0, 0, 0]\nclass = Sachbuch", fillcolor="#39e5acff"] ;
587 -> 589 ;
590 [label="PercentageVerbs <= 0.1\ngini = 0.45\nsamples = 5\nvalue = [0, 0, 1, 0, 0, 5, 0, 1]\nclass = Glaube & Ethik", fillcolor="#5639e5aa"] ;
586 -> 590 ;
591 [label="gini = 0.5\nsamples = 2\nvalue = [0, 0, 1, 0, 0, 0, 0, 1]\nclass = Kinderbuch & Jugendbuch", fillcolor="#47e53900"] ;
590 -> 591 ;
592 [label="gini = 0.0\nsamples = 3\nvalue = [0, 0, 0, 0, 0, 5, 0, 0]\nclass = Glaube & Ethik", fillcolor="#5639e5ff"] ;
590 -> 592 ;
593 [label="PercentageVerbs <= 0.14\ngini = 0.13\nsamples = 23\nvalue = [0, 3, 0, 0, 0, 40, 0, 0]\nclass = Glaube & Ethik", fillcolor="#5639e5ec"] ;
545 -> 593 ;
594 [label="gini = 0.0\nsamples = 18\nvalue = [0, 0, 0, 0, 0, 33, 0, 0]\nclass = Glaube & Ethik", fillcolor="#5639e5ff"] ;
593 -> 594 ;
595 [label="PercentageNouns <= 0.26\ngini = 0.42\nsamples = 5\nvalue = [0, 3, 0, 0, 0, 7, 0, 0]\nclass = Glaube & Ethik", fillcolor="#5639e592"] ;
593 -> 595 ;
596 [label="gini = 0.0\nsamples = 2\nvalue = [0, 0, 0, 0, 0, 4, 0, 0]\nclass = Glaube & Ethik", fillcolor="#5639e5ff"] ;
595 -> 596 ;
597 [label="NumberCommas <= 5.5\ngini = 0.5\nsamples = 3\nvalue = [0, 3, 0, 0, 0, 3, 0, 0]\nclass = Ratgeber", fillcolor="#c8e53900"] ;
595 -> 597 ;
598 [label="gini = 0.0\nsamples = 2\nvalue = [0, 0, 0, 0, 0, 3, 0, 0]\nclass = Glaube & Ethik", fillcolor="#5639e5ff"] ;
597 -> 598 ;
599 [label="gini = 0.0\nsamples = 1\nvalue = [0, 3, 0, 0, 0, 0, 0, 0]\nclass = Ratgeber", fillcolor="#c8e539ff"] ;
597 -> 599 ;
600 [label="gini = 0.0\nsamples = 1\nvalue = [0, 0, 0, 0, 0, 1, 0, 0]\nclass = Glaube & Ethik", fillcolor="#5639e5ff"] ;
544 -> 600 ;
601 [label="WordsPerSentence <= 18.25\ngini = 0.59\nsamples = 5\nvalue = [0, 0, 0, 1, 0, 4, 0, 3]\nclass = Glaube & Ethik", fillcolor="#5639e533"] ;
499 -> 601 ;
602 [label="gini = 0.0\nsamples = 3\nvalue = [0, 0, 0, 0, 0, 4, 0, 0]\nclass = Glaube & Ethik", fillcolor="#5639e5ff"] ;
601 -> 602 ;
603 [label="WordsPerSentence <= 19.5\ngini = 0.38\nsamples = 2\nvalue = [0, 0, 0, 1, 0, 0, 0, 3]\nclass = Architektur & Garten", fillcolor="#e53972aa"] ;
601 -> 603 ;
604 [label="gini = 0.0\nsamples = 1\nvalue = [0, 0, 0, 0, 0, 0, 0, 3]\nclass = Architektur & Garten", fillcolor="#e53972ff"] ;
603 -> 604 ;
605 [label="gini = 0.0\nsamples = 1\nvalue = [0, 0, 0, 1, 0, 0, 0, 0]\nclass = Sachbuch", fillcolor="#39e5acff"] ;
603 -> 605 ;
606 [label="PercentageNouns <= 0.23\ngini = 0.52\nsamples = 97\nvalue = [1, 6, 2, 21, 0, 101, 8, 11]\nclass = Glaube & Ethik", fillcolor="#5639e59e"] ;
498 -> 606 ;
607 [label="gini = 0.0\nsamples = 1\nvalue = [0, 0, 0, 4, 0, 0, 0, 0]\nclass = Sachbuch", fillcolor="#39e5acff"] ;
606 -> 607 ;
608 [label="NumberSymbols; <= 0.5\ngini = 0.5\nsamples = 96\nvalue = [1, 6, 2, 17, 0, 101, 8, 11]\nclass = Glaube & Ethik", fillcolor="#5639e5a6"] ;
606 -> 608 ;
609 [label="WordsPerSentence <= 15.71\ngini = 0.48\nsamples = 92\nvalue = [1, 6, 2, 17, 0, 99, 5, 10]\nclass = Glaube & Ethik", fillcolor="#5639e5aa"] ;
608 -> 609 ;
610 [label="GenreRateR <= 1.2\ngini = 0.12\nsamples = 13\nvalue = [0, 0, 0, 1, 0, 15, 0, 0]\nclass = Glaube & Ethik", fillcolor="#5639e5ee"] ;
609 -> 610 ;
611 [label="NumberSentences <= 4.5\ngini = 0.2\nsamples = 7\nvalue = [0, 0, 0, 1, 0, 8, 0, 0]\nclass = Glaube & Ethik", fillcolor="#5639e5df"] ;
610 -> 611 ;
612 [label="PercentageAdjectives <= 0.07\ngini = 0.5\nsamples = 2\nvalue = [0, 0, 0, 1, 0, 1, 0, 0]\nclass = Sachbuch", fillcolor="#39e5ac00"] ;
611 -> 612 ;
613 [label="gini = 0.0\nsamples = 1\nvalue = [0, 0, 0, 1, 0, 0, 0, 0]\nclass = Sachbuch", fillcolor="#39e5acff"] ;
612 -> 613 ;
614 [label="gini = 0.0\nsamples = 1\nvalue = [0, 0, 0, 0, 0, 1, 0, 0]\nclass = Glaube & Ethik", fillcolor="#5639e5ff"] ;
612 -> 614 ;
615 [label="gini = 0.0\nsamples = 5\nvalue = [0, 0, 0, 0, 0, 7, 0, 0]\nclass = Glaube & Ethik", fillcolor="#5639e5ff"] ;
611 -> 615 ;
616 [label="gini = 0.0\nsamples = 6\nvalue = [0, 0, 0, 0, 0, 7, 0, 0]\nclass = Glaube & Ethik", fillcolor="#5639e5ff"] ;
610 -> 616 ;
617 [label="WordsPerSentence <= 16.1\ngini = 0.51\nsamples = 79\nvalue = [1, 6, 2, 16, 0, 84, 5, 10]\nclass = Glaube & Ethik", fillcolor="#5639e5a1"] ;
609 -> 617 ;
618 [label="PercentageVerbs <= 0.14\ngini = 0.72\nsamples = 7\nvalue = [0, 2, 0, 4, 0, 3, 0, 5]\nclass = Architektur & Garten", fillcolor="#e539721a"] ;
617 -> 618 ;
619 [label="NumberCommas <= 5.5\ngini = 0.44\nsamples = 3\nvalue = [0, 0, 0, 4, 0, 2, 0, 0]\nclass = Sachbuch", fillcolor="#39e5ac7f"] ;
618 -> 619 ;
620 [label="gini = 0.0\nsamples = 2\nvalue = [0, 0, 0, 4, 0, 0, 0, 0]\nclass = Sachbuch", fillcolor="#39e5acff"] ;
619 -> 620 ;
621 [label="gini = 0.0\nsamples = 1\nvalue = [0, 0, 0, 0, 0, 2, 0, 0]\nclass = Glaube & Ethik", fillcolor="#5639e5ff"] ;
619 -> 621 ;
622 [label="NumberCommas <= 8.5\ngini = 0.53\nsamples = 4\nvalue = [0, 2, 0, 0, 0, 1, 0, 5]\nclass = Architektur & Garten", fillcolor="#e5397280"] ;
618 -> 622 ;
623 [label="NumberCommas <= 6.5\ngini = 0.41\nsamples = 3\nvalue = [0, 2, 0, 0, 0, 0, 0, 5]\nclass = Architektur & Garten", fillcolor="#e5397299"] ;
622 -> 623 ;
624 [label="PercentageNouns <= 0.32\ngini = 0.44\nsamples = 2\nvalue = [0, 2, 0, 0, 0, 0, 0, 1]\nclass = Ratgeber", fillcolor="#c8e5397f"] ;
623 -> 624 ;
625 [label="gini = 0.0\nsamples = 1\nvalue = [0, 2, 0, 0, 0, 0, 0, 0]\nclass = Ratgeber", fillcolor="#c8e539ff"] ;
624 -> 625 ;
626 [label="gini = 0.0\nsamples = 1\nvalue = [0, 0, 0, 0, 0, 0, 0, 1]\nclass = Architektur & Garten", fillcolor="#e53972ff"] ;
624 -> 626 ;
627 [label="gini = 0.0\nsamples = 1\nvalue = [0, 0, 0, 0, 0, 0, 0, 4]\nclass = Architektur & Garten", fillcolor="#e53972ff"] ;
623 -> 627 ;
628 [label="gini = 0.0\nsamples = 1\nvalue = [0, 0, 0, 0, 0, 1, 0, 0]\nclass = Glaube & Ethik", fillcolor="#5639e5ff"] ;
622 -> 628 ;
629 [label="PercentageNouns <= 0.33\ngini = 0.44\nsamples = 72\nvalue = [1, 4, 2, 12, 0, 81, 5, 5]\nclass = Glaube & Ethik", fillcolor="#5639e5b4"] ;
617 -> 629 ;
630 [label="GenreRateR <= 1.46\ngini = 0.56\nsamples = 40\nvalue = [1, 3, 2, 10, 0, 36, 3, 2]\nclass = Glaube & Ethik", fillcolor="#5639e58d"] ;
629 -> 630 ;
631 [label="NumberSentences <= 4.5\ngini = 0.37\nsamples = 23\nvalue = [1, 0, 0, 4, 0, 25, 2, 0]\nclass = Glaube & Ethik", fillcolor="#5639e5bf"] ;
630 -> 631 ;
632 [label="NumberCommas <= 5.5\ngini = 0.61\nsamples = 5\nvalue = [1, 0, 0, 3, 0, 2, 0, 0]\nclass = Sachbuch", fillcolor="#39e5ac40"] ;
631 -> 632 ;
633 [label="PercentageAdjectives <= 0.07\ngini = 0.5\nsamples = 2\nvalue = [1, 0, 0, 0, 0, 1, 0, 0]\nclass = Literatur & Unterhaltung", fillcolor="#e5813900"] ;
632 -> 633 ;
634 [label="gini = 0.0\nsamples = 1\nvalue = [1, 0, 0, 0, 0, 0, 0, 0]\nclass = Literatur & Unterhaltung", fillcolor="#e58139ff"] ;
633 -> 634 ;
635 [label="gini = 0.0\nsamples = 1\nvalue = [0, 0, 0, 0, 0, 1, 0, 0]\nclass = Glaube & Ethik", fillcolor="#5639e5ff"] ;
633 -> 635 ;
636 [label="PercentageNouns <= 0.28\ngini = 0.38\nsamples = 3\nvalue = [0, 0, 0, 3, 0, 1, 0, 0]\nclass = Sachbuch", fillcolor="#39e5acaa"] ;
632 -> 636 ;
637 [label="gini = 0.0\nsamples = 1\nvalue = [0, 0, 0, 0, 0, 1, 0, 0]\nclass = Glaube & Ethik", fillcolor="#5639e5ff"] ;
636 -> 637 ;
638 [label="gini = 0.0\nsamples = 2\nvalue = [0, 0, 0, 3, 0, 0, 0, 0]\nclass = Sachbuch", fillcolor="#39e5acff"] ;
636 -> 638 ;
639 [label="WordsPerSentence <= 16.92\ngini = 0.21\nsamples = 18\nvalue = [0, 0, 0, 1, 0, 23, 2, 0]\nclass = Glaube & Ethik", fillcolor="#5639e5df"] ;
631 -> 639 ;
640 [label="GenreRateR <= 0.5\ngini = 0.62\nsamples = 4\nvalue = [0, 0, 0, 1, 0, 2, 1, 0]\nclass = Glaube & Ethik", fillcolor="#5639e555"] ;
639 -> 640 ;
641 [label="gini = 0.0\nsamples = 1\nvalue = [0, 0, 0, 0, 0, 1, 0, 0]\nclass = Glaube & Ethik", fillcolor="#5639e5ff"] ;
640 -> 641 ;
642 [label="PercentageAdjectives <= 0.06\ngini = 0.67\nsamples = 3\nvalue = [0, 0, 0, 1, 0, 1, 1, 0]\nclass = Sachbuch", fillcolor="#39e5ac00"] ;
640 -> 642 ;
643 [label="gini = 0.0\nsamples = 1\nvalue = [0, 0, 0, 0, 0, 0, 1, 0]\nclass = Künste", fillcolor="#d739e5ff"] ;
642 -> 643 ;
644 [label="NumberSentences <= 5.5\ngini = 0.5\nsamples = 2\nvalue = [0, 0, 0, 1, 0, 1, 0, 0]\nclass = Sachbuch", fillcolor="#39e5ac00"] ;
642 -> 644 ;
645 [label="gini = 0.0\nsamples = 1\nvalue = [0, 0, 0, 0, 0, 1, 0, 0]\nclass = Glaube & Ethik", fillcolor="#5639e5ff"] ;
644 -> 645 ;
646 [label="gini = 0.0\nsamples = 1\nvalue = [0, 0, 0, 1, 0, 0, 0, 0]\nclass = Sachbuch", fillcolor="#39e5acff"] ;
644 -> 646 ;
647 [label="PercentageNouns <= 0.31\ngini = 0.09\nsamples = 14\nvalue = [0, 0, 0, 0, 0, 21, 1, 0]\nclass = Glaube & Ethik", fillcolor="#5639e5f3"] ;
639 -> 647 ;
648 [label="gini = 0.0\nsamples = 12\nvalue = [0, 0, 0, 0, 0, 19, 0, 0]\nclass = Glaube & Ethik", fillcolor="#5639e5ff"] ;
647 -> 648 ;
649 [label="NumberCommas <= 5.5\ngini = 0.44\nsamples = 2\nvalue = [0, 0, 0, 0, 0, 2, 1, 0]\nclass = Glaube & Ethik", fillcolor="#5639e57f"] ;
647 -> 649 ;
650 [label="gini = 0.0\nsamples = 1\nvalue = [0, 0, 0, 0, 0, 2, 0, 0]\nclass = Glaube & Ethik", fillcolor="#5639e5ff"] ;
649 -> 650 ;
651 [label="gini = 0.0\nsamples = 1\nvalue = [0, 0, 0, 0, 0, 0, 1, 0]\nclass = Künste", fillcolor="#d739e5ff"] ;
649 -> 651 ;
652 [label="NumberCommas <= 11.0\ngini = 0.72\nsamples = 17\nvalue = [0, 3, 2, 6, 0, 11, 1, 2]\nclass = Glaube & Ethik", fillcolor="#5639e543"] ;
630 -> 652 ;
653 [label="NumberCommas <= 5.5\ngini = 0.68\nsamples = 16\nvalue = [0, 1, 2, 6, 0, 11, 1, 2]\nclass = Glaube & Ethik", fillcolor="#5639e54b"] ;
652 -> 653 ;
654 [label="NumberCommas <= 3.5\ngini = 0.46\nsamples = 6\nvalue = [0, 0, 2, 1, 0, 7, 0, 0]\nclass = Glaube & Ethik", fillcolor="#5639e59f"] ;
653 -> 654 ;
655 [label="PercentageNouns <= 0.29\ngini = 0.38\nsamples = 3\nvalue = [0, 0, 0, 1, 0, 3, 0, 0]\nclass = Glaube & Ethik", fillcolor="#5639e5aa"] ;
654 -> 655 ;
656 [label="gini = 0.0\nsamples = 1\nvalue = [0, 0, 0, 0, 0, 2, 0, 0]\nclass = Glaube & Ethik", fillcolor="#5639e5ff"] ;
655 -> 656 ;
657 [label="WordsPerSentence <= 17.79\ngini = 0.5\nsamples = 2\nvalue = [0, 0, 0, 1, 0, 1, 0, 0]\nclass = Sachbuch", fillcolor="#39e5ac00"] ;
655 -> 657 ;
658 [label="gini = 0.0\nsamples = 1\nvalue = [0, 0, 0, 1, 0, 0, 0, 0]\nclass = Sachbuch", fillcolor="#39e5acff"] ;
657 -> 658 ;
659 [label="gini = 0.0\nsamples = 1\nvalue = [0, 0, 0, 0, 0, 1, 0, 0]\nclass = Glaube & Ethik", fillcolor="#5639e5ff"] ;
657 -> 659 ;
660 [label="WordsPerSentence <= 16.93\ngini = 0.44\nsamples = 3\nvalue = [0, 0, 2, 0, 0, 4, 0, 0]\nclass = Glaube & Ethik", fillcolor="#5639e57f"] ;
654 -> 660 ;
661 [label="gini = 0.0\nsamples = 1\nvalue = [0, 0, 0, 0, 0, 2, 0, 0]\nclass = Glaube & Ethik", fillcolor="#5639e5ff"] ;
660 -> 661 ;
662 [label="PercentageNouns <= 0.27\ngini = 0.5\nsamples = 2\nvalue = [0, 0, 2, 0, 0, 2, 0, 0]\nclass = Kinderbuch & Jugendbuch", fillcolor="#47e53900"] ;
660 -> 662 ;
663 [label="gini = 0.0\nsamples = 1\nvalue = [0, 0, 0, 0, 0, 2, 0, 0]\nclass = Glaube & Ethik", fillcolor="#5639e5ff"] ;
662 -> 663 ;
664 [label="gini = 0.0\nsamples = 1\nvalue = [0, 0, 2, 0, 0, 0, 0, 0]\nclass = Kinderbuch & Jugendbuch", fillcolor="#47e539ff"] ;
662 -> 664 ;
665 [label="PercentageVerbs <= 0.08\ngini = 0.72\nsamples = 10\nvalue = [0, 1, 0, 5, 0, 4, 1, 2]\nclass = Sachbuch", fillcolor="#39e5ac1c"] ;
653 -> 665 ;
666 [label="gini = 0.0\nsamples = 1\nvalue = [0, 0, 0, 0, 0, 2, 0, 0]\nclass = Glaube & Ethik", fillcolor="#5639e5ff"] ;
665 -> 666 ;
667 [label="GenreRateR <= 1.54\ngini = 0.71\nsamples = 9\nvalue = [0, 1, 0, 5, 0, 2, 1, 2]\nclass = Sachbuch", fillcolor="#39e5ac55"] ;
665 -> 667 ;
668 [label="WordsPerSentence <= 17.5\ngini = 0.48\nsamples = 4\nvalue = [0, 0, 0, 3, 0, 2, 0, 0]\nclass = Sachbuch", fillcolor="#39e5ac55"] ;
667 -> 668 ;
669 [label="gini = 0.0\nsamples = 1\nvalue = [0, 0, 0, 0, 0, 1, 0, 0]\nclass = Glaube & Ethik", fillcolor="#5639e5ff"] ;
668 -> 669 ;
670 [label="PercentageNouns <= 0.31\ngini = 0.38\nsamples = 3\nvalue = [0, 0, 0, 3, 0, 1, 0, 0]\nclass = Sachbuch", fillcolor="#39e5acaa"] ;
668 -> 670 ;
671 [label="gini = 0.0\nsamples = 2\nvalue = [0, 0, 0, 3, 0, 0, 0, 0]\nclass = Sachbuch", fillcolor="#39e5acff"] ;
670 -> 671 ;
672 [label="gini = 0.0\nsamples = 1\nvalue = [0, 0, 0, 0, 0, 1, 0, 0]\nclass = Glaube & Ethik", fillcolor="#5639e5ff"] ;
670 -> 672 ;
673 [label="NumberSentences <= 5.5\ngini = 0.72\nsamples = 5\nvalue = [0, 1, 0, 2, 0, 0, 1, 2]\nclass = Sachbuch", fillcolor="#39e5ac00"] ;
667 -> 673 ;
674 [label="PercentageNouns <= 0.29\ngini = 0.44\nsamples = 2\nvalue = [0, 1, 0, 2, 0, 0, 0, 0]\nclass = Sachbuch", fillcolor="#39e5ac7f"] ;
673 -> 674 ;
675 [label="gini = 0.0\nsamples = 1\nvalue = [0, 0, 0, 2, 0, 0, 0, 0]\nclass = Sachbuch", fillcolor="#39e5acff"] ;
674 -> 675 ;
676 [label="gini = 0.0\nsamples = 1\nvalue = [0, 1, 0, 0, 0, 0, 0, 0]\nclass = Ratgeber", fillcolor="#c8e539ff"] ;
674 -> 676 ;
677 [label="GenreRateR <= 1.65\ngini = 0.44\nsamples = 3\nvalue = [0, 0, 0, 0, 0, 0, 1, 2]\nclass = Architektur & Garten", fillcolor="#e539727f"] ;
673 -> 677 ;
678 [label="gini = 0.0\nsamples = 2\nvalue = [0, 0, 0, 0, 0, 0, 0, 2]\nclass = Architektur & Garten", fillcolor="#e53972ff"] ;
677 -> 678 ;
679 [label="gini = 0.0\nsamples = 1\nvalue = [0, 0, 0, 0, 0, 0, 1, 0]\nclass = Künste", fillcolor="#d739e5ff"] ;
677 -> 679 ;
680 [label="gini = 0.0\nsamples = 1\nvalue = [0, 2, 0, 0, 0, 0, 0, 0]\nclass = Ratgeber", fillcolor="#c8e539ff"] ;
652 -> 680 ;
681 [label="NumberSentences <= 6.5\ngini = 0.27\nsamples = 32\nvalue = [0, 1, 0, 2, 0, 45, 2, 3]\nclass = Glaube & Ethik", fillcolor="#5639e5d6"] ;
