digraph Tree {
node [shape=box, style="filled, rounded", color="black", fontname=helvetica] ;
edge [fontname=helvetica] ;
0 [label="gini = 0.87\nsamples = 419\nvalue = [87, 91, 82, 83, 70, 73, 79, 75]\nclass = Ratgeber", fillcolor="#c8e53902"] ;
}