digraph Tree {
node [shape=box, style="filled, rounded", color="black", fontname=helvetica] ;
edge [fontname=helvetica] ;
0 [label="GenreRateGB <= 0.38\ngini = 0.68\nsamples = 6279\nvalue = [85, 491, 351, 1300, 87, 5230, 1105, 1351]\nclass = Glaube & Ethik", fillcolor="#5639e572"] ;
1 [label="GenreRateKJ <= 0.46\ngini = 0.63\nsamples = 3708\nvalue = [69, 54, 227, 931, 77, 3342, 523, 663]\nclass = Glaube & Ethik", fillcolor="#5639e57c"] ;
0 -> 1 [labeldistance=2.5, labelangle=45, headlabel="True"] ;
2 [label="GenreRateR <= 0.53\ngini = 0.79\nsamples = 891\nvalue = [54, 48, 171, 25, 52, 452, 313, 297]\nclass = Glaube & Ethik", fillcolor="#5639e520"] ;
1 -> 2 ;
3 [label="GenreRateS <= 0.82\ngini = 0.73\nsamples = 658\nvalue = [39, 34, 145, 24, 46, 439, 48, 268]\nclass = Glaube & Ethik", fillcolor="#5639e538"] ;
2 -> 3 ;
4 [label="GenreRateKJ <= 0.34\ngini = 0.71\nsamples = 527\nvalue = [34, 34, 117, 24, 43, 412, 48, 125]\nclass = Glaube & Ethik", fillcolor="#5639e567"] ;
3 -> 4 ;
5 [label="GenreRateLU <= 1.48\ngini = 0.81\nsamples = 264\nvalue = [19, 27, 85, 8, 40, 129, 41, 79]\nclass = Glaube & Ethik", fillcolor="#5639e521"] ;
4 -> 5 ;
6 [label="GenreRateK <= 0.1\ngini = 0.83\nsamples = 188\nvalue = [19, 27, 81, 8, 39, 32, 40, 67]\nclass = Kinderbuch & Jugendbuch", fillcolor="#47e5390f"] ;
5 -> 6 ;
7 [label="GenreRateS <= 0.55\ngini = 0.8\nsamples = 165\nvalue = [15, 27, 80, 8, 0, 30, 40, 67]\nclass = Kinderbuch & Jugendbuch", fillcolor="#47e53911"] ;
6 -> 7 ;
8 [label="GenreRateGE <= 0.17\ngini = 0.8\nsamples = 111\nvalue = [14, 26, 58, 7, 0, 25, 34, 13]\nclass = Kinderbuch & Jugendbuch", fillcolor="#47e5392b"] ;
7 -> 8 ;
9 [label="GenreRateGB <= 0.21\ngini = 0.81\nsamples = 75\nvalue = [13, 26, 4, 7, 0, 22, 34, 13]\nclass = Künste", fillcolor="#d739e516"] ;
8 -> 9 ;
10 [label="WordsPerSentence <= 41.0\ngini = 0.76\nsamples = 53\nvalue = [13, 0, 1, 6, 0, 22, 30, 13]\nclass = Künste", fillcolor="#d739e520"] ;
9 -> 10 ;
11 [label="GenreRateAG <= 0.1\ngini = 0.74\nsamples = 51\nvalue = [13, 0, 1, 6, 0, 22, 30, 8]\nclass = Künste", fillcolor="#d739e523"] ;
10 -> 11 ;
12 [label="NumberCommas <= 7.5\ngini = 0.67\nsamples = 45\nvalue = [0, 0, 1, 6, 0, 22, 30, 8]\nclass = Künste", fillcolor="#d739e52d"] ;
11 -> 12 ;
13 [label="GenreRateS <= 0.44\ngini = 0.63\nsamples = 38\nvalue = [0, 0, 1, 4, 0, 14, 30, 7]\nclass = Künste", fillcolor="#d739e561"] ;
12 -> 13 ;
14 [label="GenreRateR <= 0.21\ngini = 0.37\nsamples = 24\nvalue = [0, 0, 1, 2, 0, 5, 28, 0]\nclass = Künste", fillcolor="#d739e5bd"] ;
13 -> 14 ;
15 [label="PercentageVerbs <= 0.08\ngini = 0.53\nsamples = 8\nvalue = [0, 0, 1, 2, 0, 5, 0, 0]\nclass = Glaube & Ethik", fillcolor="#5639e580"] ;
14 -> 15 ;
16 [label="gini = 0.0\nsamples = 4\nvalue = [0, 0, 0, 0, 0, 4, 0, 0]\nclass = Glaube & Ethik", fillcolor="#5639e5ff"] ;
15 -> 16 ;
17 [label="GenreRateGE <= 0.04\ngini = 0.62\nsamples = 4\nvalue = [0, 0, 1, 2, 0, 1, 0, 0]\nclass = Sachbuch", fillcolor="#39e5ac55"] ;
15 -> 17 ;
18 [label="gini = 0.0\nsamples = 2\nvalue = [0, 0, 0, 2, 0, 0, 0, 0]\nclass = Sachbuch", fillcolor="#39e5acff"] ;
17 -> 18 ;
19 [label="NumberSymbols: <= 0.5\ngini = 0.5\nsamples = 2\nvalue = [0, 0, 1, 0, 0, 1, 0, 0]\nclass = Kinderbuch & Jugendbuch", fillcolor="#47e53900"] ;
17 -> 19 ;
20 [label="gini = 0.0\nsamples = 1\nvalue = [0, 0, 0, 0, 0, 1, 0, 0]\nclass = Glaube & Ethik", fillcolor="#5639e5ff"] ;
19 -> 20 ;
21 [label="gini = 0.0\nsamples = 1\nvalue = [0, 0, 1, 0, 0, 0, 0, 0]\nclass = Kinderbuch & Jugendbuch", fillcolor="#47e539ff"] ;
19 -> 21 ;
22 [label="gini = 0.0\nsamples = 16\nvalue = [0, 0, 0, 0, 0, 0, 28, 0]\nclass = Künste", fillcolor="#d739e5ff"] ;
14 -> 22 ;
23 [label="GenreRateLU <= 1.31\ngini = 0.66\nsamples = 14\nvalue = [0, 0, 0, 2, 0, 9, 2, 7]\nclass = Glaube & Ethik", fillcolor="#5639e527"] ;
13 -> 23 ;
24 [label="PercentageAdjectives <= 0.11\ngini = 0.64\nsamples = 9\nvalue = [0, 0, 0, 2, 0, 2, 2, 7]\nclass = Architektur & Garten", fillcolor="#e5397274"] ;
23 -> 24 ;
25 [label="GenreRateK <= 0.06\ngini = 0.64\nsamples = 4\nvalue = [0, 0, 0, 2, 0, 1, 2, 0]\nclass = Sachbuch", fillcolor="#39e5ac00"] ;
24 -> 25 ;
26 [label="GenreRateAG <= 0.02\ngini = 0.44\nsamples = 3\nvalue = [0, 0, 0, 0, 0, 1, 2, 0]\nclass = Künste", fillcolor="#d739e57f"] ;
25 -> 26 ;
27 [label="gini = 0.0\nsamples = 1\nvalue = [0, 0, 0, 0, 0, 1, 0, 0]\nclass = Glaube & Ethik", fillcolor="#5639e5ff"] ;
26 -> 27 ;
28 [label="gini = 0.0\nsamples = 2\nvalue = [0, 0, 0, 0, 0, 0, 2, 0]\nclass = Künste", fillcolor="#d739e5ff"] ;
26 -> 28 ;
29 [label="gini = 0.0\nsamples = 1\nvalue = [0, 0, 0, 2, 0, 0, 0, 0]\nclass = Sachbuch", fillcolor="#39e5acff"] ;
25 -> 29 ;
30 [label="NumberSymbols- <= 2.0\ngini = 0.22\nsamples = 5\nvalue = [0, 0, 0, 0, 0, 1, 0, 7]\nclass = Architektur & Garten", fillcolor="#e53972db"] ;
24 -> 30 ;
31 [label="gini = 0.0\nsamples = 4\nvalue = [0, 0, 0, 0, 0, 0, 0, 7]\nclass = Architektur & Garten", fillcolor="#e53972ff"] ;
30 -> 31 ;
32 [label="gini = 0.0\nsamples = 1\nvalue = [0, 0, 0, 0, 0, 1, 0, 0]\nclass = Glaube & Ethik", fillcolor="#5639e5ff"] ;
30 -> 32 ;
33 [label="gini = 0.0\nsamples = 5\nvalue = [0, 0, 0, 0, 0, 7, 0, 0]\nclass = Glaube & Ethik", fillcolor="#5639e5ff"] ;
23 -> 33 ;
34 [label="GenreRateAG <= 0.03\ngini = 0.43\nsamples = 7\nvalue = [0, 0, 0, 2, 0, 8, 0, 1]\nclass = Glaube & Ethik", fillcolor="#5639e5aa"] ;
12 -> 34 ;
35 [label="gini = 0.0\nsamples = 5\nvalue = [0, 0, 0, 0, 0, 8, 0, 0]\nclass = Glaube & Ethik", fillcolor="#5639e5ff"] ;
34 -> 35 ;
36 [label="GenreRateLU <= 0.68\ngini = 0.44\nsamples = 2\nvalue = [0, 0, 0, 2, 0, 0, 0, 1]\nclass = Sachbuch", fillcolor="#39e5ac7f"] ;
34 -> 36 ;
37 [label="gini = 0.0\nsamples = 1\nvalue = [0, 0, 0, 2, 0, 0, 0, 0]\nclass = Sachbuch", fillcolor="#39e5acff"] ;
36 -> 37 ;
38 [label="gini = 0.0\nsamples = 1\nvalue = [0, 0, 0, 0, 0, 0, 0, 1]\nclass = Architektur & Garten", fillcolor="#e53972ff"] ;
36 -> 38 ;
39 [label="gini = 0.0\nsamples = 6\nvalue = [13, 0, 0, 0, 0, 0, 0, 0]\nclass = Literatur & Unterhaltung", fillcolor="#e58139ff"] ;
11 -> 39 ;
40 [label="gini = 0.0\nsamples = 2\nvalue = [0, 0, 0, 0, 0, 0, 0, 5]\nclass = Architektur & Garten", fillcolor="#e53972ff"] ;
10 -> 40 ;
41 [label="GenreRateR <= 0.38\ngini = 0.39\nsamples = 22\nvalue = [0, 26, 3, 1, 0, 0, 4, 0]\nclass = Ratgeber", fillcolor="#c8e539bb"] ;
9 -> 41 ;
42 [label="GenreRateKJ <= 0.33\ngini = 0.19\nsamples = 18\nvalue = [0, 26, 3, 0, 0, 0, 0, 0]\nclass = Ratgeber", fillcolor="#c8e539e2"] ;
41 -> 42 ;
43 [label="gini = 0.0\nsamples = 16\nvalue = [0, 26, 0, 0, 0, 0, 0, 0]\nclass = Ratgeber", fillcolor="#c8e539ff"] ;
42 -> 43 ;
44 [label="gini = 0.0\nsamples = 2\nvalue = [0, 0, 3, 0, 0, 0, 0, 0]\nclass = Kinderbuch & Jugendbuch", fillcolor="#47e539ff"] ;
42 -> 44 ;
45 [label="GenreRateGE <= 0.09\ngini = 0.32\nsamples = 4\nvalue = [0, 0, 0, 1, 0, 0, 4, 0]\nclass = Künste", fillcolor="#d739e5bf"] ;
41 -> 45 ;
46 [label="gini = 0.0\nsamples = 1\nvalue = [0, 0, 0, 1, 0, 0, 0, 0]\nclass = Sachbuch", fillcolor="#39e5acff"] ;
45 -> 46 ;
47 [label="gini = 0.0\nsamples = 3\nvalue = [0, 0, 0, 0, 0, 0, 4, 0]\nclass = Künste", fillcolor="#d739e5ff"] ;
45 -> 47 ;
48 [label="GenreRateR <= 0.48\ngini = 0.13\nsamples = 36\nvalue = [1, 0, 54, 0, 0, 3, 0, 0]\nclass = Kinderbuch & Jugendbuch", fillcolor="#47e539ec"] ;
8 -> 48 ;
49 [label="NumberSymbols; <= 0.5\ngini = 0.1\nsamples = 35\nvalue = [0, 0, 54, 0, 0, 3, 0, 0]\nclass = Kinderbuch & Jugendbuch", fillcolor="#47e539f1"] ;
48 -> 49 ;
50 [label="GenreRateGE <= 0.23\ngini = 0.07\nsamples = 34\nvalue = [0, 0, 54, 0, 0, 2, 0, 0]\nclass = Kinderbuch & Jugendbuch", fillcolor="#47e539f6"] ;
49 -> 50 ;
51 [label="GenreRateK <= 0.06\ngini = 0.41\nsamples = 5\nvalue = [0, 0, 5, 0, 0, 2, 0, 0]\nclass = Kinderbuch & Jugendbuch", fillcolor="#47e53999"] ;
50 -> 51 ;
52 [label="gini = 0.0\nsamples = 4\nvalue = [0, 0, 5, 0, 0, 0, 0, 0]\nclass = Kinderbuch & Jugendbuch", fillcolor="#47e539ff"] ;
51 -> 52 ;
53 [label="gini = 0.0\nsamples = 1\nvalue = [0, 0, 0, 0, 0, 2, 0, 0]\nclass = Glaube & Ethik", fillcolor="#5639e5ff"] ;
51 -> 53 ;
54 [label="gini = 0.0\nsamples = 29\nvalue = [0, 0, 49, 0, 0, 0, 0, 0]\nclass = Kinderbuch & Jugendbuch", fillcolor="#47e539ff"] ;
50 -> 54 ;
55 [label="gini = 0.0\nsamples = 1\nvalue = [0, 0, 0, 0, 0, 1, 0, 0]\nclass = Glaube & Ethik", fillcolor="#5639e5ff"] ;
49 -> 55 ;
56 [label="gini = 0.0\nsamples = 1\nvalue = [1, 0, 0, 0, 0, 0, 0, 0]\nclass = Literatur & Unterhaltung", fillcolor="#e58139ff"] ;
48 -> 56 ;
57 [label="GenreRateGE <= 0.21\ngini = 0.57\nsamples = 54\nvalue = [1, 1, 22, 1, 0, 5, 6, 54]\nclass = Architektur & Garten", fillcolor="#e5397278"] ;
7 -> 57 ;
58 [label="GenreRateGB <= 0.23\ngini = 0.36\nsamples = 43\nvalue = [1, 1, 0, 1, 0, 5, 6, 54]\nclass = Architektur & Garten", fillcolor="#e53972c5"] ;
57 -> 58 ;
59 [label="NumberCommas <= 2.5\ngini = 0.23\nsamples = 39\nvalue = [1, 0, 0, 1, 0, 5, 1, 54]\nclass = Architektur & Garten", fillcolor="#e53972db"] ;
58 -> 59 ;
60 [label="PercentageNouns <= 0.42\ngini = 0.64\nsamples = 7\nvalue = [1, 0, 0, 1, 0, 4, 0, 5]\nclass = Architektur & Garten", fillcolor="#e5397224"] ;
59 -> 60 ;
61 [label="GenreRateLU <= 1.14\ngini = 0.45\nsamples = 5\nvalue = [1, 0, 0, 0, 0, 1, 0, 5]\nclass = Architektur & Garten", fillcolor="#e53972aa"] ;
60 -> 61 ;
62 [label="gini = 0.0\nsamples = 3\nvalue = [0, 0, 0, 0, 0, 0, 0, 5]\nclass = Architektur & Garten", fillcolor="#e53972ff"] ;
61 -> 62 ;
63 [label="GenreRateK <= 0.04\ngini = 0.5\nsamples = 2\nvalue = [1, 0, 0, 0, 0, 1, 0, 0]\nclass = Literatur & Unterhaltung", fillcolor="#e5813900"] ;
61 -> 63 ;
64 [label="gini = 0.0\nsamples = 1\nvalue = [0, 0, 0, 0, 0, 1, 0, 0]\nclass = Glaube & Ethik", fillcolor="#5639e5ff"] ;
63 -> 64 ;
65 [label="gini = 0.0\nsamples = 1\nvalue = [1, 0, 0, 0, 0, 0, 0, 0]\nclass = Literatur & Unterhaltung", fillcolor="#e58139ff"] ;
63 -> 65 ;
66 [label="NumberCommas <= 1.0\ngini = 0.38\nsamples = 2\nvalue = [0, 0, 0, 1, 0, 3, 0, 0]\nclass = Glaube & Ethik", fillcolor="#5639e5aa"] ;
60 -> 66 ;
67 [label="gini = 0.0\nsamples = 1\nvalue = [0, 0, 0, 1, 0, 0, 0, 0]\nclass = Sachbuch", fillcolor="#39e5acff"] ;
66 -> 67 ;
68 [label="gini = 0.0\nsamples = 1\nvalue = [0, 0, 0, 0, 0, 3, 0, 0]\nclass = Glaube & Ethik", fillcolor="#5639e5ff"] ;
66 -> 68 ;
69 [label="PercentageNouns <= 0.52\ngini = 0.08\nsamples = 32\nvalue = [0, 0, 0, 0, 0, 1, 1, 49]\nclass = Architektur & Garten", fillcolor="#e53972f5"] ;
59 -> 69 ;
70 [label="GenreRateAG <= 0.04\ngini = 0.04\nsamples = 31\nvalue = [0, 0, 0, 0, 0, 0, 1, 49]\nclass = Architektur & Garten", fillcolor="#e53972fa"] ;
69 -> 70 ;
71 [label="gini = 0.0\nsamples = 26\nvalue = [0, 0, 0, 0, 0, 0, 0, 43]\nclass = Architektur & Garten", fillcolor="#e53972ff"] ;
70 -> 71 ;
72 [label="PercentageAdjectives <= 0.09\ngini = 0.24\nsamples = 5\nvalue = [0, 0, 0, 0, 0, 0, 1, 6]\nclass = Architektur & Garten", fillcolor="#e53972d4"] ;
70 -> 72 ;
73 [label="gini = 0.0\nsamples = 1\nvalue = [0, 0, 0, 0, 0, 0, 1, 0]\nclass = Künste", fillcolor="#d739e5ff"] ;
72 -> 73 ;
74 [label="gini = 0.0\nsamples = 4\nvalue = [0, 0, 0, 0, 0, 0, 0, 6]\nclass = Architektur & Garten", fillcolor="#e53972ff"] ;
72 -> 74 ;
75 [label="gini = 0.0\nsamples = 1\nvalue = [0, 0, 0, 0, 0, 1, 0, 0]\nclass = Glaube & Ethik", fillcolor="#5639e5ff"] ;
69 -> 75 ;
76 [label="PercentageNouns <= 0.4\ngini = 0.28\nsamples = 4\nvalue = [0, 1, 0, 0, 0, 0, 5, 0]\nclass = Künste", fillcolor="#d739e5cc"] ;
58 -> 76 ;
77 [label="gini = 0.0\nsamples = 3\nvalue = [0, 0, 0, 0, 0, 0, 5, 0]\nclass = Künste", fillcolor="#d739e5ff"] ;
76 -> 77 ;
78 [label="gini = 0.0\nsamples = 1\nvalue = [0, 1, 0, 0, 0, 0, 0, 0]\nclass = Ratgeber", fillcolor="#c8e539ff"] ;
76 -> 78 ;
79 [label="gini = 0.0\nsamples = 11\nvalue = [0, 0, 22, 0, 0, 0, 0, 0]\nclass = Kinderbuch & Jugendbuch", fillcolor="#47e539ff"] ;
57 -> 79 ;
80 [label="GenreRateGE <= 0.19\ngini = 0.27\nsamples = 23\nvalue = [4, 0, 1, 0, 39, 2, 0, 0]\nclass = Ganzheitliches Bewusstsein", fillcolor="#399de5d4"] ;
6 -> 80 ;
81 [label="GenreRateS <= 0.29\ngini = 0.09\nsamples = 20\nvalue = [2, 0, 0, 0, 39, 0, 0, 0]\nclass = Ganzheitliches Bewusstsein", fillcolor="#399de5f2"] ;
80 -> 81 ;
82 [label="gini = 0.0\nsamples = 1\nvalue = [2, 0, 0, 0, 0, 0, 0, 0]\nclass = Literatur & Unterhaltung", fillcolor="#e58139ff"] ;
81 -> 82 ;
83 [label="gini = 0.0\nsamples = 19\nvalue = [0, 0, 0, 0, 39, 0, 0, 0]\nclass = Ganzheitliches Bewusstsein", fillcolor="#399de5ff"] ;
81 -> 83 ;
84 [label="NumberCommas <= 2.5\ngini = 0.64\nsamples = 3\nvalue = [2, 0, 1, 0, 0, 2, 0, 0]\nclass = Literatur & Unterhaltung", fillcolor="#e5813900"] ;
80 -> 84 ;
85 [label="gini = 0.0\nsamples = 1\nvalue = [2, 0, 0, 0, 0, 0, 0, 0]\nclass = Literatur & Unterhaltung", fillcolor="#e58139ff"] ;
84 -> 85 ;
86 [label="NumberSentences <= 1.5\ngini = 0.44\nsamples = 2\nvalue = [0, 0, 1, 0, 0, 2, 0, 0]\nclass = Glaube & Ethik", fillcolor="#5639e57f"] ;
84 -> 86 ;
87 [label="gini = 0.0\nsamples = 1\nvalue = [0, 0, 0, 0, 0, 2, 0, 0]\nclass = Glaube & Ethik", fillcolor="#5639e5ff"] ;
86 -> 87 ;
88 [label="gini = 0.0\nsamples = 1\nvalue = [0, 0, 1, 0, 0, 0, 0, 0]\nclass = Kinderbuch & Jugendbuch", fillcolor="#47e539ff"] ;
86 -> 88 ;
89 [label="GenreRateS <= 0.73\ngini = 0.28\nsamples = 76\nvalue = [0, 0, 4, 0, 1, 97, 1, 12]\nclass = Glaube & Ethik", fillcolor="#5639e5d2"] ;
5 -> 89 ;
90 [label="GenreRateS <= 0.64\ngini = 0.13\nsamples = 66\nvalue = [0, 0, 0, 0, 1, 96, 1, 5]\nclass = Glaube & Ethik", fillcolor="#5639e5ed"] ;
89 -> 90 ;
91 [label="GenreRateS <= 0.56\ngini = 0.02\nsamples = 55\nvalue = [0, 0, 0, 0, 0, 85, 1, 0]\nclass = Glaube & Ethik", fillcolor="#5639e5fc"] ;
90 -> 91 ;
92 [label="gini = 0.0\nsamples = 45\nvalue = [0, 0, 0, 0, 0, 70, 0, 0]\nclass = Glaube & Ethik", fillcolor="#5639e5ff"] ;
91 -> 92 ;
93 [label="GenreRateGB <= 0.16\ngini = 0.12\nsamples = 10\nvalue = [0, 0, 0, 0, 0, 15, 1, 0]\nclass = Glaube & Ethik", fillcolor="#5639e5ee"] ;
91 -> 93 ;
94 [label="gini = 0.0\nsamples = 6\nvalue = [0, 0, 0, 0, 0, 9, 0, 0]\nclass = Glaube & Ethik", fillcolor="#5639e5ff"] ;
93 -> 94 ;
95 [label="GenreRateKJ <= 0.26\ngini = 0.24\nsamples = 4\nvalue = [0, 0, 0, 0, 0, 6, 1, 0]\nclass = Glaube & Ethik", fillcolor="#5639e5d4"] ;
93 -> 95 ;
96 [label="gini = 0.0\nsamples = 1\nvalue = [0, 0, 0, 0, 0, 0, 1, 0]\nclass = Künste", fillcolor="#d739e5ff"] ;
95 -> 96 ;
97 [label="gini = 0.0\nsamples = 3\nvalue = [0, 0, 0, 0, 0, 6, 0, 0]\nclass = Glaube & Ethik", fillcolor="#5639e5ff"] ;
95 -> 97 ;
98 [label="GenreRateAG <= 0.02\ngini = 0.49\nsamples = 11\nvalue = [0, 0, 0, 0, 1, 11, 0, 5]\nclass = Glaube & Ethik", fillcolor="#5639e580"] ;
90 -> 98 ;
99 [label="PercentageVerbs <= 0.04\ngini = 0.47\nsamples = 5\nvalue = [0, 0, 0, 0, 0, 3, 0, 5]\nclass = Architektur & Garten", fillcolor="#e5397266"] ;
98 -> 99 ;
100 [label="gini = 0.0\nsamples = 1\nvalue = [0, 0, 0, 0, 0, 2, 0, 0]\nclass = Glaube & Ethik", fillcolor="#5639e5ff"] ;
99 -> 100 ;
101 [label="PercentageNouns <= 0.2\ngini = 0.28\nsamples = 4\nvalue = [0, 0, 0, 0, 0, 1, 0, 5]\nclass = Architektur & Garten", fillcolor="#e53972cc"] ;
99 -> 101 ;
102 [label="gini = 0.0\nsamples = 1\nvalue = [0, 0, 0, 0, 0, 1, 0, 0]\nclass = Glaube & Ethik", fillcolor="#5639e5ff"] ;
101 -> 102 ;
103 [label="gini = 0.0\nsamples = 3\nvalue = [0, 0, 0, 0, 0, 0, 0, 5]\nclass = Architektur & Garten", fillcolor="#e53972ff"] ;
101 -> 103 ;
104 [label="PercentageNouns <= 0.33\ngini = 0.2\nsamples = 6\nvalue = [0, 0, 0, 0, 1, 8, 0, 0]\nclass = Glaube & Ethik", fillcolor="#5639e5df"] ;
98 -> 104 ;
105 [label="gini = 0.0\nsamples = 1\nvalue = [0, 0, 0, 0, 1, 0, 0, 0]\nclass = Ganzheitliches Bewusstsein", fillcolor="#399de5ff"] ;
104 -> 105 ;
106 [label="gini = 0.0\nsamples = 5\nvalue = [0, 0, 0, 0, 0, 8, 0, 0]\nclass = Glaube & Ethik", fillcolor="#5639e5ff"] ;
104 -> 106 ;
107 [label="GenreRateLU <= 1.72\ngini = 0.54\nsamples = 10\nvalue = [0, 0, 4, 0, 0, 1, 0, 7]\nclass = Architektur & Garten", fillcolor="#e5397260"] ;
89 -> 107 ;
108 [label="PercentageVerbs <= 0.09\ngini = 0.49\nsamples = 6\nvalue = [0, 0, 4, 0, 0, 0, 0, 3]\nclass = Kinderbuch & Jugendbuch", fillcolor="#47e53940"] ;
107 -> 108 ;
109 [label="PercentageVerbs <= 0.06\ngini = 0.38\nsamples = 3\nvalue = [0, 0, 1, 0, 0, 0, 0, 3]\nclass = Architektur & Garten", fillcolor="#e53972aa"] ;
108 -> 109 ;
110 [label="gini = 0.0\nsamples = 1\nvalue = [0, 0, 1, 0, 0, 0, 0, 0]\nclass = Kinderbuch & Jugendbuch", fillcolor="#47e539ff"] ;
109 -> 110 ;
111 [label="gini = 0.0\nsamples = 2\nvalue = [0, 0, 0, 0, 0, 0, 0, 3]\nclass = Architektur & Garten", fillcolor="#e53972ff"] ;
109 -> 111 ;
112 [label="gini = 0.0\nsamples = 3\nvalue = [0, 0, 3, 0, 0, 0, 0, 0]\nclass = Kinderbuch & Jugendbuch", fillcolor="#47e539ff"] ;
108 -> 112 ;
113 [label="GenreRateR <= 0.41\ngini = 0.32\nsamples = 4\nvalue = [0, 0, 0, 0, 0, 1, 0, 4]\nclass = Architektur & Garten", fillcolor="#e53972bf"] ;
107 -> 113 ;
114 [label="gini = 0.0\nsamples = 3\nvalue = [0, 0, 0, 0, 0, 0, 0, 4]\nclass = Architektur & Garten", fillcolor="#e53972ff"] ;
113 -> 114 ;
115 [label="gini = 0.0\nsamples = 1\nvalue = [0, 0, 0, 0, 0, 1, 0, 0]\nclass = Glaube & Ethik", fillcolor="#5639e5ff"] ;
113 -> 115 ;
116 [label="GenreRateR <= 0.38\ngini = 0.5\nsamples = 263\nvalue = [15, 7, 32, 16, 3, 283, 7, 46]\nclass = Glaube & Ethik", fillcolor="#5639e5a6"] ;
4 -> 116 ;
117 [label="GenreRateR <= 0.31\ngini = 0.35\nsamples = 208\nvalue = [8, 3, 13, 14, 0, 264, 0, 29]\nclass = Glaube & Ethik", fillcolor="#5639e5c6"] ;
116 -> 117 ;
118 [label="GenreRateK <= 0.06\ngini = 0.26\nsamples = 155\nvalue = [6, 2, 8, 3, 0, 212, 0, 16]\nclass = Glaube & Ethik", fillcolor="#5639e5d8"] ;
117 -> 118 ;
119 [label="GenreRateR <= 0.19\ngini = 0.2\nsamples = 145\nvalue = [1, 2, 5, 2, 0, 204, 0, 15]\nclass = Glaube & Ethik", fillcolor="#5639e5e1"] ;
118 -> 119 ;
120 [label="PercentageVerbs <= 0.01\ngini = 0.07\nsamples = 57\nvalue = [0, 0, 1, 2, 0, 86, 0, 0]\nclass = Glaube & Ethik", fillcolor="#5639e5f6"] ;
119 -> 120 ;
121 [label="gini = 0.0\nsamples = 1\nvalue = [0, 0, 0, 1, 0, 0, 0, 0]\nclass = Sachbuch", fillcolor="#39e5acff"] ;
120 -> 121 ;
122 [label="GenreRateK <= 0.03\ngini = 0.04\nsamples = 56\nvalue = [0, 0, 1, 1, 0, 86, 0, 0]\nclass = Glaube & Ethik", fillcolor="#5639e5f9"] ;
120 -> 122 ;
123 [label="GenreRateLU <= 1.13\ngini = 0.03\nsamples = 47\nvalue = [0, 0, 1, 0, 0, 76, 0, 0]\nclass = Glaube & Ethik", fillcolor="#5639e5fc"] ;
122 -> 123 ;
124 [label="gini = 0.0\nsamples = 1\nvalue = [0, 0, 1, 0, 0, 0, 0, 0]\nclass = Kinderbuch & Jugendbuch", fillcolor="#47e539ff"] ;
123 -> 124 ;
125 [label="gini = 0.0\nsamples = 46\nvalue = [0, 0, 0, 0, 0, 76, 0, 0]\nclass = Glaube & Ethik", fillcolor="#5639e5ff"] ;
123 -> 125 ;
126 [label="GenreRateS <= 0.27\ngini = 0.17\nsamples = 9\nvalue = [0, 0, 0, 1, 0, 10, 0, 0]\nclass = Glaube & Ethik", fillcolor="#5639e5e6"] ;
122 -> 126 ;
127 [label="gini = 0.0\nsamples = 1\nvalue = [0, 0, 0, 1, 0, 0, 0, 0]\nclass = Sachbuch", fillcolor="#39e5acff"] ;
126 -> 127 ;
128 [label="gini = 0.0\nsamples = 8\nvalue = [0, 0, 0, 0, 0, 10, 0, 0]\nclass = Glaube & Ethik", fillcolor="#5639e5ff"] ;
126 -> 128 ;
129 [label="NumberSentences <= 3.5\ngini = 0.28\nsamples = 88\nvalue = [1, 2, 4, 0, 0, 118, 0, 15]\nclass = Glaube & Ethik", fillcolor="#5639e5d2"] ;
119 -> 129 ;
130 [label="WordsPerSentence <= 22.67\ngini = 0.53\nsamples = 16\nvalue = [0, 2, 2, 0, 0, 21, 0, 8]\nclass = Glaube & Ethik", fillcolor="#5639e585"] ;
129 -> 130 ;
131 [label="GenreRateLU <= 1.75\ngini = 0.64\nsamples = 10\nvalue = [0, 2, 2, 0, 0, 10, 0, 7]\nclass = Glaube & Ethik", fillcolor="#5639e537"] ;
130 -> 131 ;
132 [label="PercentageAdjectives <= 0.11\ngini = 0.53\nsamples = 4\nvalue = [0, 2, 2, 0, 0, 0, 0, 7]\nclass = Architektur & Garten", fillcolor="#e539728e"] ;
131 -> 132 ;
133 [label="gini = 0.0\nsamples = 2\nvalue = [0, 0, 0, 0, 0, 0, 0, 7]\nclass = Architektur & Garten", fillcolor="#e53972ff"] ;
132 -> 133 ;
134 [label="GenreRateK <= 0.02\ngini = 0.5\nsamples = 2\nvalue = [0, 2, 2, 0, 0, 0, 0, 0]\nclass = Ratgeber", fillcolor="#c8e53900"] ;
132 -> 134 ;
135 [label="gini = 0.0\nsamples = 1\nvalue = [0, 0, 2, 0, 0, 0, 0, 0]\nclass = Kinderbuch & Jugendbuch", fillcolor="#47e539ff"] ;
134 -> 135 ;
136 [label="gini = 0.0\nsamples = 1\nvalue = [0, 2, 0, 0, 0, 0, 0, 0]\nclass = Ratgeber", fillcolor="#c8e539ff"] ;
134 -> 136 ;
137 [label="gini = 0.0\nsamples = 6\nvalue = [0, 0, 0, 0, 0, 10, 0, 0]\nclass = Glaube & Ethik", fillcolor="#5639e5ff"] ;
131 -> 137 ;
138 [label="GenreRateKJ <= 0.36\ngini = 0.15\nsamples = 6\nvalue = [0, 0, 0, 0, 0, 11, 0, 1]\nclass = Glaube & Ethik", fillcolor="#5639e5e8"] ;
130 -> 138 ;
139 [label="gini = 0.0\nsamples = 1\nvalue = [0, 0, 0, 0, 0, 0, 0, 1]\nclass = Architektur & Garten", fillcolor="#e53972ff"] ;
138 -> 139 ;
140 [label="gini = 0.0\nsamples = 5\nvalue = [0, 0, 0, 0, 0, 11, 0, 0]\nclass = Glaube & Ethik", fillcolor="#5639e5ff"] ;
138 -> 140 ;
141 [label="GenreRateR <= 0.19\ngini = 0.17\nsamples = 72\nvalue = [1, 0, 2, 0, 0, 97, 0, 7]\nclass = Glaube & Ethik", fillcolor="#5639e5e5"] ;
129 -> 141 ;
142 [label="gini = 0.0\nsamples = 1\nvalue = [0, 0, 0, 0, 0, 0, 0, 1]\nclass = Architektur & Garten", fillcolor="#e53972ff"] ;
141 -> 142 ;
143 [label="GenreRateGE <= 0.32\ngini = 0.16\nsamples = 71\nvalue = [1, 0, 2, 0, 0, 97, 0, 6]\nclass = Glaube & Ethik", fillcolor="#5639e5e8"] ;
141 -> 143 ;
144 [label="PercentageAdjectives <= 0.09\ngini = 0.13\nsamples = 70\nvalue = [1, 0, 0, 0, 0, 97, 0, 6]\nclass = Glaube & Ethik", fillcolor="#5639e5ed"] ;
143 -> 144 ;
145 [label="gini = 0.0\nsamples = 33\nvalue = [0, 0, 0, 0, 0, 47, 0, 0]\nclass = Glaube & Ethik", fillcolor="#5639e5ff"] ;
144 -> 145 ;
146 [label="GenreRateKJ <= 0.42\ngini = 0.22\nsamples = 37\nvalue = [1, 0, 0, 0, 0, 50, 0, 6]\nclass = Glaube & Ethik", fillcolor="#5639e5dc"] ;
144 -> 146 ;
147 [label="GenreRateLU <= 1.41\ngini = 0.32\nsamples = 24\nvalue = [1, 0, 0, 0, 0, 30, 0, 6]\nclass = Glaube & Ethik", fillcolor="#5639e5c5"] ;
146 -> 147 ;
148 [label="gini = 0.0\nsamples = 3\nvalue = [0, 0, 0, 0, 0, 0, 0, 4]\nclass = Architektur & Garten", fillcolor="#e53972ff"] ;
147 -> 148 ;
149 [label="GenreRateS <= 0.78\ngini = 0.17\nsamples = 21\nvalue = [1, 0, 0, 0, 0, 30, 0, 2]\nclass = Glaube & Ethik", fillcolor="#5639e5e6"] ;
147 -> 149 ;
150 [label="GenreRateLU <= 1.63\ngini = 0.06\nsamples = 20\nvalue = [1, 0, 0, 0, 0, 30, 0, 0]\nclass = Glaube & Ethik", fillcolor="#5639e5f6"] ;
149 -> 150 ;
151 [label="NumberSentences <= 4.5\ngini = 0.44\nsamples = 2\nvalue = [1, 0, 0, 0, 0, 2, 0, 0]\nclass = Glaube & Ethik", fillcolor="#5639e57f"] ;
150 -> 151 ;
152 [label="gini = 0.0\nsamples = 1\nvalue = [1, 0, 0, 0, 0, 0, 0, 0]\nclass = Literatur & Unterhaltung", fillcolor="#e58139ff"] ;
151 -> 152 ;
153 [label="gini = 0.0\nsamples = 1\nvalue = [0, 0, 0, 0, 0, 2, 0, 0]\nclass = Glaube & Ethik", fillcolor="#5639e5ff"] ;
151 -> 153 ;
154 [label="gini = 0.0\nsamples = 18\nvalue = [0, 0, 0, 0, 0, 28, 0, 0]\nclass = Glaube & Ethik", fillcolor="#5639e5ff"] ;
150 -> 154 ;
155 [label="gini = 0.0\nsamples = 1\nvalue = [0, 0, 0, 0, 0, 0, 0, 2]\nclass = Architektur & Garten", fillcolor="#e53972ff"] ;
149 -> 155 ;
156 [label="gini = 0.0\nsamples = 13\nvalue = [0, 0, 0, 0, 0, 20, 0, 0]\nclass = Glaube & Ethik", fillcolor="#5639e5ff"] ;
146 -> 156 ;
157 [label="gini = 0.0\nsamples = 1\nvalue = [0, 0, 2, 0, 0, 0, 0, 0]\nclass = Kinderbuch & Jugendbuch", fillcolor="#47e539ff"] ;
143 -> 157 ;
158 [label="WordsPerSentence <= 19.6\ngini = 0.69\nsamples = 10\nvalue = [5, 0, 3, 1, 0, 8, 0, 1]\nclass = Glaube & Ethik", fillcolor="#5639e53b"] ;
118 -> 158 ;
159 [label="PercentageAdjectives <= 0.06\ngini = 0.37\nsamples = 6\nvalue = [0, 0, 0, 1, 0, 7, 0, 1]\nclass = Glaube & Ethik", fillcolor="#5639e5bf"] ;
158 -> 159 ;
160 [label="gini = 0.0\nsamples = 1\nvalue = [0, 0, 0, 0, 0, 0, 0, 1]\nclass = Architektur & Garten", fillcolor="#e53972ff"] ;
159 -> 160 ;
161 [label="PercentageNouns <= 0.31\ngini = 0.22\nsamples = 5\nvalue = [0, 0, 0, 1, 0, 7, 0, 0]\nclass = Glaube & Ethik", fillcolor="#5639e5db"] ;
159 -> 161 ;
162 [label="gini = 0.0\nsamples = 1\nvalue = [0, 0, 0, 1, 0, 0, 0, 0]\nclass = Sachbuch", fillcolor="#39e5acff"] ;
161 -> 162 ;
163 [label="gini = 0.0\nsamples = 4\nvalue = [0, 0, 0, 0, 0, 7, 0, 0]\nclass = Glaube & Ethik", fillcolor="#5639e5ff"] ;
161 -> 163 ;
164 [label="WordsPerSentence <= 20.85\ngini = 0.57\nsamples = 4\nvalue = [5, 0, 3, 0, 0, 1, 0, 0]\nclass = Literatur & Unterhaltung", fillcolor="#e5813955"] ;
158 -> 164 ;
165 [label="gini = 0.0\nsamples = 2\nvalue = [5, 0, 0, 0, 0, 0, 0, 0]\nclass = Literatur & Unterhaltung", fillcolor="#e58139ff"] ;
164 -> 165 ;
166 [label="GenreRateS <= 0.66\ngini = 0.38\nsamples = 2\nvalue = [0, 0, 3, 0, 0, 1, 0, 0]\nclass = Kinderbuch & Jugendbuch", fillcolor="#47e539aa"] ;
164 -> 166 ;
167 [label="gini = 0.0\nsamples = 1\nvalue = [0, 0, 3, 0, 0, 0, 0, 0]\nclass = Kinderbuch & Jugendbuch", fillcolor="#47e539ff"] ;
166 -> 167 ;
168 [label="gini = 0.0\nsamples = 1\nvalue = [0, 0, 0, 0, 0, 1, 0, 0]\nclass = Glaube & Ethik", fillcolor="#5639e5ff"] ;
166 -> 168 ;
169 [label="PercentageVerbs <= 0.15\ngini = 0.57\nsamples = 53\nvalue = [2, 1, 5, 11, 0, 52, 0, 13]\nclass = Glaube & Ethik", fillcolor="#5639e58c"] ;
117 -> 169 ;
170 [label="GenreRateLU <= 1.55\ngini = 0.52\nsamples = 48\nvalue = [2, 1, 3, 10, 0, 51, 0, 9]\nclass = Glaube & Ethik", fillcolor="#5639e59e"] ;
169 -> 170 ;
171 [label="PercentageVerbs <= 0.08\ngini = 0.68\nsamples = 14\nvalue = [2, 1, 0, 9, 0, 2, 0, 8]\nclass = Sachbuch", fillcolor="#39e5ac12"] ;
170 -> 171 ;
172 [label="GenreRateAG <= 0.11\ngini = 0.55\nsamples = 8\nvalue = [2, 1, 0, 0, 0, 1, 0, 7]\nclass = Architektur & Garten", fillcolor="#e539728e"] ;
171 -> 172 ;
173 [label="GenreRateGB <= 0.11\ngini = 0.37\nsamples = 6\nvalue = [0, 1, 0, 0, 0, 1, 0, 7]\nclass = Architektur & Garten", fillcolor="#e53972bf"] ;
172 -> 173 ;
174 [label="gini = 0.0\nsamples = 1\nvalue = [0, 0, 0, 0, 0, 1, 0, 0]\nclass = Glaube & Ethik", fillcolor="#5639e5ff"] ;
173 -> 174 ;
175 [label="GenreRateS <= 0.41\ngini = 0.22\nsamples = 5\nvalue = [0, 1, 0, 0, 0, 0, 0, 7]\nclass = Architektur & Garten", fillcolor="#e53972db"] ;
173 -> 175 ;
176 [label="gini = 0.0\nsamples = 1\nvalue = [0, 1, 0, 0, 0, 0, 0, 0]\nclass = Ratgeber", fillcolor="#c8e539ff"] ;
175 -> 176 ;
177 [label="gini = 0.0\nsamples = 4\nvalue = [0, 0, 0, 0, 0, 0, 0, 7]\nclass = Architektur & Garten", fillcolor="#e53972ff"] ;
175 -> 177 ;
178 [label="gini = 0.0\nsamples = 2\nvalue = [2, 0, 0, 0, 0, 0, 0, 0]\nclass = Literatur & Unterhaltung", fillcolor="#e58139ff"] ;
172 -> 178 ;
179 [label="GenreRateGE <= 0.1\ngini = 0.31\nsamples = 6\nvalue = [0, 0, 0, 9, 0, 1, 0, 1]\nclass = Sachbuch", fillcolor="#39e5accc"] ;
171 -> 179 ;
180 [label="gini = 0.0\nsamples = 4\nvalue = [0, 0, 0, 9, 0, 0, 0, 0]\nclass = Sachbuch", fillcolor="#39e5acff"] ;
179 -> 180 ;
181 [label="GenreRateR <= 0.35\ngini = 0.5\nsamples = 2\nvalue = [0, 0, 0, 0, 0, 1, 0, 1]\nclass = Glaube & Ethik", fillcolor="#5639e500"] ;
179 -> 181 ;
182 [label="gini = 0.0\nsamples = 1\nvalue = [0, 0, 0, 0, 0, 0, 0, 1]\nclass = Architektur & Garten", fillcolor="#e53972ff"] ;
181 -> 182 ;
183 [label="gini = 0.0\nsamples = 1\nvalue = [0, 0, 0, 0, 0, 1, 0, 0]\nclass = Glaube & Ethik", fillcolor="#5639e5ff"] ;
181 -> 183 ;
184 [label="PercentageAdjectives <= 0.02\ngini = 0.17\nsamples = 34\nvalue = [0, 0, 3, 1, 0, 49, 0, 1]\nclass = Glaube & Ethik", fillcolor="#5639e5e6"] ;
170 -> 184 ;
185 [label="gini = 0.0\nsamples = 1\nvalue = [0, 0, 3, 0, 0, 0, 0, 0]\nclass = Kinderbuch & Jugendbuch", fillcolor="#47e539ff"] ;
184 -> 185 ;
186 [label="GenreRateKJ <= 0.44\ngini = 0.08\nsamples = 33\nvalue = [0, 0, 0, 1, 0, 49, 0, 1]\nclass = Glaube & Ethik", fillcolor="#5639e5f5"] ;
184 -> 186 ;
187 [label="gini = 0.0\nsamples = 27\nvalue = [0, 0, 0, 0, 0, 45, 0, 0]\nclass = Glaube & Ethik", fillcolor="#5639e5ff"] ;
186 -> 187 ;
188 [label="GenreRateLU <= 2.34\ngini = 0.5\nsamples = 6\nvalue = [0, 0, 0, 1, 0, 4, 0, 1]\nclass = Glaube & Ethik", fillcolor="#5639e599"] ;
186 -> 188 ;
189 [label="PercentageNouns <= 0.36\ngini = 0.5\nsamples = 2\nvalue = [0, 0, 0, 1, 0, 0, 0, 1]\nclass = Sachbuch", fillcolor="#39e5ac00"] ;
188 -> 189 ;
190 [label="gini = 0.0\nsamples = 1\nvalue = [0, 0, 0, 0, 0, 0, 0, 1]\nclass = Architektur & Garten", fillcolor="#e53972ff"] ;
189 -> 190 ;
191 [label="gini = 0.0\nsamples = 1\nvalue = [0, 0, 0, 1, 0, 0, 0, 0]\nclass = Sachbuch", fillcolor="#39e5acff"] ;
189 -> 191 ;
192 [label="gini = 0.0\nsamples = 4\nvalue = [0, 0, 0, 0, 0, 4, 0, 0]\nclass = Glaube & Ethik", fillcolor="#5639e5ff"] ;
188 -> 192 ;
193 [label="GenreRateK <= 0.02\ngini = 0.66\nsamples = 5\nvalue = [0, 0, 2, 1, 0, 1, 0, 4]\nclass = Architektur & Garten", fillcolor="#e5397255"] ;
169 -> 193 ;
194 [label="gini = 0.0\nsamples = 2\nvalue = [0, 0, 0, 0, 0, 0, 0, 4]\nclass = Architektur & Garten", fillcolor="#e53972ff"] ;
193 -> 194 ;
195 [label="PercentageAdjectives <= 0.08\ngini = 0.62\nsamples = 3\nvalue = [0, 0, 2, 1, 0, 1, 0, 0]\nclass = Kinderbuch & Jugendbuch", fillcolor="#47e53955"] ;
193 -> 195 ;
196 [label="gini = 0.0\nsamples = 1\nvalue = [0, 0, 2, 0, 0, 0, 0, 0]\nclass = Kinderbuch & Jugendbuch", fillcolor="#47e539ff"] ;
195 -> 196 ;
197 [label="GenreRateS <= 0.59\ngini = 0.5\nsamples = 2\nvalue = [0, 0, 0, 1, 0, 1, 0, 0]\nclass = Sachbuch", fillcolor="#39e5ac00"] ;
195 -> 197 ;
198 [label="gini = 0.0\nsamples = 1\nvalue = [0, 0, 0, 1, 0, 0, 0, 0]\nclass = Sachbuch", fillcolor="#39e5acff"] ;
197 -> 198 ;
199 [label="gini = 0.0\nsamples = 1\nvalue = [0, 0, 0, 0, 0, 1, 0, 0]\nclass = Glaube & Ethik", fillcolor="#5639e5ff"] ;
197 -> 199 ;
200 [label="GenreRateGE <= 0.22\ngini = 0.81\nsamples = 55\nvalue = [7, 4, 19, 2, 3, 19, 7, 17]\nclass = Kinderbuch & Jugendbuch", fillcolor="#47e53900"] ;
116 -> 200 ;
201 [label="GenreRateK <= 0.07\ngini = 0.78\nsamples = 47\nvalue = [7, 4, 0, 2, 3, 19, 7, 17]\nclass = Glaube & Ethik", fillcolor="#5639e50c"] ;
200 -> 201 ;
202 [label="GenreRateS <= 0.59\ngini = 0.7\nsamples = 40\nvalue = [2, 4, 0, 0, 0, 19, 7, 17]\nclass = Glaube & Ethik", fillcolor="#5639e510"] ;
201 -> 202 ;
203 [label="NumberSentences <= 6.0\ngini = 0.7\nsamples = 13\nvalue = [2, 3, 0, 0, 0, 1, 6, 1]\nclass = Künste", fillcolor="#d739e54d"] ;
202 -> 203 ;
204 [label="GenreRateGE <= 0.12\ngini = 0.58\nsamples = 10\nvalue = [0, 2, 0, 0, 0, 1, 6, 1]\nclass = Künste", fillcolor="#d739e57f"] ;
203 -> 204 ;
205 [label="GenreRateKJ <= 0.4\ngini = 0.41\nsamples = 8\nvalue = [0, 1, 0, 0, 0, 0, 6, 1]\nclass = Künste", fillcolor="#d739e5b6"] ;
204 -> 205 ;
206 [label="WordsPerSentence <= 13.8\ngini = 0.24\nsamples = 7\nvalue = [0, 1, 0, 0, 0, 0, 6, 0]\nclass = Künste", fillcolor="#d739e5d4"] ;
205 -> 206 ;
207 [label="GenreRateGB <= 0.28\ngini = 0.38\nsamples = 4\nvalue = [0, 1, 0, 0, 0, 0, 3, 0]\nclass = Künste", fillcolor="#d739e5aa"] ;
206 -> 207 ;
208 [label="gini = 0.0\nsamples = 2\nvalue = [0, 0, 0, 0, 0, 0, 2, 0]\nclass = Künste", fillcolor="#d739e5ff"] ;
207 -> 208 ;
209 [label="GenreRateR <= 0.5\ngini = 0.5\nsamples = 2\nvalue = [0, 1, 0, 0, 0, 0, 1, 0]\nclass = Ratgeber", fillcolor="#c8e53900"] ;
207 -> 209 ;
210 [label="gini = 0.0\nsamples = 1\nvalue = [0, 1, 0, 0, 0, 0, 0, 0]\nclass = Ratgeber", fillcolor="#c8e539ff"] ;
209 -> 210 ;
211 [label="gini = 0.0\nsamples = 1\nvalue = [0, 0, 0, 0, 0, 0, 1, 0]\nclass = Künste", fillcolor="#d739e5ff"] ;
209 -> 211 ;
212 [label="gini = 0.0\nsamples = 3\nvalue = [0, 0, 0, 0, 0, 0, 3, 0]\nclass = Künste", fillcolor="#d739e5ff"] ;
206 -> 212 ;
213 [label="gini = 0.0\nsamples = 1\nvalue = [0, 0, 0, 0, 0, 0, 0, 1]\nclass = Architektur & Garten", fillcolor="#e53972ff"] ;
205 -> 213 ;
214 [label="GenreRateK <= 0.03\ngini = 0.5\nsamples = 2\nvalue = [0, 1, 0, 0, 0, 1, 0, 0]\nclass = Ratgeber", fillcolor="#c8e53900"] ;
204 -> 214 ;
215 [label="gini = 0.0\nsamples = 1\nvalue = [0, 1, 0, 0, 0, 0, 0, 0]\nclass = Ratgeber", fillcolor="#c8e539ff"] ;
214 -> 215 ;
216 [label="gini = 0.0\nsamples = 1\nvalue = [0, 0, 0, 0, 0, 1, 0, 0]\nclass = Glaube & Ethik", fillcolor="#5639e5ff"] ;
214 -> 216 ;
217 [label="PercentageAdjectives <= 0.08\ngini = 0.44\nsamples = 3\nvalue = [2, 1, 0, 0, 0, 0, 0, 0]\nclass = Literatur & Unterhaltung", fillcolor="#e581397f"] ;
203 -> 217 ;
218 [label="gini = 0.0\nsamples = 1\nvalue = [1, 0, 0, 0, 0, 0, 0, 0]\nclass = Literatur & Unterhaltung", fillcolor="#e58139ff"] ;
217 -> 218 ;
219 [label="GenreRateKJ <= 0.37\ngini = 0.5\nsamples = 2\nvalue = [1, 1, 0, 0, 0, 0, 0, 0]\nclass = Literatur & Unterhaltung", fillcolor="#e5813900"] ;
217 -> 219 ;
220 [label="gini = 0.0\nsamples = 1\nvalue = [1, 0, 0, 0, 0, 0, 0, 0]\nclass = Literatur & Unterhaltung", fillcolor="#e58139ff"] ;
219 -> 220 ;
221 [label="gini = 0.0\nsamples = 1\nvalue = [0, 1, 0, 0, 0, 0, 0, 0]\nclass = Ratgeber", fillcolor="#c8e539ff"] ;
219 -> 221 ;
222 [label="GenreRateLU <= 1.84\ngini = 0.55\nsamples = 27\nvalue = [0, 1, 0, 0, 0, 18, 1, 16]\nclass = Glaube & Ethik", fillcolor="#5639e51a"] ;
202 -> 222 ;
223 [label="PercentageVerbs <= 0.09\ngini = 0.43\nsamples = 18\nvalue = [0, 1, 0, 0, 0, 4, 1, 16]\nclass = Architektur & Garten", fillcolor="#e53972aa"] ;
222 -> 223 ;
224 [label="WordsPerSentence <= 18.88\ngini = 0.32\nsamples = 5\nvalue = [0, 1, 0, 0, 0, 4, 0, 0]\nclass = Glaube & Ethik", fillcolor="#5639e5bf"] ;
223 -> 224 ;
225 [label="GenreRateLU <= 1.66\ngini = 0.5\nsamples = 2\nvalue = [0, 1, 0, 0, 0, 1, 0, 0]\nclass = Ratgeber", fillcolor="#c8e53900"] ;
224 -> 225 ;
226 [label="gini = 0.0\nsamples = 1\nvalue = [0, 1, 0, 0, 0, 0, 0, 0]\nclass = Ratgeber", fillcolor="#c8e539ff"] ;
225 -> 226 ;
227 [label="gini = 0.0\nsamples = 1\nvalue = [0, 0, 0, 0, 0, 1, 0, 0]\nclass = Glaube & Ethik", fillcolor="#5639e5ff"] ;
225 -> 227 ;
228 [label="gini = 0.0\nsamples = 3\nvalue = [0, 0, 0, 0, 0, 3, 0, 0]\nclass = Glaube & Ethik", fillcolor="#5639e5ff"] ;
224 -> 228 ;
229 [label="GenreRateAG <= 0.05\ngini = 0.11\nsamples = 13\nvalue = [0, 0, 0, 0, 0, 0, 1, 16]\nclass = Architektur & Garten", fillcolor="#e53972ef"] ;
223 -> 229 ;
230 [label="gini = 0.0\nsamples = 11\nvalue = [0, 0, 0, 0, 0, 0, 0, 14]\nclass = Architektur & Garten", fillcolor="#e53972ff"] ;
229 -> 230 ;
231 [label="GenreRateK <= 0.06\ngini = 0.44\nsamples = 2\nvalue = [0, 0, 0, 0, 0, 0, 1, 2]\nclass = Architektur & Garten", fillcolor="#e539727f"] ;
229 -> 231 ;
232 [label="gini = 0.0\nsamples = 1\nvalue = [0, 0, 0, 0, 0, 0, 1, 0]\nclass = Künste", fillcolor="#d739e5ff"] ;
231 -> 232 ;
233 [label="gini = 0.0\nsamples = 1\nvalue = [0, 0, 0, 0, 0, 0, 0, 2]\nclass = Architektur & Garten", fillcolor="#e53972ff"] ;
231 -> 233 ;
234 [label="gini = 0.0\nsamples = 9\nvalue = [0, 0, 0, 0, 0, 14, 0, 0]\nclass = Glaube & Ethik", fillcolor="#5639e5ff"] ;
222 -> 234 ;
235 [label="GenreRateAG <= 0.11\ngini = 0.62\nsamples = 7\nvalue = [5, 0, 0, 2, 3, 0, 0, 0]\nclass = Literatur & Unterhaltung", fillcolor="#e5813949"] ;
201 -> 235 ;
236 [label="GenreRateR <= 0.44\ngini = 0.48\nsamples = 3\nvalue = [0, 0, 0, 2, 3, 0, 0, 0]\nclass = Ganzheitliches Bewusstsein", fillcolor="#399de555"] ;
235 -> 236 ;
237 [label="gini = 0.0\nsamples = 1\nvalue = [0, 0, 0, 2, 0, 0, 0, 0]\nclass = Sachbuch", fillcolor="#39e5acff"] ;
236 -> 237 ;
238 [label="gini = 0.0\nsamples = 2\nvalue = [0, 0, 0, 0, 3, 0, 0, 0]\nclass = Ganzheitliches Bewusstsein", fillcolor="#399de5ff"] ;
236 -> 238 ;
239 [label="gini = 0.0\nsamples = 4\nvalue = [5, 0, 0, 0, 0, 0, 0, 0]\nclass = Literatur & Unterhaltung", fillcolor="#e58139ff"] ;
235 -> 239 ;
240 [label="gini = 0.0\nsamples = 8\nvalue = [0, 0, 19, 0, 0, 0, 0, 0]\nclass = Kinderbuch & Jugendbuch", fillcolor="#47e539ff"] ;
200 -> 240 ;
241 [label="GenreRateGE <= 0.44\ngini = 0.48\nsamples = 131\nvalue = [5, 0, 28, 0, 3, 27, 0, 143]\nclass = Architektur & Garten", fillcolor="#e53972a5"] ;
3 -> 241 ;
242 [label="NumberSymbols- <= 0.5\ngini = 0.37\nsamples = 119\nvalue = [5, 0, 6, 0, 3, 27, 0, 143]\nclass = Architektur & Garten", fillcolor="#e53972bc"] ;
241 -> 242 ;
243 [label="PercentageAdjectives <= 0.07\ngini = 0.47\nsamples = 56\nvalue = [0, 0, 3, 0, 2, 22, 0, 57]\nclass = Architektur & Garten", fillcolor="#e5397290"] ;
242 -> 243 ;
244 [label="GenreRateLU <= 2.3\ngini = 0.46\nsamples = 8\nvalue = [0, 0, 0, 0, 0, 7, 0, 4]\nclass = Glaube & Ethik", fillcolor="#5639e56d"] ;
243 -> 244 ;
245 [label="GenreRateAG <= 0.03\ngini = 0.49\nsamples = 6\nvalue = [0, 0, 0, 0, 0, 3, 0, 4]\nclass = Architektur & Garten", fillcolor="#e5397240"] ;
244 -> 245 ;
246 [label="gini = 0.0\nsamples = 2\nvalue = [0, 0, 0, 0, 0, 3, 0, 0]\nclass = Glaube & Ethik", fillcolor="#5639e5ff"] ;
245 -> 246 ;
247 [label="gini = 0.0\nsamples = 4\nvalue = [0, 0, 0, 0, 0, 0, 0, 4]\nclass = Architektur & Garten", fillcolor="#e53972ff"] ;
245 -> 247 ;
248 [label="gini = 0.0\nsamples = 2\nvalue = [0, 0, 0, 0, 0, 4, 0, 0]\nclass = Glaube & Ethik", fillcolor="#5639e5ff"] ;
244 -> 248 ;
249 [label="GenreRateGB <= 0.25\ngini = 0.43\nsamples = 48\nvalue = [0, 0, 3, 0, 2, 15, 0, 53]\nclass = Architektur & Garten", fillcolor="#e53972a7"] ;
243 -> 249 ;
250 [label="GenreRateGE <= 0.32\ngini = 0.26\nsamples = 34\nvalue = [0, 0, 0, 0, 0, 8, 0, 44]\nclass = Architektur & Garten", fillcolor="#e53972d1"] ;
249 -> 250 ;
251 [label="GenreRateLU <= 2.41\ngini = 0.21\nsamples = 32\nvalue = [0, 0, 0, 0, 0, 6, 0, 44]\nclass = Architektur & Garten", fillcolor="#e53972dc"] ;
250 -> 251 ;
252 [label="GenreRateR <= 0.35\ngini = 0.09\nsamples = 27\nvalue = [0, 0, 0, 0, 0, 2, 0, 42]\nclass = Architektur & Garten", fillcolor="#e53972f3"] ;
251 -> 252 ;
253 [label="gini = 0.0\nsamples = 18\nvalue = [0, 0, 0, 0, 0, 0, 0, 29]\nclass = Architektur & Garten", fillcolor="#e53972ff"] ;
252 -> 253 ;
254 [label="GenreRateK <= 0.05\ngini = 0.23\nsamples = 9\nvalue = [0, 0, 0, 0, 0, 2, 0, 13]\nclass = Architektur & Garten", fillcolor="#e53972d8"] ;
252 -> 254 ;
255 [label="gini = 0.0\nsamples = 2\nvalue = [0, 0, 0, 0, 0, 2, 0, 0]\nclass = Glaube & Ethik", fillcolor="#5639e5ff"] ;
254 -> 255 ;
256 [label="gini = 0.0\nsamples = 7\nvalue = [0, 0, 0, 0, 0, 0, 0, 13]\nclass = Architektur & Garten", fillcolor="#e53972ff"] ;
254 -> 256 ;
257 [label="PercentageAdjectives <= 0.09\ngini = 0.44\nsamples = 5\nvalue = [0, 0, 0, 0, 0, 4, 0, 2]\nclass = Glaube & Ethik", fillcolor="#5639e57f"] ;
251 -> 257 ;
258 [label="gini = 0.0\nsamples = 2\nvalue = [0, 0, 0, 0, 0, 0, 0, 2]\nclass = Architektur & Garten", fillcolor="#e53972ff"] ;
257 -> 258 ;
259 [label="gini = 0.0\nsamples = 3\nvalue = [0, 0, 0, 0, 0, 4, 0, 0]\nclass = Glaube & Ethik", fillcolor="#5639e5ff"] ;
257 -> 259 ;
260 [label="gini = 0.0\nsamples = 2\nvalue = [0, 0, 0, 0, 0, 2, 0, 0]\nclass = Glaube & Ethik", fillcolor="#5639e5ff"] ;
250 -> 260 ;
261 [label="GenreRateS <= 1.02\ngini = 0.68\nsamples = 14\nvalue = [0, 0, 3, 0, 2, 7, 0, 9]\nclass = Architektur & Garten", fillcolor="#e5397224"] ;
249 -> 261 ;
262 [label="GenreRateKJ <= 0.42\ngini = 0.54\nsamples = 9\nvalue = [0, 0, 2, 0, 2, 1, 0, 9]\nclass = Architektur & Garten", fillcolor="#e5397295"] ;
261 -> 262 ;
263 [label="GenreRateGB <= 0.27\ngini = 0.18\nsamples = 6\nvalue = [0, 0, 1, 0, 0, 0, 0, 9]\nclass = Architektur & Garten", fillcolor="#e53972e3"] ;
262 -> 263 ;
264 [label="gini = 0.0\nsamples = 1\nvalue = [0, 0, 1, 0, 0, 0, 0, 0]\nclass = Kinderbuch & Jugendbuch", fillcolor="#47e539ff"] ;
263 -> 264 ;
265 [label="gini = 0.0\nsamples = 5\nvalue = [0, 0, 0, 0, 0, 0, 0, 9]\nclass = Architektur & Garten", fillcolor="#e53972ff"] ;
263 -> 265 ;
266 [label="GenreRateS <= 0.87\ngini = 0.62\nsamples = 3\nvalue = [0, 0, 1, 0, 2, 1, 0, 0]\nclass = Ganzheitliches Bewusstsein", fillcolor="#399de555"] ;
262 -> 266 ;
267 [label="gini = 0.0\nsamples = 1\nvalue = [0, 0, 0, 0, 2, 0, 0, 0]\nclass = Ganzheitliches Bewusstsein", fillcolor="#399de5ff"] ;
266 -> 267 ;
268 [label="WordsPerSentence <= 23.25\ngini = 0.5\nsamples = 2\nvalue = [0, 0, 1, 0, 0, 1, 0, 0]\nclass = Kinderbuch & Jugendbuch", fillcolor="#47e53900"] ;
266 -> 268 ;
269 [label="gini = 0.0\nsamples = 1\nvalue = [0, 0, 1, 0, 0, 0, 0, 0]\nclass = Kinderbuch & Jugendbuch", fillcolor="#47e539ff"] ;
268 -> 269 ;
270 [label="gini = 0.0\nsamples = 1\nvalue = [0, 0, 0, 0, 0, 1, 0, 0]\nclass = Glaube & Ethik", fillcolor="#5639e5ff"] ;
268 -> 270 ;
271 [label="PercentageNouns <= 0.43\ngini = 0.24\nsamples = 5\nvalue = [0, 0, 1, 0, 0, 6, 0, 0]\nclass = Glaube & Ethik", fillcolor="#5639e5d4"] ;
261 -> 271 ;
272 [label="gini = 0.0\nsamples = 4\nvalue = [0, 0, 0, 0, 0, 6, 0, 0]\nclass = Glaube & Ethik", fillcolor="#5639e5ff"] ;
271 -> 272 ;
273 [label="gini = 0.0\nsamples = 1\nvalue = [0, 0, 1, 0, 0, 0, 0, 0]\nclass = Kinderbuch & Jugendbuch", fillcolor="#47e539ff"] ;
271 -> 273 ;
274 [label="GenreRateGE <= 0.16\ngini = 0.25\nsamples = 63\nvalue = [5, 0, 3, 0, 1, 5, 0, 86]\nclass = Architektur & Garten", fillcolor="#e53972d9"] ;
242 -> 274 ;
275 [label="gini = 0.0\nsamples = 34\nvalue = [0, 0, 0, 0, 0, 0, 0, 55]\nclass = Architektur & Garten", fillcolor="#e53972ff"] ;
274 -> 275 ;
276 [label="GenreRateS <= 0.96\ngini = 0.5\nsamples = 29\nvalue = [5, 0, 3, 0, 1, 5, 0, 31]\nclass = Architektur & Garten", fillcolor="#e53972a6"] ;
274 -> 276 ;
277 [label="PercentageNouns <= 0.38\ngini = 0.75\nsamples = 8\nvalue = [4, 0, 3, 0, 1, 1, 0, 3]\nclass = Literatur & Unterhaltung", fillcolor="#e581391c"] ;
276 -> 277 ;
278 [label="GenreRateS <= 0.88\ngini = 0.59\nsamples = 5\nvalue = [4, 0, 3, 0, 0, 1, 0, 0]\nclass = Literatur & Unterhaltung", fillcolor="#e5813933"] ;
277 -> 278 ;
279 [label="gini = 0.0\nsamples = 2\nvalue = [4, 0, 0, 0, 0, 0, 0, 0]\nclass = Literatur & Unterhaltung", fillcolor="#e58139ff"] ;
278 -> 279 ;
280 [label="GenreRateLU <= 1.76\ngini = 0.38\nsamples = 3\nvalue = [0, 0, 3, 0, 0, 1, 0, 0]\nclass = Kinderbuch & Jugendbuch", fillcolor="#47e539aa"] ;
278 -> 280 ;
281 [label="gini = 0.0\nsamples = 1\nvalue = [0, 0, 0, 0, 0, 1, 0, 0]\nclass = Glaube & Ethik", fillcolor="#5639e5ff"] ;
280 -> 281 ;
282 [label="gini = 0.0\nsamples = 2\nvalue = [0, 0, 3, 0, 0, 0, 0, 0]\nclass = Kinderbuch & Jugendbuch", fillcolor="#47e539ff"] ;
280 -> 282 ;
283 [label="PercentageVerbs <= 0.09\ngini = 0.38\nsamples = 3\nvalue = [0, 0, 0, 0, 1, 0, 0, 3]\nclass = Architektur & Garten", fillcolor="#e53972aa"] ;
277 -> 283 ;
284 [label="gini = 0.0\nsamples = 2\nvalue = [0, 0, 0, 0, 0, 0, 0, 3]\nclass = Architektur & Garten", fillcolor="#e53972ff"] ;
283 -> 284 ;
285 [label="gini = 0.0\nsamples = 1\nvalue = [0, 0, 0, 0, 1, 0, 0, 0]\nclass = Ganzheitliches Bewusstsein", fillcolor="#399de5ff"] ;
283 -> 285 ;
286 [label="GenreRateGB <= 0.12\ngini = 0.26\nsamples = 21\nvalue = [1, 0, 0, 0, 0, 4, 0, 28]\nclass = Architektur & Garten", fillcolor="#e53972d3"] ;
276 -> 286 ;
287 [label="GenreRateS <= 1.0\ngini = 0.38\nsamples = 2\nvalue = [0, 0, 0, 0, 0, 3, 0, 1]\nclass = Glaube & Ethik", fillcolor="#5639e5aa"] ;
286 -> 287 ;
288 [label="gini = 0.0\nsamples = 1\nvalue = [0, 0, 0, 0, 0, 0, 0, 1]\nclass = Architektur & Garten", fillcolor="#e53972ff"] ;
287 -> 288 ;
289 [label="gini = 0.0\nsamples = 1\nvalue = [0, 0, 0, 0, 0, 3, 0, 0]\nclass = Glaube & Ethik", fillcolor="#5639e5ff"] ;
287 -> 289 ;
290 [label="NumberSymbols; <= 0.5\ngini = 0.13\nsamples = 19\nvalue = [1, 0, 0, 0, 0, 1, 0, 27]\nclass = Architektur & Garten", fillcolor="#e53972ed"] ;
286 -> 290 ;
291 [label="GenreRateKJ <= 0.44\ngini = 0.07\nsamples = 18\nvalue = [0, 0, 0, 0, 0, 1, 0, 27]\nclass = Architektur & Garten", fillcolor="#e53972f6"] ;
290 -> 291 ;
292 [label="gini = 0.0\nsamples = 12\nvalue = [0, 0, 0, 0, 0, 0, 0, 20]\nclass = Architektur & Garten", fillcolor="#e53972ff"] ;
291 -> 292 ;
293 [label="PercentageAdjectives <= 0.06\ngini = 0.22\nsamples = 6\nvalue = [0, 0, 0, 0, 0, 1, 0, 7]\nclass = Architektur & Garten", fillcolor="#e53972db"] ;
291 -> 293 ;
294 [label="gini = 0.0\nsamples = 1\nvalue = [0, 0, 0, 0, 0, 1, 0, 0]\nclass = Glaube & Ethik", fillcolor="#5639e5ff"] ;
293 -> 294 ;
295 [label="gini = 0.0\nsamples = 5\nvalue = [0, 0, 0, 0, 0, 0, 0, 7]\nclass = Architektur & Garten", fillcolor="#e53972ff"] ;
293 -> 295 ;
296 [label="gini = 0.0\nsamples = 1\nvalue = [1, 0, 0, 0, 0, 0, 0, 0]\nclass = Literatur & Unterhaltung", fillcolor="#e58139ff"] ;
290 -> 296 ;
297 [label="gini = 0.0\nsamples = 12\nvalue = [0, 0, 22, 0, 0, 0, 0, 0]\nclass = Kinderbuch & Jugendbuch", fillcolor="#47e539ff"] ;
241 -> 297 ;
298 [label="GenreRateR <= 0.65\ngini = 0.47\nsamples = 233\nvalue = [15, 14, 26, 1, 6, 13, 265, 29]\nclass = Künste", fillcolor="#d739e5b1"] ;
2 -> 298 ;
299 [label="WordsPerSentence <= 25.0\ngini = 0.69\nsamples = 91\nvalue = [6, 10, 19, 0, 5, 11, 74, 19]\nclass = Künste", fillcolor="#d739e570"] ;
298 -> 299 ;
300 [label="NumberSentences <= 7.5\ngini = 0.65\nsamples = 79\nvalue = [6, 8, 18, 0, 2, 4, 69, 18]\nclass = Künste", fillcolor="#d739e57a"] ;
299 -> 300 ;
301 [label="GenreRateGE <= 0.23\ngini = 0.6\nsamples = 70\nvalue = [6, 6, 16, 0, 0, 4, 67, 12]\nclass = Künste", fillcolor="#d739e589"] ;
300 -> 301 ;
302 [label="GenreRateKJ <= 0.31\ngini = 0.45\nsamples = 59\nvalue = [5, 6, 0, 0, 0, 4, 67, 10]\nclass = Künste", fillcolor="#d739e5b1"] ;
301 -> 302 ;
303 [label="PercentageNouns <= 0.38\ngini = 0.29\nsamples = 32\nvalue = [3, 0, 0, 0, 0, 0, 44, 6]\nclass = Künste", fillcolor="#d739e5ce"] ;
302 -> 303 ;
304 [label="PercentageVerbs <= 0.09\ngini = 0.14\nsamples = 23\nvalue = [1, 0, 0, 0, 0, 0, 36, 2]\nclass = Künste", fillcolor="#d739e5ea"] ;
303 -> 304 ;
305 [label="GenreRateGE <= 0.06\ngini = 0.38\nsamples = 3\nvalue = [0, 0, 0, 0, 0, 0, 3, 1]\nclass = Künste", fillcolor="#d739e5aa"] ;
304 -> 305 ;
306 [label="gini = 0.0\nsamples = 1\nvalue = [0, 0, 0, 0, 0, 0, 0, 1]\nclass = Architektur & Garten", fillcolor="#e53972ff"] ;
305 -> 306 ;
307 [label="gini = 0.0\nsamples = 2\nvalue = [0, 0, 0, 0, 0, 0, 3, 0]\nclass = Künste", fillcolor="#d739e5ff"] ;
305 -> 307 ;
308 [label="GenreRateGE <= 0.17\ngini = 0.11\nsamples = 20\nvalue = [1, 0, 0, 0, 0, 0, 33, 1]\nclass = Künste", fillcolor="#d739e5f0"] ;
304 -> 308 ;
309 [label="PercentageVerbs <= 0.15\ngini = 0.06\nsamples = 18\nvalue = [0, 0, 0, 0, 0, 0, 32, 1]\nclass = Künste", fillcolor="#d739e5f7"] ;
308 -> 309 ;
310 [label="gini = 0.0\nsamples = 13\nvalue = [0, 0, 0, 0, 0, 0, 24, 0]\nclass = Künste", fillcolor="#d739e5ff"] ;
309 -> 310 ;
311 [label="PercentageVerbs <= 0.15\ngini = 0.2\nsamples = 5\nvalue = [0, 0, 0, 0, 0, 0, 8, 1]\nclass = Künste", fillcolor="#d739e5df"] ;
309 -> 311 ;
312 [label="gini = 0.0\nsamples = 1\nvalue = [0, 0, 0, 0, 0, 0, 0, 1]\nclass = Architektur & Garten", fillcolor="#e53972ff"] ;
311 -> 312 ;
313 [label="gini = 0.0\nsamples = 4\nvalue = [0, 0, 0, 0, 0, 0, 8, 0]\nclass = Künste", fillcolor="#d739e5ff"] ;
311 -> 313 ;
314 [label="PercentageAdjectives <= 0.12\ngini = 0.5\nsamples = 2\nvalue = [1, 0, 0, 0, 0, 0, 1, 0]\nclass = Literatur & Unterhaltung", fillcolor="#e5813900"] ;
308 -> 314 ;
315 [label="gini = 0.0\nsamples = 1\nvalue = [0, 0, 0, 0, 0, 0, 1, 0]\nclass = Künste", fillcolor="#d739e5ff"] ;
314 -> 315 ;
316 [label="gini = 0.0\nsamples = 1\nvalue = [1, 0, 0, 0, 0, 0, 0, 0]\nclass = Literatur & Unterhaltung", fillcolor="#e58139ff"] ;
314 -> 316 ;
317 [label="GenreRateK <= 0.03\ngini = 0.57\nsamples = 9\nvalue = [2, 0, 0, 0, 0, 0, 8, 4]\nclass = Künste", fillcolor="#d739e566"] ;
303 -> 317 ;
318 [label="gini = 0.0\nsamples = 5\nvalue = [0, 0, 0, 0, 0, 0, 7, 0]\nclass = Künste", fillcolor="#d739e5ff"] ;
317 -> 318 ;
319 [label="GenreRateS <= 0.77\ngini = 0.57\nsamples = 4\nvalue = [2, 0, 0, 0, 0, 0, 1, 4]\nclass = Architektur & Garten", fillcolor="#e5397266"] ;
317 -> 319 ;
320 [label="GenreRateLU <= 0.86\ngini = 0.44\nsamples = 2\nvalue = [2, 0, 0, 0, 0, 0, 1, 0]\nclass = Literatur & Unterhaltung", fillcolor="#e581397f"] ;
319 -> 320 ;
321 [label="gini = 0.0\nsamples = 1\nvalue = [2, 0, 0, 0, 0, 0, 0, 0]\nclass = Literatur & Unterhaltung", fillcolor="#e58139ff"] ;
320 -> 321 ;
322 [label="gini = 0.0\nsamples = 1\nvalue = [0, 0, 0, 0, 0, 0, 1, 0]\nclass = Künste", fillcolor="#d739e5ff"] ;
320 -> 322 ;
323 [label="gini = 0.0\nsamples = 2\nvalue = [0, 0, 0, 0, 0, 0, 0, 4]\nclass = Architektur & Garten", fillcolor="#e53972ff"] ;
319 -> 323 ;
324 [label="PercentageAdjectives <= 0.16\ngini = 0.6\nsamples = 27\nvalue = [2, 6, 0, 0, 0, 4, 23, 4]\nclass = Künste", fillcolor="#d739e583"] ;
302 -> 324 ;
325 [label="NumberSymbols- <= 3.0\ngini = 0.55\nsamples = 24\nvalue = [0, 5, 0, 0, 0, 4, 23, 4]\nclass = Künste", fillcolor="#d739e594"] ;
324 -> 325 ;
326 [label="GenreRateGB <= 0.23\ngini = 0.48\nsamples = 23\nvalue = [0, 2, 0, 0, 0, 4, 23, 4]\nclass = Künste", fillcolor="#d739e5a7"] ;
325 -> 326 ;
327 [label="PercentageAdjectives <= 0.1\ngini = 0.12\nsamples = 10\nvalue = [0, 0, 0, 0, 0, 1, 15, 0]\nclass = Künste", fillcolor="#d739e5ee"] ;
326 -> 327 ;
328 [label="gini = 0.0\nsamples = 7\nvalue = [0, 0, 0, 0, 0, 0, 12, 0]\nclass = Künste", fillcolor="#d739e5ff"] ;
327 -> 328 ;
329 [label="NumberSymbols- <= 1.0\ngini = 0.38\nsamples = 3\nvalue = [0, 0, 0, 0, 0, 1, 3, 0]\nclass = Künste", fillcolor="#d739e5aa"] ;
327 -> 329 ;
330 [label="gini = 0.0\nsamples = 2\nvalue = [0, 0, 0, 0, 0, 0, 3, 0]\nclass = Künste", fillcolor="#d739e5ff"] ;
329 -> 330 ;
331 [label="gini = 0.0\nsamples = 1\nvalue = [0, 0, 0, 0, 0, 1, 0, 0]\nclass = Glaube & Ethik", fillcolor="#5639e5ff"] ;
329 -> 331 ;
332 [label="GenreRateS <= 0.63\ngini = 0.68\nsamples = 13\nvalue = [0, 2, 0, 0, 0, 3, 8, 4]\nclass = Künste", fillcolor="#d739e54e"] ;
326 -> 332 ;
333 [label="gini = 0.0\nsamples = 3\nvalue = [0, 0, 0, 0, 0, 0, 6, 0]\nclass = Künste", fillcolor="#d739e5ff"] ;
332 -> 333 ;
334 [label="GenreRateLU <= 1.34\ngini = 0.73\nsamples = 10\nvalue = [0, 2, 0, 0, 0, 3, 2, 4]\nclass = Architektur & Garten", fillcolor="#e5397220"] ;
332 -> 334 ;
335 [label="gini = 0.0\nsamples = 1\nvalue = [0, 2, 0, 0, 0, 0, 0, 0]\nclass = Ratgeber", fillcolor="#c8e539ff"] ;
334 -> 335 ;
336 [label="NumberSymbols: <= 1.5\ngini = 0.64\nsamples = 9\nvalue = [0, 0, 0, 0, 0, 3, 2, 4]\nclass = Architektur & Garten", fillcolor="#e539722a"] ;
334 -> 336 ;
337 [label="GenreRateS <= 0.84\ngini = 0.57\nsamples = 7\nvalue = [0, 0, 0, 0, 0, 1, 2, 4]\nclass = Architektur & Garten", fillcolor="#e5397266"] ;
336 -> 337 ;
338 [label="PercentageNouns <= 0.28\ngini = 0.62\nsamples = 4\nvalue = [0, 0, 0, 0, 0, 1, 2, 1]\nclass = Künste", fillcolor="#d739e555"] ;
337 -> 338 ;
339 [label="gini = 0.0\nsamples = 1\nvalue = [0, 0, 0, 0, 0, 0, 0, 1]\nclass = Architektur & Garten", fillcolor="#e53972ff"] ;
338 -> 339 ;
340 [label="NumberSymbols: <= 0.5\ngini = 0.44\nsamples = 3\nvalue = [0, 0, 0, 0, 0, 1, 2, 0]\nclass = Künste", fillcolor="#d739e57f"] ;
338 -> 340 ;
341 [label="gini = 0.0\nsamples = 2\nvalue = [0, 0, 0, 0, 0, 0, 2, 0]\nclass = Künste", fillcolor="#d739e5ff"] ;
340 -> 341 ;
342 [label="gini = 0.0\nsamples = 1\nvalue = [0, 0, 0, 0, 0, 1, 0, 0]\nclass = Glaube & Ethik", fillcolor="#5639e5ff"] ;
340 -> 342 ;
343 [label="gini = 0.0\nsamples = 3\nvalue = [0, 0, 0, 0, 0, 0, 0, 3]\nclass = Architektur & Garten", fillcolor="#e53972ff"] ;
337 -> 343 ;
344 [label="gini = 0.0\nsamples = 2\nvalue = [0, 0, 0, 0, 0, 2, 0, 0]\nclass = Glaube & Ethik", fillcolor="#5639e5ff"] ;
336 -> 344 ;
345 [label="gini = 0.0\nsamples = 1\nvalue = [0, 3, 0, 0, 0, 0, 0, 0]\nclass = Ratgeber", fillcolor="#c8e539ff"] ;
325 -> 345 ;
346 [label="GenreRateGE <= 0.1\ngini = 0.44\nsamples = 3\nvalue = [2, 1, 0, 0, 0, 0, 0, 0]\nclass = Literatur & Unterhaltung", fillcolor="#e581397f"] ;
324 -> 346 ;
347 [label="gini = 0.0\nsamples = 1\nvalue = [0, 1, 0, 0, 0, 0, 0, 0]\nclass = Ratgeber", fillcolor="#c8e539ff"] ;
346 -> 347 ;
348 [label="gini = 0.0\nsamples = 2\nvalue = [2, 0, 0, 0, 0, 0, 0, 0]\nclass = Literatur & Unterhaltung", fillcolor="#e58139ff"] ;
346 -> 348 ;
349 [label="PercentageNouns <= 0.4\ngini = 0.28\nsamples = 11\nvalue = [1, 0, 16, 0, 0, 0, 0, 2]\nclass = Kinderbuch & Jugendbuch", fillcolor="#47e539d2"] ;
301 -> 349 ;
350 [label="NumberSymbols- <= 3.5\ngini = 0.11\nsamples = 9\nvalue = [1, 0, 16, 0, 0, 0, 0, 0]\nclass = Kinderbuch & Jugendbuch", fillcolor="#47e539ef"] ;
349 -> 350 ;
351 [label="gini = 0.0\nsamples = 8\nvalue = [0, 0, 16, 0, 0, 0, 0, 0]\nclass = Kinderbuch & Jugendbuch", fillcolor="#47e539ff"] ;
350 -> 351 ;
352 [label="gini = 0.0\nsamples = 1\nvalue = [1, 0, 0, 0, 0, 0, 0, 0]\nclass = Literatur & Unterhaltung", fillcolor="#e58139ff"] ;
350 -> 352 ;
353 [label="gini = 0.0\nsamples = 2\nvalue = [0, 0, 0, 0, 0, 0, 0, 2]\nclass = Architektur & Garten", fillcolor="#e53972ff"] ;
349 -> 353 ;
354 [label="GenreRateK <= 0.05\ngini = 0.73\nsamples = 9\nvalue = [0, 2, 2, 0, 2, 0, 2, 6]\nclass = Architektur & Garten", fillcolor="#e5397255"] ;
300 -> 354 ;
355 [label="GenreRateGB <= 0.2\ngini = 0.24\nsamples = 5\nvalue = [0, 0, 0, 0, 0, 0, 1, 6]\nclass = Architektur & Garten", fillcolor="#e53972d4"] ;
354 -> 355 ;
356 [label="gini = 0.0\nsamples = 1\nvalue = [0, 0, 0, 0, 0, 0, 1, 0]\nclass = Künste", fillcolor="#d739e5ff"] ;
355 -> 356 ;
357 [label="gini = 0.0\nsamples = 4\nvalue = [0, 0, 0, 0, 0, 0, 0, 6]\nclass = Architektur & Garten", fillcolor="#e53972ff"] ;
355 -> 357 ;
358 [label="GenreRateS <= 0.6\ngini = 0.73\nsamples = 4\nvalue = [0, 2, 2, 0, 2, 0, 1, 0]\nclass = Ratgeber", fillcolor="#c8e53900"] ;
354 -> 358 ;
359 [label="gini = 0.0\nsamples = 1\nvalue = [0, 2, 0, 0, 0, 0, 0, 0]\nclass = Ratgeber", fillcolor="#c8e539ff"] ;
358 -> 359 ;
360 [label="GenreRateAG <= 0.06\ngini = 0.64\nsamples = 3\nvalue = [0, 0, 2, 0, 2, 0, 1, 0]\nclass = Kinderbuch & Jugendbuch", fillcolor="#47e53900"] ;
358 -> 360 ;
361 [label="PercentageVerbs <= 0.11\ngini = 0.44\nsamples = 2\nvalue = [0, 0, 2, 0, 0, 0, 1, 0]\nclass = Kinderbuch & Jugendbuch", fillcolor="#47e5397f"] ;
360 -> 361 ;
362 [label="gini = 0.0\nsamples = 1\nvalue = [0, 0, 0, 0, 0, 0, 1, 0]\nclass = Künste", fillcolor="#d739e5ff"] ;
361 -> 362 ;
363 [label="gini = 0.0\nsamples = 1\nvalue = [0, 0, 2, 0, 0, 0, 0, 0]\nclass = Kinderbuch & Jugendbuch", fillcolor="#47e539ff"] ;
361 -> 363 ;
364 [label="gini = 0.0\nsamples = 1\nvalue = [0, 0, 0, 0, 2, 0, 0, 0]\nclass = Ganzheitliches Bewusstsein", fillcolor="#399de5ff"] ;
360 -> 364 ;
365 [label="NumberSymbols; <= 0.5\ngini = 0.75\nsamples = 12\nvalue = [0, 2, 1, 0, 3, 7, 5, 1]\nclass = Glaube & Ethik", fillcolor="#5639e524"] ;
299 -> 365 ;
366 [label="GenreRateKJ <= 0.35\ngini = 0.72\nsamples = 11\nvalue = [0, 2, 1, 0, 1, 7, 5, 1]\nclass = Glaube & Ethik", fillcolor="#5639e52a"] ;
365 -> 366 ;
367 [label="PercentageNouns <= 0.37\ngini = 0.61\nsamples = 4\nvalue = [0, 2, 0, 0, 0, 0, 3, 1]\nclass = Künste", fillcolor="#d739e540"] ;
366 -> 367 ;
368 [label="NumberSentences <= 2.0\ngini = 0.44\nsamples = 2\nvalue = [0, 2, 0, 0, 0, 0, 0, 1]\nclass = Ratgeber", fillcolor="#c8e5397f"] ;
367 -> 368 ;
369 [label="gini = 0.0\nsamples = 1\nvalue = [0, 0, 0, 0, 0, 0, 0, 1]\nclass = Architektur & Garten", fillcolor="#e53972ff"] ;
368 -> 369 ;
370 [label="gini = 0.0\nsamples = 1\nvalue = [0, 2, 0, 0, 0, 0, 0, 0]\nclass = Ratgeber", fillcolor="#c8e539ff"] ;
368 -> 370 ;
371 [label="gini = 0.0\nsamples = 2\nvalue = [0, 0, 0, 0, 0, 0, 3, 0]\nclass = Künste", fillcolor="#d739e5ff"] ;
367 -> 371 ;
372 [label="GenreRateS <= 0.68\ngini = 0.55\nsamples = 7\nvalue = [0, 0, 1, 0, 1, 7, 2, 0]\nclass = Glaube & Ethik", fillcolor="#5639e58e"] ;
366 -> 372 ;
373 [label="gini = 0.0\nsamples = 1\nvalue = [0, 0, 0, 0, 0, 0, 2, 0]\nclass = Künste", fillcolor="#d739e5ff"] ;
372 -> 373 ;
374 [label="PercentageVerbs <= 0.06\ngini = 0.37\nsamples = 6\nvalue = [0, 0, 1, 0, 1, 7, 0, 0]\nclass = Glaube & Ethik", fillcolor="#5639e5bf"] ;
372 -> 374 ;
375 [label="gini = 0.0\nsamples = 1\nvalue = [0, 0, 1, 0, 0, 0, 0, 0]\nclass = Kinderbuch & Jugendbuch", fillcolor="#47e539ff"] ;
374 -> 375 ;
376 [label="GenreRateGE <= 0.19\ngini = 0.22\nsamples = 5\nvalue = [0, 0, 0, 0, 1, 7, 0, 0]\nclass = Glaube & Ethik", fillcolor="#5639e5db"] ;
374 -> 376 ;
377 [label="gini = 0.0\nsamples = 4\nvalue = [0, 0, 0, 0, 0, 7, 0, 0]\nclass = Glaube & Ethik", fillcolor="#5639e5ff"] ;
376 -> 377 ;
378 [label="gini = 0.0\nsamples = 1\nvalue = [0, 0, 0, 0, 1, 0, 0, 0]\nclass = Ganzheitliches Bewusstsein", fillcolor="#399de5ff"] ;
376 -> 378 ;
379 [label="gini = 0.0\nsamples = 1\nvalue = [0, 0, 0, 0, 2, 0, 0, 0]\nclass = Ganzheitliches Bewusstsein", fillcolor="#399de5ff"] ;
365 -> 379 ;
380 [label="GenreRateGE <= 0.23\ngini = 0.27\nsamples = 142\nvalue = [9, 4, 7, 1, 1, 2, 191, 10]\nclass = Künste", fillcolor="#d739e5d7"] ;
298 -> 380 ;
381 [label="GenreRateR <= 0.77\ngini = 0.18\nsamples = 129\nvalue = [4, 4, 0, 1, 1, 2, 186, 8]\nclass = Künste", fillcolor="#d739e5e5"] ;
380 -> 381 ;
382 [label="GenreRateLU <= 1.83\ngini = 0.38\nsamples = 58\nvalue = [4, 3, 0, 1, 1, 2, 68, 8]\nclass = Künste", fillcolor="#d739e5c2"] ;
381 -> 382 ;
383 [label="GenreRateAG <= 0.16\ngini = 0.29\nsamples = 54\nvalue = [4, 3, 0, 1, 1, 0, 68, 4]\nclass = Künste", fillcolor="#d739e5d4"] ;
382 -> 383 ;
384 [label="GenreRateR <= 0.72\ngini = 0.22\nsamples = 51\nvalue = [0, 3, 0, 1, 1, 0, 68, 4]\nclass = Künste", fillcolor="#d739e5e0"] ;
383 -> 384 ;
385 [label="GenreRateKJ <= 0.41\ngini = 0.31\nsamples = 32\nvalue = [0, 3, 0, 1, 1, 0, 43, 4]\nclass = Künste", fillcolor="#d739e5cf"] ;
384 -> 385 ;
386 [label="NumberCommas <= 7.5\ngini = 0.2\nsamples = 28\nvalue = [0, 3, 0, 0, 1, 0, 42, 1]\nclass = Künste", fillcolor="#d739e5e2"] ;
385 -> 386 ;
387 [label="PercentageNouns <= 0.34\ngini = 0.1\nsamples = 23\nvalue = [0, 1, 0, 0, 0, 0, 37, 1]\nclass = Künste", fillcolor="#d739e5f2"] ;
386 -> 387 ;
388 [label="gini = 0.0\nsamples = 15\nvalue = [0, 0, 0, 0, 0, 0, 23, 0]\nclass = Künste", fillcolor="#d739e5ff"] ;
387 -> 388 ;
389 [label="GenreRateK <= 0.02\ngini = 0.23\nsamples = 8\nvalue = [0, 1, 0, 0, 0, 0, 14, 1]\nclass = Künste", fillcolor="#d739e5dd"] ;
387 -> 389 ;
390 [label="gini = 0.0\nsamples = 1\nvalue = [0, 1, 0, 0, 0, 0, 0, 0]\nclass = Ratgeber", fillcolor="#c8e539ff"] ;
389 -> 390 ;
391 [label="GenreRateGB <= 0.25\ngini = 0.12\nsamples = 7\nvalue = [0, 0, 0, 0, 0, 0, 14, 1]\nclass = Künste", fillcolor="#d739e5ed"] ;
389 -> 391 ;
392 [label="gini = 0.0\nsamples = 4\nvalue = [0, 0, 0, 0, 0, 0, 10, 0]\nclass = Künste", fillcolor="#d739e5ff"] ;
391 -> 392 ;
393 [label="PercentageNouns <= 0.36\ngini = 0.32\nsamples = 3\nvalue = [0, 0, 0, 0, 0, 0, 4, 1]\nclass = Künste", fillcolor="#d739e5bf"] ;
391 -> 393 ;
394 [label="gini = 0.0\nsamples = 1\nvalue = [0, 0, 0, 0, 0, 0, 0, 1]\nclass = Architektur & Garten", fillcolor="#e53972ff"] ;
393 -> 394 ;
395 [label="gini = 0.0\nsamples = 2\nvalue = [0, 0, 0, 0, 0, 0, 4, 0]\nclass = Künste", fillcolor="#d739e5ff"] ;
393 -> 395 ;
396 [label="GenreRateGB <= 0.34\ngini = 0.53\nsamples = 5\nvalue = [0, 2, 0, 0, 1, 0, 5, 0]\nclass = Künste", fillcolor="#d739e580"] ;
386 -> 396 ;
397 [label="GenreRateS <= 0.81\ngini = 0.28\nsamples = 4\nvalue = [0, 0, 0, 0, 1, 0, 5, 0]\nclass = Künste", fillcolor="#d739e5cc"] ;
396 -> 397 ;
398 [label="gini = 0.0\nsamples = 3\nvalue = [0, 0, 0, 0, 0, 0, 5, 0]\nclass = Künste", fillcolor="#d739e5ff"] ;
397 -> 398 ;
399 [label="gini = 0.0\nsamples = 1\nvalue = [0, 0, 0, 0, 1, 0, 0, 0]\nclass = Ganzheitliches Bewusstsein", fillcolor="#399de5ff"] ;
397 -> 399 ;
400 [label="gini = 0.0\nsamples = 1\nvalue = [0, 2, 0, 0, 0, 0, 0, 0]\nclass = Ratgeber", fillcolor="#c8e539ff"] ;
396 -> 400 ;
401 [label="PercentageAdjectives <= 0.14\ngini = 0.56\nsamples = 4\nvalue = [0, 0, 0, 1, 0, 0, 1, 3]\nclass = Architektur & Garten", fillcolor="#e539727f"] ;
385 -> 401 ;
402 [label="GenreRateR <= 0.7\ngini = 0.38\nsamples = 3\nvalue = [0, 0, 0, 1, 0, 0, 0, 3]\nclass = Architektur & Garten", fillcolor="#e53972aa"] ;
401 -> 402 ;
403 [label="gini = 0.0\nsamples = 2\nvalue = [0, 0, 0, 0, 0, 0, 0, 3]\nclass = Architektur & Garten", fillcolor="#e53972ff"] ;
402 -> 403 ;
404 [label="gini = 0.0\nsamples = 1\nvalue = [0, 0, 0, 1, 0, 0, 0, 0]\nclass = Sachbuch", fillcolor="#39e5acff"] ;
402 -> 404 ;
405 [label="gini = 0.0\nsamples = 1\nvalue = [0, 0, 0, 0, 0, 0, 1, 0]\nclass = Künste", fillcolor="#d739e5ff"] ;
401 -> 405 ;
406 [label="gini = 0.0\nsamples = 19\nvalue = [0, 0, 0, 0, 0, 0, 25, 0]\nclass = Künste", fillcolor="#d739e5ff"] ;
384 -> 406 ;
407 [label="gini = 0.0\nsamples = 3\nvalue = [4, 0, 0, 0, 0, 0, 0, 0]\nclass = Literatur & Unterhaltung", fillcolor="#e58139ff"] ;
383 -> 407 ;
408 [label="GenreRateGE <= 0.19\ngini = 0.44\nsamples = 4\nvalue = [0, 0, 0, 0, 0, 2, 0, 4]\nclass = Architektur & Garten", fillcolor="#e539727f"] ;
382 -> 408 ;
409 [label="gini = 0.0\nsamples = 2\nvalue = [0, 0, 0, 0, 0, 0, 0, 4]\nclass = Architektur & Garten", fillcolor="#e53972ff"] ;
408 -> 409 ;
410 [label="gini = 0.0\nsamples = 2\nvalue = [0, 0, 0, 0, 0, 2, 0, 0]\nclass = Glaube & Ethik", fillcolor="#5639e5ff"] ;
408 -> 410 ;
411 [label="NumberSymbols- <= 0.5\ngini = 0.02\nsamples = 71\nvalue = [0, 1, 0, 0, 0, 0, 118, 0]\nclass = Künste", fillcolor="#d739e5fd"] ;
381 -> 411 ;
412 [label="GenreRateGB <= 0.38\ngini = 0.06\nsamples = 21\nvalue = [0, 1, 0, 0, 0, 0, 31, 0]\nclass = Künste", fillcolor="#d739e5f7"] ;
411 -> 412 ;
413 [label="gini = 0.0\nsamples = 20\nvalue = [0, 0, 0, 0, 0, 0, 31, 0]\nclass = Künste", fillcolor="#d739e5ff"] ;
412 -> 413 ;
414 [label="gini = 0.0\nsamples = 1\nvalue = [0, 1, 0, 0, 0, 0, 0, 0]\nclass = Ratgeber", fillcolor="#c8e539ff"] ;
412 -> 414 ;
415 [label="gini = 0.0\nsamples = 50\nvalue = [0, 0, 0, 0, 0, 0, 87, 0]\nclass = Künste", fillcolor="#d739e5ff"] ;
411 -> 415 ;
416 [label="NumberSymbols% <= 0.5\ngini = 0.71\nsamples = 13\nvalue = [5, 0, 7, 0, 0, 0, 5, 2]\nclass = Kinderbuch & Jugendbuch", fillcolor="#47e53924"] ;
380 -> 416 ;
417 [label="GenreRateGB <= 0.37\ngini = 0.7\nsamples = 12\nvalue = [3, 0, 7, 0, 0, 0, 5, 2]\nclass = Kinderbuch & Jugendbuch", fillcolor="#47e5392a"] ;
416 -> 417 ;
418 [label="GenreRateK <= 0.11\ngini = 0.6\nsamples = 11\nvalue = [0, 0, 7, 0, 0, 0, 5, 2]\nclass = Kinderbuch & Jugendbuch", fillcolor="#47e53939"] ;
417 -> 418 ;
419 [label="GenreRateLU <= 0.59\ngini = 0.49\nsamples = 9\nvalue = [0, 0, 7, 0, 0, 0, 5, 0]\nclass = Kinderbuch & Jugendbuch", fillcolor="#47e53949"] ;
418 -> 419 ;
420 [label="gini = 0.0\nsamples = 1\nvalue = [0, 0, 0, 0, 0, 0, 2, 0]\nclass = Künste", fillcolor="#d739e5ff"] ;
419 -> 420 ;
421 [label="WordsPerSentence <= 10.34\ngini = 0.42\nsamples = 8\nvalue = [0, 0, 7, 0, 0, 0, 3, 0]\nclass = Kinderbuch & Jugendbuch", fillcolor="#47e53992"] ;
419 -> 421 ;
422 [label="NumberSymbols; <= 1.0\ngini = 0.44\nsamples = 2\nvalue = [0, 0, 1, 0, 0, 0, 2, 0]\nclass = Künste", fillcolor="#d739e57f"] ;
421 -> 422 ;
423 [label="gini = 0.0\nsamples = 1\nvalue = [0, 0, 0, 0, 0, 0, 2, 0]\nclass = Künste", fillcolor="#d739e5ff"] ;
422 -> 423 ;
424 [label="gini = 0.0\nsamples = 1\nvalue = [0, 0, 1, 0, 0, 0, 0, 0]\nclass = Kinderbuch & Jugendbuch", fillcolor="#47e539ff"] ;
422 -> 424 ;
425 [label="GenreRateR <= 0.66\ngini = 0.24\nsamples = 6\nvalue = [0, 0, 6, 0, 0, 0, 1, 0]\nclass = Kinderbuch & Jugendbuch", fillcolor="#47e539d4"] ;
421 -> 425 ;
426 [label="gini = 0.0\nsamples = 1\nvalue = [0, 0, 0, 0, 0, 0, 1, 0]\nclass = Künste", fillcolor="#d739e5ff"] ;
425 -> 426 ;
427 [label="gini = 0.0\nsamples = 5\nvalue = [0, 0, 6, 0, 0, 0, 0, 0]\nclass = Kinderbuch & Jugendbuch", fillcolor="#47e539ff"] ;
425 -> 427 ;
428 [label="gini = 0.0\nsamples = 2\nvalue = [0, 0, 0, 0, 0, 0, 0, 2]\nclass = Architektur & Garten", fillcolor="#e53972ff"] ;
418 -> 428 ;
429 [label="gini = 0.0\nsamples = 1\nvalue = [3, 0, 0, 0, 0, 0, 0, 0]\nclass = Literatur & Unterhaltung", fillcolor="#e58139ff"] ;
417 -> 429 ;
430 [label="gini = 0.0\nsamples = 1\nvalue = [2, 0, 0, 0, 0, 0, 0, 0]\nclass = Literatur & Unterhaltung", fillcolor="#e58139ff"] ;
416 -> 430 ;
431 [label="GenreRateS <= 1.38\ngini = 0.53\nsamples = 2817\nvalue = [15, 6, 56, 906, 25, 2890, 210, 366]\nclass = Glaube & Ethik", fillcolor="#5639e58e"] ;
1 -> 431 ;
432 [label="GenreRateK <= 0.15\ngini = 0.52\nsamples = 2590\nvalue = [15, 6, 45, 871, 24, 2713, 206, 239]\nclass = Glaube & Ethik", fillcolor="#5639e591"] ;
431 -> 432 ;
433 [label="GenreRateLU <= 2.48\ngini = 0.51\nsamples = 2575\nvalue = [15, 6, 45, 871, 2, 2713, 206, 239]\nclass = Glaube & Ethik", fillcolor="#5639e592"] ;
432 -> 433 ;
434 [label="GenreRateS <= 0.69\ngini = 0.72\nsamples = 534\nvalue = [13, 6, 23, 370, 2, 177, 149, 110]\nclass = Sachbuch", fillcolor="#39e5ac49"] ;
433 -> 434 ;
435 [label="GenreRateLU <= 1.8\ngini = 0.57\nsamples = 319\nvalue = [0, 4, 6, 308, 1, 135, 61, 5]\nclass = Sachbuch", fillcolor="#39e5ac73"] ;
434 -> 435 ;
436 [label="GenreRateGE <= 0.16\ngini = 0.46\nsamples = 130\nvalue = [0, 2, 2, 144, 1, 11, 39, 4]\nclass = Sachbuch", fillcolor="#39e5aca3"] ;
435 -> 436 ;
437 [label="GenreRateR <= 0.68\ngini = 0.37\nsamples = 119\nvalue = [0, 2, 0, 143, 1, 9, 27, 1]\nclass = Sachbuch", fillcolor="#39e5acbe"] ;
436 -> 437 ;
438 [label="GenreRateKJ <= 0.53\ngini = 0.25\nsamples = 103\nvalue = [0, 2, 0, 140, 1, 9, 10, 0]\nclass = Sachbuch", fillcolor="#39e5acda"] ;
437 -> 438 ;
439 [label="GenreRateAG <= 0.02\ngini = 0.7\nsamples = 16\nvalue = [0, 2, 0, 9, 0, 6, 9, 0]\nclass = Sachbuch", fillcolor="#39e5ac00"] ;
438 -> 439 ;
440 [label="GenreRateLU <= 1.5\ngini = 0.57\nsamples = 7\nvalue = [0, 0, 0, 6, 0, 5, 1, 0]\nclass = Sachbuch", fillcolor="#39e5ac24"] ;
439 -> 440 ;
441 [label="GenreRateK <= 0.03\ngini = 0.24\nsamples = 4\nvalue = [0, 0, 0, 6, 0, 0, 1, 0]\nclass = Sachbuch", fillcolor="#39e5acd4"] ;
440 -> 441 ;
442 [label="GenreRateS <= 0.37\ngini = 0.44\nsamples = 2\nvalue = [0, 0, 0, 2, 0, 0, 1, 0]\nclass = Sachbuch", fillcolor="#39e5ac7f"] ;
441 -> 442 ;
443 [label="gini = 0.0\nsamples = 1\nvalue = [0, 0, 0, 2, 0, 0, 0, 0]\nclass = Sachbuch", fillcolor="#39e5acff"] ;
442 -> 443 ;
444 [label="gini = 0.0\nsamples = 1\nvalue = [0, 0, 0, 0, 0, 0, 1, 0]\nclass = Künste", fillcolor="#d739e5ff"] ;
442 -> 444 ;
445 [label="gini = 0.0\nsamples = 2\nvalue = [0, 0, 0, 4, 0, 0, 0, 0]\nclass = Sachbuch", fillcolor="#39e5acff"] ;
441 -> 445 ;
446 [label="gini = 0.0\nsamples = 3\nvalue = [0, 0, 0, 0, 0, 5, 0, 0]\nclass = Glaube & Ethik", fillcolor="#5639e5ff"] ;
440 -> 446 ;
447 [label="NumberCommas <= 8.5\ngini = 0.6\nsamples = 9\nvalue = [0, 2, 0, 3, 0, 1, 8, 0]\nclass = Künste", fillcolor="#d739e574"] ;
439 -> 447 ;
448 [label="GenreRateGE <= 0.1\ngini = 0.49\nsamples = 8\nvalue = [0, 0, 0, 3, 0, 1, 8, 0]\nclass = Künste", fillcolor="#d739e58e"] ;
447 -> 448 ;
449 [label="GenreRateLU <= 1.07\ngini = 0.34\nsamples = 6\nvalue = [0, 0, 0, 1, 0, 1, 8, 0]\nclass = Künste", fillcolor="#d739e5c6"] ;
448 -> 449 ;
450 [label="gini = 0.0\nsamples = 1\nvalue = [0, 0, 0, 1, 0, 0, 0, 0]\nclass = Sachbuch", fillcolor="#39e5acff"] ;
449 -> 450 ;
451 [label="NumberCommas <= 0.5\ngini = 0.2\nsamples = 5\nvalue = [0, 0, 0, 0, 0, 1, 8, 0]\nclass = Künste", fillcolor="#d739e5df"] ;
449 -> 451 ;
452 [label="gini = 0.0\nsamples = 1\nvalue = [0, 0, 0, 0, 0, 1, 0, 0]\nclass = Glaube & Ethik", fillcolor="#5639e5ff"] ;
451 -> 452 ;
453 [label="gini = 0.0\nsamples = 4\nvalue = [0, 0, 0, 0, 0, 0, 8, 0]\nclass = Künste", fillcolor="#d739e5ff"] ;
451 -> 453 ;
454 [label="gini = 0.0\nsamples = 2\nvalue = [0, 0, 0, 2, 0, 0, 0, 0]\nclass = Sachbuch", fillcolor="#39e5acff"] ;
448 -> 454 ;
455 [label="gini = 0.0\nsamples = 1\nvalue = [0, 2, 0, 0, 0, 0, 0, 0]\nclass = Ratgeber", fillcolor="#c8e539ff"] ;
447 -> 455 ;
456 [label="GenreRateR <= 0.09\ngini = 0.07\nsamples = 87\nvalue = [0, 0, 0, 131, 1, 3, 1, 0]\nclass = Sachbuch", fillcolor="#39e5acf5"] ;
438 -> 456 ;
457 [label="gini = 0.0\nsamples = 1\nvalue = [0, 0, 0, 0, 0, 2, 0, 0]\nclass = Glaube & Ethik", fillcolor="#5639e5ff"] ;
456 -> 457 ;
458 [label="PercentageAdjectives <= 0.08\ngini = 0.04\nsamples = 86\nvalue = [0, 0, 0, 131, 1, 1, 1, 0]\nclass = Sachbuch", fillcolor="#39e5acf9"] ;
456 -> 458 ;
459 [label="gini = 0.0\nsamples = 44\nvalue = [0, 0, 0, 77, 0, 0, 0, 0]\nclass = Sachbuch", fillcolor="#39e5acff"] ;
458 -> 459 ;
460 [label="PercentageAdjectives <= 0.08\ngini = 0.1\nsamples = 42\nvalue = [0, 0, 0, 54, 1, 1, 1, 0]\nclass = Sachbuch", fillcolor="#39e5acf1"] ;
458 -> 460 ;
461 [label="gini = 0.0\nsamples = 1\nvalue = [0, 0, 0, 0, 1, 0, 0, 0]\nclass = Ganzheitliches Bewusstsein", fillcolor="#399de5ff"] ;
460 -> 461 ;
462 [label="PercentageVerbs <= 0.18\ngini = 0.07\nsamples = 41\nvalue = [0, 0, 0, 54, 0, 1, 1, 0]\nclass = Sachbuch", fillcolor="#39e5acf6"] ;
460 -> 462 ;
463 [label="GenreRateR <= 0.47\ngini = 0.04\nsamples = 39\nvalue = [0, 0, 0, 53, 0, 0, 1, 0]\nclass = Sachbuch", fillcolor="#39e5acfa"] ;
462 -> 463 ;
464 [label="gini = 0.0\nsamples = 27\nvalue = [0, 0, 0, 38, 0, 0, 0, 0]\nclass = Sachbuch", fillcolor="#39e5acff"] ;
463 -> 464 ;
465 [label="GenreRateAG <= 0.03\ngini = 0.12\nsamples = 12\nvalue = [0, 0, 0, 15, 0, 0, 1, 0]\nclass = Sachbuch", fillcolor="#39e5acee"] ;
463 -> 465 ;
466 [label="gini = 0.0\nsamples = 1\nvalue = [0, 0, 0, 0, 0, 0, 1, 0]\nclass = Künste", fillcolor="#d739e5ff"] ;
465 -> 466 ;
467 [label="gini = 0.0\nsamples = 11\nvalue = [0, 0, 0, 15, 0, 0, 0, 0]\nclass = Sachbuch", fillcolor="#39e5acff"] ;
465 -> 467 ;
468 [label="PercentageVerbs <= 0.18\ngini = 0.5\nsamples = 2\nvalue = [0, 0, 0, 1, 0, 1, 0, 0]\nclass = Sachbuch", fillcolor="#39e5ac00"] ;
462 -> 468 ;
469 [label="gini = 0.0\nsamples = 1\nvalue = [0, 0, 0, 0, 0, 1, 0, 0]\nclass = Glaube & Ethik", fillcolor="#5639e5ff"] ;
468 -> 469 ;
470 [label="gini = 0.0\nsamples = 1\nvalue = [0, 0, 0, 1, 0, 0, 0, 0]\nclass = Sachbuch", fillcolor="#39e5acff"] ;
468 -> 470 ;
471 [label="GenreRateKJ <= 0.74\ngini = 0.32\nsamples = 16\nvalue = [0, 0, 0, 3, 0, 0, 17, 1]\nclass = Künste", fillcolor="#d739e5c6"] ;
437 -> 471 ;
472 [label="NumberSentences <= 9.0\ngini = 0.1\nsamples = 14\nvalue = [0, 0, 0, 0, 0, 0, 17, 1]\nclass = Künste", fillcolor="#d739e5f0"] ;
471 -> 472 ;
473 [label="gini = 0.0\nsamples = 12\nvalue = [0, 0, 0, 0, 0, 0, 16, 0]\nclass = Künste", fillcolor="#d739e5ff"] ;
472 -> 473 ;
474 [label="PercentageVerbs <= 0.11\ngini = 0.5\nsamples = 2\nvalue = [0, 0, 0, 0, 0, 0, 1, 1]\nclass = Künste", fillcolor="#d739e500"] ;
472 -> 474 ;
475 [label="gini = 0.0\nsamples = 1\nvalue = [0, 0, 0, 0, 0, 0, 1, 0]\nclass = Künste", fillcolor="#d739e5ff"] ;
474 -> 475 ;
476 [label="gini = 0.0\nsamples = 1\nvalue = [0, 0, 0, 0, 0, 0, 0, 1]\nclass = Architektur & Garten", fillcolor="#e53972ff"] ;
474 -> 476 ;
477 [label="gini = 0.0\nsamples = 2\nvalue = [0, 0, 0, 3, 0, 0, 0, 0]\nclass = Sachbuch", fillcolor="#39e5acff"] ;
471 -> 477 ;
478 [label="PercentageVerbs <= 0.06\ngini = 0.6\nsamples = 11\nvalue = [0, 0, 2, 1, 0, 2, 12, 3]\nclass = Künste", fillcolor="#d739e587"] ;
436 -> 478 ;
479 [label="gini = 0.0\nsamples = 1\nvalue = [0, 0, 0, 0, 0, 0, 0, 3]\nclass = Architektur & Garten", fillcolor="#e53972ff"] ;
478 -> 479 ;
480 [label="GenreRateGB <= 0.31\ngini = 0.47\nsamples = 10\nvalue = [0, 0, 2, 1, 0, 2, 12, 0]\nclass = Künste", fillcolor="#d739e5aa"] ;
478 -> 480 ;
481 [label="PercentageNouns <= 0.31\ngini = 0.26\nsamples = 8\nvalue = [0, 0, 1, 1, 0, 0, 12, 0]\nclass = Künste", fillcolor="#d739e5d8"] ;
480 -> 481 ;
482 [label="PercentageVerbs <= 0.15\ngini = 0.56\nsamples = 4\nvalue = [0, 0, 1, 1, 0, 0, 3, 0]\nclass = Künste", fillcolor="#d739e57f"] ;
481 -> 482 ;
483 [label="GenreRateS <= 0.65\ngini = 0.5\nsamples = 2\nvalue = [0, 0, 1, 1, 0, 0, 0, 0]\nclass = Kinderbuch & Jugendbuch", fillcolor="#47e53900"] ;
482 -> 483 ;
484 [label="gini = 0.0\nsamples = 1\nvalue = [0, 0, 0, 1, 0, 0, 0, 0]\nclass = Sachbuch", fillcolor="#39e5acff"] ;
483 -> 484 ;
485 [label="gini = 0.0\nsamples = 1\nvalue = [0, 0, 1, 0, 0, 0, 0, 0]\nclass = Kinderbuch & Jugendbuch", fillcolor="#47e539ff"] ;
483 -> 485 ;
486 [label="gini = 0.0\nsamples = 2\nvalue = [0, 0, 0, 0, 0, 0, 3, 0]\nclass = Künste", fillcolor="#d739e5ff"] ;
482 -> 486 ;
487 [label="gini = 0.0\nsamples = 4\nvalue = [0, 0, 0, 0, 0, 0, 9, 0]\nclass = Künste", fillcolor="#d739e5ff"] ;
481 -> 487 ;
488 [label="WordsPerSentence <= 10.42\ngini = 0.44\nsamples = 2\nvalue = [0, 0, 1, 0, 0, 2, 0, 0]\nclass = Glaube & Ethik", fillcolor="#5639e57f"] ;
480 -> 488 ;
489 [label="gini = 0.0\nsamples = 1\nvalue = [0, 0, 0, 0, 0, 2, 0, 0]\nclass = Glaube & Ethik", fillcolor="#5639e5ff"] ;
488 -> 489 ;
490 [label="gini = 0.0\nsamples = 1\nvalue = [0, 0, 1, 0, 0, 0, 0, 0]\nclass = Kinderbuch & Jugendbuch", fillcolor="#47e539ff"] ;
488 -> 490 ;
491 [label="GenreRateLU <= 2.32\ngini = 0.57\nsamples = 189\nvalue = [0, 2, 4, 164, 0, 124, 22, 1]\nclass = Sachbuch", fillcolor="#39e5ac35"] ;
435 -> 491 ;
492 [label="GenreRateR <= 0.32\ngini = 0.55\nsamples = 142\nvalue = [0, 0, 4, 137, 0, 75, 20, 0]\nclass = Sachbuch", fillcolor="#39e5ac62"] ;
491 -> 492 ;
493 [label="PercentageNouns <= 0.28\ngini = 0.5\nsamples = 66\nvalue = [0, 0, 1, 45, 0, 62, 0, 0]\nclass = Glaube & Ethik", fillcolor="#5639e545"] ;
492 -> 493 ;
494 [label="WordsPerSentence <= 11.25\ngini = 0.33\nsamples = 24\nvalue = [0, 0, 0, 9, 0, 34, 0, 0]\nclass = Glaube & Ethik", fillcolor="#5639e5bb"] ;
493 -> 494 ;
495 [label="GenreRateR <= 0.21\ngini = 0.48\nsamples = 5\nvalue = [0, 0, 0, 3, 0, 2, 0, 0]\nclass = Sachbuch", fillcolor="#39e5ac55"] ;
494 -> 495 ;
496 [label="gini = 0.0\nsamples = 2\nvalue = [0, 0, 0, 2, 0, 0, 0, 0]\nclass = Sachbuch", fillcolor="#39e5acff"] ;
495 -> 496 ;
497 [label="GenreRateS <= 0.5\ngini = 0.44\nsamples = 3\nvalue = [0, 0, 0, 1, 0, 2, 0, 0]\nclass = Glaube & Ethik", fillcolor="#5639e57f"] ;
495 -> 497 ;
498 [label="gini = 0.0\nsamples = 2\nvalue = [0, 0, 0, 0, 0, 2, 0, 0]\nclass = Glaube & Ethik", fillcolor="#5639e5ff"] ;
497 -> 498 ;
499 [label="gini = 0.0\nsamples = 1\nvalue = [0, 0, 0, 1, 0, 0, 0, 0]\nclass = Sachbuch", fillcolor="#39e5acff"] ;
497 -> 499 ;
500 [label="GenreRateKJ <= 0.76\ngini = 0.27\nsamples = 19\nvalue = [0, 0, 0, 6, 0, 32, 0, 0]\nclass = Glaube & Ethik", fillcolor="#5639e5cf"] ;
494 -> 500 ;
501 [label="PercentageAdjectives <= 0.05\ngini = 0.06\nsamples = 16\nvalue = [0, 0, 0, 1, 0, 32, 0, 0]\nclass = Glaube & Ethik", fillcolor="#5639e5f7"] ;
500 -> 501 ;
502 [label="GenreRateKJ <= 0.61\ngini = 0.38\nsamples = 3\nvalue = [0, 0, 0, 1, 0, 3, 0, 0]\nclass = Glaube & Ethik", fillcolor="#5639e5aa"] ;
501 -> 502 ;
503 [label="gini = 0.0\nsamples = 2\nvalue = [0, 0, 0, 0, 0, 3, 0, 0]\nclass = Glaube & Ethik", fillcolor="#5639e5ff"] ;
502 -> 503 ;
504 [label="gini = 0.0\nsamples = 1\nvalue = [0, 0, 0, 1, 0, 0, 0, 0]\nclass = Sachbuch", fillcolor="#39e5acff"] ;
502 -> 504 ;
505 [label="gini = 0.0\nsamples = 13\nvalue = [0, 0, 0, 0, 0, 29, 0, 0]\nclass = Glaube & Ethik", fillcolor="#5639e5ff"] ;
501 -> 505 ;
506 [label="gini = 0.0\nsamples = 3\nvalue = [0, 0, 0, 5, 0, 0, 0, 0]\nclass = Sachbuch", fillcolor="#39e5acff"] ;
500 -> 506 ;
507 [label="NumberSentences <= 4.5\ngini = 0.51\nsamples = 42\nvalue = [0, 0, 1, 36, 0, 28, 0, 0]\nclass = Sachbuch", fillcolor="#39e5ac37"] ;
493 -> 507 ;
508 [label="GenreRateKJ <= 0.64\ngini = 0.42\nsamples = 21\nvalue = [0, 0, 1, 23, 0, 8, 0, 0]\nclass = Sachbuch", fillcolor="#39e5ac9f"] ;
507 -> 508 ;
509 [label="GenreRateK <= 0.02\ngini = 0.22\nsamples = 7\nvalue = [0, 0, 1, 0, 0, 7, 0, 0]\nclass = Glaube & Ethik", fillcolor="#5639e5db"] ;
508 -> 509 ;
510 [label="PercentageNouns <= 0.3\ngini = 0.5\nsamples = 2\nvalue = [0, 0, 1, 0, 0, 1, 0, 0]\nclass = Kinderbuch & Jugendbuch", fillcolor="#47e53900"] ;
509 -> 510 ;
511 [label="gini = 0.0\nsamples = 1\nvalue = [0, 0, 1, 0, 0, 0, 0, 0]\nclass = Kinderbuch & Jugendbuch", fillcolor="#47e539ff"] ;
510 -> 511 ;
512 [label="gini = 0.0\nsamples = 1\nvalue = [0, 0, 0, 0, 0, 1, 0, 0]\nclass = Glaube & Ethik", fillcolor="#5639e5ff"] ;
510 -> 512 ;
513 [label="gini = 0.0\nsamples = 5\nvalue = [0, 0, 0, 0, 0, 6, 0, 0]\nclass = Glaube & Ethik", fillcolor="#5639e5ff"] ;
509 -> 513 ;
514 [label="PercentageVerbs <= 0.03\ngini = 0.08\nsamples = 14\nvalue = [0, 0, 0, 23, 0, 1, 0, 0]\nclass = Sachbuch", fillcolor="#39e5acf4"] ;
508 -> 514 ;
515 [label="gini = 0.0\nsamples = 1\nvalue = [0, 0, 0, 0, 0, 1, 0, 0]\nclass = Glaube & Ethik", fillcolor="#5639e5ff"] ;
514 -> 515 ;
516 [label="gini = 0.0\nsamples = 13\nvalue = [0, 0, 0, 23, 0, 0, 0, 0]\nclass = Sachbuch", fillcolor="#39e5acff"] ;
514 -> 516 ;
517 [label="GenreRateK <= 0.01\ngini = 0.48\nsamples = 21\nvalue = [0, 0, 0, 13, 0, 20, 0, 0]\nclass = Glaube & Ethik", fillcolor="#5639e559"] ;
507 -> 517 ;
518 [label="gini = 0.0\nsamples = 4\nvalue = [0, 0, 0, 6, 0, 0, 0, 0]\nclass = Sachbuch", fillcolor="#39e5acff"] ;
517 -> 518 ;
519 [label="WordsPerSentence <= 17.43\ngini = 0.38\nsamples = 17\nvalue = [0, 0, 0, 7, 0, 20, 0, 0]\nclass = Glaube & Ethik", fillcolor="#5639e5a6"] ;
517 -> 519 ;
520 [label="PercentageAdjectives <= 0.05\ngini = 0.23\nsamples = 14\nvalue = [0, 0, 0, 3, 0, 20, 0, 0]\nclass = Glaube & Ethik", fillcolor="#5639e5d9"] ;
519 -> 520 ;
521 [label="gini = 0.0\nsamples = 1\nvalue = [0, 0, 0, 2, 0, 0, 0, 0]\nclass = Sachbuch", fillcolor="#39e5acff"] ;
520 -> 521 ;
522 [label="PercentageAdjectives <= 0.08\ngini = 0.09\nsamples = 13\nvalue = [0, 0, 0, 1, 0, 20, 0, 0]\nclass = Glaube & Ethik", fillcolor="#5639e5f2"] ;
520 -> 522 ;
523 [label="gini = 0.0\nsamples = 8\nvalue = [0, 0, 0, 0, 0, 13, 0, 0]\nclass = Glaube & Ethik", fillcolor="#5639e5ff"] ;
522 -> 523 ;
524 [label="GenreRateGB <= 0.14\ngini = 0.22\nsamples = 5\nvalue = [0, 0, 0, 1, 0, 7, 0, 0]\nclass = Glaube & Ethik", fillcolor="#5639e5db"] ;
522 -> 524 ;
525 [label="gini = 0.0\nsamples = 4\nvalue = [0, 0, 0, 0, 0, 7, 0, 0]\nclass = Glaube & Ethik", fillcolor="#5639e5ff"] ;
524 -> 525 ;
526 [label="gini = 0.0\nsamples = 1\nvalue = [0, 0, 0, 1, 0, 0, 0, 0]\nclass = Sachbuch", fillcolor="#39e5acff"] ;
524 -> 526 ;
527 [label="gini = 0.0\nsamples = 3\nvalue = [0, 0, 0, 4, 0, 0, 0, 0]\nclass = Sachbuch", fillcolor="#39e5acff"] ;
519 -> 527 ;
528 [label="GenreRateS <= 0.59\ngini = 0.45\nsamples = 76\nvalue = [0, 0, 3, 92, 0, 13, 20, 0]\nclass = Sachbuch", fillcolor="#39e5acaa"] ;
492 -> 528 ;
529 [label="PercentageAdjectives <= 0.23\ngini = 0.3\nsamples = 46\nvalue = [0, 0, 0, 59, 0, 2, 11, 0]\nclass = Sachbuch", fillcolor="#39e5acc9"] ;
528 -> 529 ;
530 [label="GenreRateLU <= 1.82\ngini = 0.27\nsamples = 45\nvalue = [0, 0, 0, 59, 0, 2, 9, 0]\nclass = Sachbuch", fillcolor="#39e5acd1"] ;
529 -> 530 ;
531 [label="gini = 0.0\nsamples = 1\nvalue = [0, 0, 0, 0, 0, 1, 0, 0]\nclass = Glaube & Ethik", fillcolor="#5639e5ff"] ;
530 -> 531 ;
532 [label="GenreRateR <= 0.56\ngini = 0.25\nsamples = 44\nvalue = [0, 0, 0, 59, 0, 1, 9, 0]\nclass = Sachbuch", fillcolor="#39e5acd5"] ;
530 -> 532 ;
533 [label="WordsPerSentence <= 8.8\ngini = 0.07\nsamples = 36\nvalue = [0, 0, 0, 57, 0, 1, 1, 0]\nclass = Sachbuch", fillcolor="#39e5acf6"] ;
532 -> 533 ;
534 [label="gini = 0.0\nsamples = 1\nvalue = [0, 0, 0, 0, 0, 1, 0, 0]\nclass = Glaube & Ethik", fillcolor="#5639e5ff"] ;
533 -> 534 ;
535 [label="GenreRateGE <= 0.07\ngini = 0.03\nsamples = 35\nvalue = [0, 0, 0, 57, 0, 0, 1, 0]\nclass = Sachbuch", fillcolor="#39e5acfb"] ;
533 -> 535 ;
536 [label="NumberSymbolsQ <= 1.0\ngini = 0.2\nsamples = 7\nvalue = [0, 0, 0, 8, 0, 0, 1, 0]\nclass = Sachbuch", fillcolor="#39e5acdf"] ;
535 -> 536 ;
537 [label="gini = 0.0\nsamples = 6\nvalue = [0, 0, 0, 8, 0, 0, 0, 0]\nclass = Sachbuch", fillcolor="#39e5acff"] ;
536 -> 537 ;
538 [label="gini = 0.0\nsamples = 1\nvalue = [0, 0, 0, 0, 0, 0, 1, 0]\nclass = Künste", fillcolor="#d739e5ff"] ;
536 -> 538 ;
539 [label="gini = 0.0\nsamples = 28\nvalue = [0, 0, 0, 49, 0, 0, 0, 0]\nclass = Sachbuch", fillcolor="#39e5acff"] ;
535 -> 539 ;
540 [label="GenreRateGB <= 0.34\ngini = 0.32\nsamples = 8\nvalue = [0, 0, 0, 2, 0, 0, 8, 0]\nclass = Künste", fillcolor="#d739e5bf"] ;
532 -> 540 ;
541 [label="GenreRateGE <= 0.11\ngini = 0.2\nsamples = 7\nvalue = [0, 0, 0, 1, 0, 0, 8, 0]\nclass = Künste", fillcolor="#d739e5df"] ;
540 -> 541 ;
542 [label="gini = 0.0\nsamples = 6\nvalue = [0, 0, 0, 0, 0, 0, 8, 0]\nclass = Künste", fillcolor="#d739e5ff"] ;
541 -> 542 ;
543 [label="gini = 0.0\nsamples = 1\nvalue = [0, 0, 0, 1, 0, 0, 0, 0]\nclass = Sachbuch", fillcolor="#39e5acff"] ;
541 -> 543 ;
544 [label="gini = 0.0\nsamples = 1\nvalue = [0, 0, 0, 1, 0, 0, 0, 0]\nclass = Sachbuch", fillcolor="#39e5acff"] ;
540 -> 544 ;
545 [label="gini = 0.0\nsamples = 1\nvalue = [0, 0, 0, 0, 0, 0, 2, 0]\nclass = Künste", fillcolor="#d739e5ff"] ;
529 -> 545 ;
546 [label="GenreRateLU <= 1.86\ngini = 0.59\nsamples = 30\nvalue = [0, 0, 3, 33, 0, 11, 9, 0]\nclass = Sachbuch", fillcolor="#39e5ac7d"] ;
528 -> 546 ;
547 [label="GenreRateLU <= 1.83\ngini = 0.38\nsamples = 2\nvalue = [0, 0, 3, 1, 0, 0, 0, 0]\nclass = Kinderbuch & Jugendbuch", fillcolor="#47e539aa"] ;
546 -> 547 ;
548 [label="gini = 0.0\nsamples = 1\nvalue = [0, 0, 0, 1, 0, 0, 0, 0]\nclass = Sachbuch", fillcolor="#39e5acff"] ;
547 -> 548 ;
549 [label="gini = 0.0\nsamples = 1\nvalue = [0, 0, 3, 0, 0, 0, 0, 0]\nclass = Kinderbuch & Jugendbuch", fillcolor="#47e539ff"] ;
547 -> 549 ;
550 [label="GenreRateKJ <= 0.7\ngini = 0.55\nsamples = 28\nvalue = [0, 0, 0, 32, 0, 11, 9, 0]\nclass = Sachbuch", fillcolor="#39e5ac83"] ;
546 -> 550 ;
551 [label="PercentageVerbs <= 0.12\ngini = 0.64\nsamples = 15\nvalue = [0, 0, 0, 5, 0, 10, 9, 0]\nclass = Glaube & Ethik", fillcolor="#5639e511"] ;
550 -> 551 ;
552 [label="GenreRateAG <= 0.04\ngini = 0.5\nsamples = 9\nvalue = [0, 0, 0, 4, 0, 1, 9, 0]\nclass = Künste", fillcolor="#d739e580"] ;
551 -> 552 ;
553 [label="GenreRateK <= 0.04\ngini = 0.5\nsamples = 5\nvalue = [0, 0, 0, 4, 0, 1, 1, 0]\nclass = Sachbuch", fillcolor="#39e5ac99"] ;
552 -> 553 ;
554 [label="GenreRateGB <= 0.17\ngini = 0.5\nsamples = 2\nvalue = [0, 0, 0, 0, 0, 1, 1, 0]\nclass = Glaube & Ethik", fillcolor="#5639e500"] ;
553 -> 554 ;
555 [label="gini = 0.0\nsamples = 1\nvalue = [0, 0, 0, 0, 0, 1, 0, 0]\nclass = Glaube & Ethik", fillcolor="#5639e5ff"] ;
554 -> 555 ;
556 [label="gini = 0.0\nsamples = 1\nvalue = [0, 0, 0, 0, 0, 0, 1, 0]\nclass = Künste", fillcolor="#d739e5ff"] ;
554 -> 556 ;
557 [label="gini = 0.0\nsamples = 3\nvalue = [0, 0, 0, 4, 0, 0, 0, 0]\nclass = Sachbuch", fillcolor="#39e5acff"] ;
553 -> 557 ;
558 [label="gini = 0.0\nsamples = 4\nvalue = [0, 0, 0, 0, 0, 0, 8, 0]\nclass = Künste", fillcolor="#d739e5ff"] ;
552 -> 558 ;
559 [label="GenreRateR <= 0.39\ngini = 0.18\nsamples = 6\nvalue = [0, 0, 0, 1, 0, 9, 0, 0]\nclass = Glaube & Ethik", fillcolor="#5639e5e3"] ;
551 -> 559 ;
560 [label="PercentageVerbs <= 0.15\ngini = 0.44\nsamples = 2\nvalue = [0, 0, 0, 1, 0, 2, 0, 0]\nclass = Glaube & Ethik", fillcolor="#5639e57f"] ;
559 -> 560 ;
561 [label="gini = 0.0\nsamples = 1\nvalue = [0, 0, 0, 0, 0, 2, 0, 0]\nclass = Glaube & Ethik", fillcolor="#5639e5ff"] ;
560 -> 561 ;
562 [label="gini = 0.0\nsamples = 1\nvalue = [0, 0, 0, 1, 0, 0, 0, 0]\nclass = Sachbuch", fillcolor="#39e5acff"] ;
560 -> 562 ;
563 [label="gini = 0.0\nsamples = 4\nvalue = [0, 0, 0, 0, 0, 7, 0, 0]\nclass = Glaube & Ethik", fillcolor="#5639e5ff"] ;
559 -> 563 ;
564 [label="GenreRateGE <= 0.14\ngini = 0.07\nsamples = 13\nvalue = [0, 0, 0, 27, 0, 1, 0, 0]\nclass = Sachbuch", fillcolor="#39e5acf6"] ;
550 -> 564 ;
565 [label="gini = 0.0\nsamples = 11\nvalue = [0, 0, 0, 24, 0, 0, 0, 0]\nclass = Sachbuch", fillcolor="#39e5acff"] ;
564 -> 565 ;
566 [label="NumberSentences <= 3.5\ngini = 0.38\nsamples = 2\nvalue = [0, 0, 0, 3, 0, 1, 0, 0]\nclass = Sachbuch", fillcolor="#39e5acaa"] ;
564 -> 566 ;
567 [label="gini = 0.0\nsamples = 1\nvalue = [0, 0, 0, 3, 0, 0, 0, 0]\nclass = Sachbuch", fillcolor="#39e5acff"] ;
566 -> 567 ;
568 [label="gini = 0.0\nsamples = 1\nvalue = [0, 0, 0, 0, 0, 1, 0, 0]\nclass = Glaube & Ethik", fillcolor="#5639e5ff"] ;
566 -> 568 ;
569 [label="GenreRateKJ <= 0.72\ngini = 0.52\nsamples = 47\nvalue = [0, 2, 0, 27, 0, 49, 2, 1]\nclass = Glaube & Ethik", fillcolor="#5639e568"] ;
491 -> 569 ;
570 [label="GenreRateR <= 0.73\ngini = 0.23\nsamples = 32\nvalue = [0, 2, 0, 2, 0, 49, 2, 1]\nclass = Glaube & Ethik", fillcolor="#5639e5de"] ;
569 -> 570 ;
571 [label="WordsPerSentence <= 28.5\ngini = 0.17\nsamples = 31\nvalue = [0, 2, 0, 2, 0, 49, 0, 1]\nclass = Glaube & Ethik", fillcolor="#5639e5e6"] ;
570 -> 571 ;
572 [label="NumberSentences <= 4.5\ngini = 0.11\nsamples = 30\nvalue = [0, 0, 0, 2, 0, 49, 0, 1]\nclass = Glaube & Ethik", fillcolor="#5639e5f0"] ;
571 -> 572 ;
573 [label="PercentageAdjectives <= 0.08\ngini = 0.32\nsamples = 10\nvalue = [0, 0, 0, 2, 0, 13, 0, 1]\nclass = Glaube & Ethik", fillcolor="#5639e5c8"] ;
572 -> 573 ;
574 [label="PercentageNouns <= 0.31\ngini = 0.44\nsamples = 2\nvalue = [0, 0, 0, 2, 0, 0, 0, 1]\nclass = Sachbuch", fillcolor="#39e5ac7f"] ;
573 -> 574 ;
575 [label="gini = 0.0\nsamples = 1\nvalue = [0, 0, 0, 0, 0, 0, 0, 1]\nclass = Architektur & Garten", fillcolor="#e53972ff"] ;
574 -> 575 ;
576 [label="gini = 0.0\nsamples = 1\nvalue = [0, 0, 0, 2, 0, 0, 0, 0]\nclass = Sachbuch", fillcolor="#39e5acff"] ;
574 -> 576 ;
577 [label="gini = 0.0\nsamples = 8\nvalue = [0, 0, 0, 0, 0, 13, 0, 0]\nclass = Glaube & Ethik", fillcolor="#5639e5ff"] ;
573 -> 577 ;
578 [label="gini = 0.0\nsamples = 20\nvalue = [0, 0, 0, 0, 0, 36, 0, 0]\nclass = Glaube & Ethik", fillcolor="#5639e5ff"] ;
572 -> 578 ;
579 [label="gini = 0.0\nsamples = 1\nvalue = [0, 2, 0, 0, 0, 0, 0, 0]\nclass = Ratgeber", fillcolor="#c8e539ff"] ;
571 -> 579 ;
580 [label="gini = 0.0\nsamples = 1\nvalue = [0, 0, 0, 0, 0, 0, 2, 0]\nclass = Künste", fillcolor="#d739e5ff"] ;
570 -> 580 ;
581 [label="gini = 0.0\nsamples = 15\nvalue = [0, 0, 0, 25, 0, 0, 0, 0]\nclass = Sachbuch", fillcolor="#39e5acff"] ;
569 -> 581 ;
582 [label="GenreRateKJ <= 0.69\ngini = 0.77\nsamples = 215\nvalue = [13, 2, 17, 62, 1, 42, 88, 105]\nclass = Architektur & Garten", fillcolor="#e5397212"] ;
434 -> 582 ;
583 [label="PercentageVerbs <= 0.08\ngini = 0.75\nsamples = 185\nvalue = [13, 2, 17, 28, 1, 41, 80, 105]\nclass = Architektur & Garten", fillcolor="#e539721f"] ;
582 -> 583 ;
584 [label="GenreRateGE <= 0.29\ngini = 0.8\nsamples = 37\nvalue = [7, 0, 7, 5, 1, 17, 7, 17]\nclass = Glaube & Ethik", fillcolor="#5639e500"] ;
583 -> 584 ;
585 [label="NumberSentences <= 7.5\ngini = 0.76\nsamples = 33\nvalue = [7, 0, 0, 5, 1, 17, 7, 17]\nclass = Glaube & Ethik", fillcolor="#5639e500"] ;
584 -> 585 ;
586 [label="WordsPerSentence <= 29.17\ngini = 0.76\nsamples = 28\nvalue = [7, 0, 0, 5, 1, 17, 6, 7]\nclass = Glaube & Ethik", fillcolor="#5639e547"] ;
585 -> 586 ;
587 [label="GenreRateGB <= 0.24\ngini = 0.74\nsamples = 25\nvalue = [7, 0, 0, 5, 1, 17, 6, 4]\nclass = Glaube & Ethik", fillcolor="#5639e54d"] ;
586 -> 587 ;
588 [label="GenreRateAG <= 0.04\ngini = 0.51\nsamples = 13\nvalue = [0, 0, 0, 5, 1, 13, 0, 1]\nclass = Glaube & Ethik", fillcolor="#5639e588"] ;
587 -> 588 ;
589 [label="gini = 0.0\nsamples = 7\nvalue = [0, 0, 0, 0, 0, 10, 0, 0]\nclass = Glaube & Ethik", fillcolor="#5639e5ff"] ;
588 -> 589 ;
590 [label="PercentageNouns <= 0.43\ngini = 0.64\nsamples = 6\nvalue = [0, 0, 0, 5, 1, 3, 0, 1]\nclass = Sachbuch", fillcolor="#39e5ac49"] ;
588 -> 590 ;
591 [label="GenreRateGE <= 0.19\ngini = 0.45\nsamples = 4\nvalue = [0, 0, 0, 5, 1, 0, 0, 1]\nclass = Sachbuch", fillcolor="#39e5acaa"] ;
590 -> 591 ;
592 [label="NumberSentences <= 4.5\ngini = 0.28\nsamples = 3\nvalue = [0, 0, 0, 5, 1, 0, 0, 0]\nclass = Sachbuch", fillcolor="#39e5accc"] ;
591 -> 592 ;
593 [label="gini = 0.0\nsamples = 2\nvalue = [0, 0, 0, 5, 0, 0, 0, 0]\nclass = Sachbuch", fillcolor="#39e5acff"] ;
592 -> 593 ;
594 [label="gini = 0.0\nsamples = 1\nvalue = [0, 0, 0, 0, 1, 0, 0, 0]\nclass = Ganzheitliches Bewusstsein", fillcolor="#399de5ff"] ;
592 -> 594 ;
595 [label="gini = 0.0\nsamples = 1\nvalue = [0, 0, 0, 0, 0, 0, 0, 1]\nclass = Architektur & Garten", fillcolor="#e53972ff"] ;
591 -> 595 ;
596 [label="gini = 0.0\nsamples = 2\nvalue = [0, 0, 0, 0, 0, 3, 0, 0]\nclass = Glaube & Ethik", fillcolor="#5639e5ff"] ;
590 -> 596 ;
597 [label="GenreRateK <= 0.08\ngini = 0.72\nsamples = 12\nvalue = [7, 0, 0, 0, 0, 4, 6, 3]\nclass = Literatur & Unterhaltung", fillcolor="#e5813912"] ;
587 -> 597 ;
598 [label="GenreRateKJ <= 0.5\ngini = 0.54\nsamples = 7\nvalue = [0, 0, 0, 0, 0, 1, 6, 3]\nclass = Künste", fillcolor="#d739e56d"] ;
597 -> 598 ;
599 [label="GenreRateAG <= 0.03\ngini = 0.44\nsamples = 3\nvalue = [0, 0, 0, 0, 0, 1, 0, 2]\nclass = Architektur & Garten", fillcolor="#e539727f"] ;
598 -> 599 ;
600 [label="gini = 0.0\nsamples = 1\nvalue = [0, 0, 0, 0, 0, 1, 0, 0]\nclass = Glaube & Ethik", fillcolor="#5639e5ff"] ;
599 -> 600 ;
601 [label="gini = 0.0\nsamples = 2\nvalue = [0, 0, 0, 0, 0, 0, 0, 2]\nclass = Architektur & Garten", fillcolor="#e53972ff"] ;
599 -> 601 ;
602 [label="GenreRateAG <= 0.03\ngini = 0.24\nsamples = 4\nvalue = [0, 0, 0, 0, 0, 0, 6, 1]\nclass = Künste", fillcolor="#d739e5d4"] ;
598 -> 602 ;
603 [label="gini = 0.0\nsamples = 1\nvalue = [0, 0, 0, 0, 0, 0, 0, 1]\nclass = Architektur & Garten", fillcolor="#e53972ff"] ;
602 -> 603 ;
604 [label="gini = 0.0\nsamples = 3\nvalue = [0, 0, 0, 0, 0, 0, 6, 0]\nclass = Künste", fillcolor="#d739e5ff"] ;
602 -> 604 ;
605 [label="NumberSentences <= 4.5\ngini = 0.42\nsamples = 5\nvalue = [7, 0, 0, 0, 0, 3, 0, 0]\nclass = Literatur & Unterhaltung", fillcolor="#e5813992"] ;
597 -> 605 ;
606 [label="gini = 0.0\nsamples = 1\nvalue = [0, 0, 0, 0, 0, 2, 0, 0]\nclass = Glaube & Ethik", fillcolor="#5639e5ff"] ;
605 -> 606 ;
607 [label="GenreRateK <= 0.1\ngini = 0.22\nsamples = 4\nvalue = [7, 0, 0, 0, 0, 1, 0, 0]\nclass = Literatur & Unterhaltung", fillcolor="#e58139db"] ;
605 -> 607 ;
608 [label="gini = 0.0\nsamples = 3\nvalue = [7, 0, 0, 0, 0, 0, 0, 0]\nclass = Literatur & Unterhaltung", fillcolor="#e58139ff"] ;
607 -> 608 ;
609 [label="gini = 0.0\nsamples = 1\nvalue = [0, 0, 0, 0, 0, 1, 0, 0]\nclass = Glaube & Ethik", fillcolor="#5639e5ff"] ;
607 -> 609 ;
610 [label="gini = 0.0\nsamples = 3\nvalue = [0, 0, 0, 0, 0, 0, 0, 3]\nclass = Architektur & Garten", fillcolor="#e53972ff"] ;
586 -> 610 ;
611 [label="GenreRateS <= 0.81\ngini = 0.17\nsamples = 5\nvalue = [0, 0, 0, 0, 0, 0, 1, 10]\nclass = Architektur & Garten", fillcolor="#e53972e6"] ;
585 -> 611 ;
612 [label="gini = 0.0\nsamples = 1\nvalue = [0, 0, 0, 0, 0, 0, 1, 0]\nclass = Künste", fillcolor="#d739e5ff"] ;
611 -> 612 ;
613 [label="gini = 0.0\nsamples = 4\nvalue = [0, 0, 0, 0, 0, 0, 0, 10]\nclass = Architektur & Garten", fillcolor="#e53972ff"] ;
611 -> 613 ;
614 [label="gini = 0.0\nsamples = 4\nvalue = [0, 0, 7, 0, 0, 0, 0, 0]\nclass = Kinderbuch & Jugendbuch", fillcolor="#47e539ff"] ;
584 -> 614 ;
615 [label="GenreRateGB <= 0.27\ngini = 0.72\nsamples = 148\nvalue = [6, 2, 10, 23, 0, 24, 73, 88]\nclass = Architektur & Garten", fillcolor="#e5397219"] ;
583 -> 615 ;
616 [label="GenreRateGE <= 0.2\ngini = 0.68\nsamples = 65\nvalue = [0, 1, 4, 14, 0, 17, 14, 50]\nclass = Architektur & Garten", fillcolor="#e5397265"] ;
615 -> 616 ;
617 [label="GenreRateK <= 0.04\ngini = 0.61\nsamples = 56\nvalue = [0, 0, 0, 11, 0, 14, 13, 50]\nclass = Architektur & Garten", fillcolor="#e539727c"] ;
616 -> 617 ;
618 [label="PercentageAdjectives <= 0.14\ngini = 0.42\nsamples = 18\nvalue = [0, 0, 0, 2, 0, 6, 0, 22]\nclass = Architektur & Garten", fillcolor="#e53972aa"] ;
617 -> 618 ;
619 [label="GenreRateR <= 0.38\ngini = 0.27\nsamples = 16\nvalue = [0, 0, 0, 1, 0, 3, 0, 22]\nclass = Architektur & Garten", fillcolor="#e53972d3"] ;
618 -> 619 ;
620 [label="gini = 0.0\nsamples = 9\nvalue = [0, 0, 0, 0, 0, 0, 0, 17]\nclass = Architektur & Garten", fillcolor="#e53972ff"] ;
619 -> 620 ;
621 [label="PercentageAdjectives <= 0.1\ngini = 0.57\nsamples = 7\nvalue = [0, 0, 0, 1, 0, 3, 0, 5]\nclass = Architektur & Garten", fillcolor="#e5397255"] ;
619 -> 621 ;
622 [label="GenreRateK <= 0.04\ngini = 0.38\nsamples = 4\nvalue = [0, 0, 0, 0, 0, 3, 0, 1]\nclass = Glaube & Ethik", fillcolor="#5639e5aa"] ;
621 -> 622 ;
623 [label="gini = 0.0\nsamples = 3\nvalue = [0, 0, 0, 0, 0, 3, 0, 0]\nclass = Glaube & Ethik", fillcolor="#5639e5ff"] ;
622 -> 623 ;
624 [label="gini = 0.0\nsamples = 1\nvalue = [0, 0, 0, 0, 0, 0, 0, 1]\nclass = Architektur & Garten", fillcolor="#e53972ff"] ;
622 -> 624 ;
625 [label="GenreRateS <= 0.85\ngini = 0.32\nsamples = 3\nvalue = [0, 0, 0, 1, 0, 0, 0, 4]\nclass = Architektur & Garten", fillcolor="#e53972bf"] ;
621 -> 625 ;
626 [label="gini = 0.0\nsamples = 1\nvalue = [0, 0, 0, 1, 0, 0, 0, 0]\nclass = Sachbuch", fillcolor="#39e5acff"] ;
625 -> 626 ;
627 [label="gini = 0.0\nsamples = 2\nvalue = [0, 0, 0, 0, 0, 0, 0, 4]\nclass = Architektur & Garten", fillcolor="#e53972ff"] ;
625 -> 627 ;
628 [label="NumberCommas <= 6.5\ngini = 0.38\nsamples = 2\nvalue = [0, 0, 0, 1, 0, 3, 0, 0]\nclass = Glaube & Ethik", fillcolor="#5639e5aa"] ;
618 -> 628 ;
629 [label="gini = 0.0\nsamples = 1\nvalue = [0, 0, 0, 1, 0, 0, 0, 0]\nclass = Sachbuch", fillcolor="#39e5acff"] ;
628 -> 629 ;
630 [label="gini = 0.0\nsamples = 1\nvalue = [0, 0, 0, 0, 0, 3, 0, 0]\nclass = Glaube & Ethik", fillcolor="#5639e5ff"] ;
628 -> 630 ;
631 [label="GenreRateR <= 0.63\ngini = 0.67\nsamples = 38\nvalue = [0, 0, 0, 9, 0, 8, 13, 28]\nclass = Architektur & Garten", fillcolor="#e5397255"] ;
617 -> 631 ;
632 [label="GenreRateS <= 0.89\ngini = 0.6\nsamples = 31\nvalue = [0, 0, 0, 8, 0, 7, 5, 28]\nclass = Architektur & Garten", fillcolor="#e5397280"] ;
631 -> 632 ;
633 [label="PercentageVerbs <= 0.12\ngini = 0.68\nsamples = 14\nvalue = [0, 0, 0, 8, 0, 5, 5, 1]\nclass = Sachbuch", fillcolor="#39e5ac37"] ;
632 -> 633 ;
634 [label="PercentageVerbs <= 0.11\ngini = 0.45\nsamples = 8\nvalue = [0, 0, 0, 8, 0, 1, 1, 1]\nclass = Sachbuch", fillcolor="#39e5acb3"] ;
633 -> 634 ;
635 [label="NumberCommas <= 5.5\ngini = 0.72\nsamples = 5\nvalue = [0, 0, 0, 2, 0, 1, 1, 1]\nclass = Sachbuch", fillcolor="#39e5ac40"] ;
634 -> 635 ;
636 [label="GenreRateGE <= 0.13\ngini = 0.44\nsamples = 3\nvalue = [0, 0, 0, 2, 0, 0, 1, 0]\nclass = Sachbuch", fillcolor="#39e5ac7f"] ;
635 -> 636 ;
637 [label="gini = 0.0\nsamples = 1\nvalue = [0, 0, 0, 0, 0, 0, 1, 0]\nclass = Künste", fillcolor="#d739e5ff"] ;
636 -> 637 ;
638 [label="gini = 0.0\nsamples = 2\nvalue = [0, 0, 0, 2, 0, 0, 0, 0]\nclass = Sachbuch", fillcolor="#39e5acff"] ;
636 -> 638 ;
639 [label="GenreRateGB <= 0.21\ngini = 0.5\nsamples = 2\nvalue = [0, 0, 0, 0, 0, 1, 0, 1]\nclass = Glaube & Ethik", fillcolor="#5639e500"] ;
635 -> 639 ;
640 [label="gini = 0.0\nsamples = 1\nvalue = [0, 0, 0, 0, 0, 0, 0, 1]\nclass = Architektur & Garten", fillcolor="#e53972ff"] ;
639 -> 640 ;
641 [label="gini = 0.0\nsamples = 1\nvalue = [0, 0, 0, 0, 0, 1, 0, 0]\nclass = Glaube & Ethik", fillcolor="#5639e5ff"] ;
639 -> 641 ;
642 [label="gini = 0.0\nsamples = 3\nvalue = [0, 0, 0, 6, 0, 0, 0, 0]\nclass = Sachbuch", fillcolor="#39e5acff"] ;
634 -> 642 ;
643 [label="NumberSymbols- <= 0.5\ngini = 0.5\nsamples = 6\nvalue = [0, 0, 0, 0, 0, 4, 4, 0]\nclass = Glaube & Ethik", fillcolor="#5639e500"] ;
633 -> 643 ;
644 [label="gini = 0.0\nsamples = 2\nvalue = [0, 0, 0, 0, 0, 0, 3, 0]\nclass = Künste", fillcolor="#d739e5ff"] ;
643 -> 644 ;
645 [label="PercentageNouns <= 0.23\ngini = 0.32\nsamples = 4\nvalue = [0, 0, 0, 0, 0, 4, 1, 0]\nclass = Glaube & Ethik", fillcolor="#5639e5bf"] ;
643 -> 645 ;
646 [label="gini = 0.0\nsamples = 1\nvalue = [0, 0, 0, 0, 0, 0, 1, 0]\nclass = Künste", fillcolor="#d739e5ff"] ;
645 -> 646 ;
647 [label="gini = 0.0\nsamples = 3\nvalue = [0, 0, 0, 0, 0, 4, 0, 0]\nclass = Glaube & Ethik", fillcolor="#5639e5ff"] ;
645 -> 647 ;
648 [label="PercentageNouns <= 0.32\ngini = 0.13\nsamples = 17\nvalue = [0, 0, 0, 0, 0, 2, 0, 27]\nclass = Architektur & Garten", fillcolor="#e53972ec"] ;
632 -> 648 ;
649 [label="gini = 0.0\nsamples = 9\nvalue = [0, 0, 0, 0, 0, 0, 0, 15]\nclass = Architektur & Garten", fillcolor="#e53972ff"] ;
648 -> 649 ;
650 [label="NumberSymbolsQ <= 1.0\ngini = 0.24\nsamples = 8\nvalue = [0, 0, 0, 0, 0, 2, 0, 12]\nclass = Architektur & Garten", fillcolor="#e53972d4"] ;
648 -> 650 ;
651 [label="gini = 0.0\nsamples = 6\nvalue = [0, 0, 0, 0, 0, 0, 0, 11]\nclass = Architektur & Garten", fillcolor="#e53972ff"] ;
650 -> 651 ;
652 [label="NumberSymbols- <= 1.5\ngini = 0.44\nsamples = 2\nvalue = [0, 0, 0, 0, 0, 2, 0, 1]\nclass = Glaube & Ethik", fillcolor="#5639e57f"] ;
650 -> 652 ;
653 [label="gini = 0.0\nsamples = 1\nvalue = [0, 0, 0, 0, 0, 2, 0, 0]\nclass = Glaube & Ethik", fillcolor="#5639e5ff"] ;
652 -> 653 ;
654 [label="gini = 0.0\nsamples = 1\nvalue = [0, 0, 0, 0, 0, 0, 0, 1]\nclass = Architektur & Garten", fillcolor="#e53972ff"] ;
652 -> 654 ;
655 [label="GenreRateGE <= 0.15\ngini = 0.34\nsamples = 7\nvalue = [0, 0, 0, 1, 0, 1, 8, 0]\nclass = Künste", fillcolor="#d739e5c6"] ;
631 -> 655 ;
656 [label="gini = 0.0\nsamples = 4\nvalue = [0, 0, 0, 0, 0, 0, 6, 0]\nclass = Künste", fillcolor="#d739e5ff"] ;
655 -> 656 ;
657 [label="GenreRateR <= 0.88\ngini = 0.62\nsamples = 3\nvalue = [0, 0, 0, 1, 0, 1, 2, 0]\nclass = Künste", fillcolor="#d739e555"] ;
655 -> 657 ;
658 [label="GenreRateKJ <= 0.49\ngini = 0.5\nsamples = 2\nvalue = [0, 0, 0, 1, 0, 1, 0, 0]\nclass = Sachbuch", fillcolor="#39e5ac00"] ;
657 -> 658 ;
659 [label="gini = 0.0\nsamples = 1\nvalue = [0, 0, 0, 1, 0, 0, 0, 0]\nclass = Sachbuch", fillcolor="#39e5acff"] ;
658 -> 659 ;
660 [label="gini = 0.0\nsamples = 1\nvalue = [0, 0, 0, 0, 0, 1, 0, 0]\nclass = Glaube & Ethik", fillcolor="#5639e5ff"] ;
658 -> 660 ;
661 [label="gini = 0.0\nsamples = 1\nvalue = [0, 0, 0, 0, 0, 0, 2, 0]\nclass = Künste", fillcolor="#d739e5ff"] ;
657 -> 661 ;
662 [label="GenreRateGE <= 0.3\ngini = 0.75\nsamples = 9\nvalue = [0, 1, 4, 3, 0, 3, 1, 0]\nclass = Kinderbuch & Jugendbuch", fillcolor="#47e5391c"] ;
616 -> 662 ;
663 [label="GenreRateS <= 0.85\ngini = 0.74\nsamples = 7\nvalue = [0, 1, 1, 3, 0, 3, 1, 0]\nclass = Sachbuch", fillcolor="#39e5ac00"] ;
662 -> 663 ;
664 [label="GenreRateKJ <= 0.51\ngini = 0.38\nsamples = 3\nvalue = [0, 1, 0, 3, 0, 0, 0, 0]\nclass = Sachbuch", fillcolor="#39e5acaa"] ;
663 -> 664 ;
665 [label="gini = 0.0\nsamples = 1\nvalue = [0, 1, 0, 0, 0, 0, 0, 0]\nclass = Ratgeber", fillcolor="#c8e539ff"] ;
664 -> 665 ;
666 [label="gini = 0.0\nsamples = 2\nvalue = [0, 0, 0, 3, 0, 0, 0, 0]\nclass = Sachbuch", fillcolor="#39e5acff"] ;
664 -> 666 ;
667 [label="WordsPerSentence <= 16.44\ngini = 0.56\nsamples = 4\nvalue = [0, 0, 1, 0, 0, 3, 1, 0]\nclass = Glaube & Ethik", fillcolor="#5639e57f"] ;
663 -> 667 ;
668 [label="gini = 0.0\nsamples = 2\nvalue = [0, 0, 0, 0, 0, 3, 0, 0]\nclass = Glaube & Ethik", fillcolor="#5639e5ff"] ;
667 -> 668 ;
669 [label="GenreRateLU <= 2.28\ngini = 0.5\nsamples = 2\nvalue = [0, 0, 1, 0, 0, 0, 1, 0]\nclass = Kinderbuch & Jugendbuch", fillcolor="#47e53900"] ;
667 -> 669 ;
670 [label="gini = 0.0\nsamples = 1\nvalue = [0, 0, 1, 0, 0, 0, 0, 0]\nclass = Kinderbuch & Jugendbuch", fillcolor="#47e539ff"] ;
669 -> 670 ;
671 [label="gini = 0.0\nsamples = 1\nvalue = [0, 0, 0, 0, 0, 0, 1, 0]\nclass = Künste", fillcolor="#d739e5ff"] ;
669 -> 671 ;
672 [label="gini = 0.0\nsamples = 2\nvalue = [0, 0, 3, 0, 0, 0, 0, 0]\nclass = Kinderbuch & Jugendbuch", fillcolor="#47e539ff"] ;
662 -> 672 ;
673 [label="GenreRateAG <= 0.16\ngini = 0.68\nsamples = 83\nvalue = [6, 1, 6, 9, 0, 7, 59, 38]\nclass = Künste", fillcolor="#d739e53d"] ;
615 -> 673 ;
674 [label="WordsPerSentence <= 20.17\ngini = 0.65\nsamples = 79\nvalue = [0, 1, 6, 9, 0, 7, 59, 38]\nclass = Künste", fillcolor="#d739e541"] ;
673 -> 674 ;
675 [label="GenreRateR <= 0.78\ngini = 0.6\nsamples = 56\nvalue = [0, 1, 6, 5, 0, 6, 52, 20]\nclass = Künste", fillcolor="#d739e575"] ;
674 -> 675 ;
676 [label="GenreRateGE <= 0.22\ngini = 0.7\nsamples = 28\nvalue = [0, 1, 4, 2, 0, 6, 9, 20]\nclass = Architektur & Garten", fillcolor="#e5397255"] ;
675 -> 676 ;
677 [label="GenreRateLU <= 2.4\ngini = 0.51\nsamples = 18\nvalue = [0, 1, 0, 0, 0, 1, 8, 17]\nclass = Architektur & Garten", fillcolor="#e5397279"] ;
676 -> 677 ;
678 [label="WordsPerSentence <= 15.51\ngini = 0.45\nsamples = 16\nvalue = [0, 1, 0, 0, 0, 1, 5, 17]\nclass = Architektur & Garten", fillcolor="#e53972a1"] ;
677 -> 678 ;
679 [label="gini = 0.0\nsamples = 5\nvalue = [0, 0, 0, 0, 0, 0, 0, 9]\nclass = Architektur & Garten", fillcolor="#e53972ff"] ;
678 -> 679 ;
680 [label="GenreRateLU <= 1.9\ngini = 0.6\nsamples = 11\nvalue = [0, 1, 0, 0, 0, 1, 5, 8]\nclass = Architektur & Garten", fillcolor="#e539724c"] ;
678 -> 680 ;
